<?xml version="1.0"?>
<MethodSetup Method="BDT::BDTG_11GeVP_clusterinfo">
  <GeneralInfo>
    <Info name="TMVA Release" value="4.2.0 [262656]"/>
    <Info name="ROOT Release" value="5.34/10 [336394]"/>
    <Info name="Creator" value="halesert"/>
    <Info name="Date" value="Mon Jan 26 16:49:18 2015"/>
    <Info name="Host" value="Linux ilcsoft_build_sl6.desy.de 2.6.32-431.1.2.el6.x86_64 #1 SMP Thu Dec 12 13:59:19 CST 2013 x86_64 x86_64 x86_64 GNU/Linux"/>
    <Info name="Dir" value="/afs/desy.de/group/flc/pool/halesert/CodePool/TMVA/TMVA-v4.2.0/workdir/MyAna/Analysis"/>
    <Info name="Training events" value="10000"/>
    <Info name="TrainingTime" value="5.64108801e+00"/>
    <Info name="AnalysisType" value="Classification"/>
  </GeneralInfo>
  <Options>
    <Option name="V" modified="Yes">False</Option>
    <Option name="VerbosityLevel" modified="No">Default</Option>
    <Option name="VarTransform" modified="No">None</Option>
    <Option name="H" modified="Yes">False</Option>
    <Option name="CreateMVAPdfs" modified="No">False</Option>
    <Option name="IgnoreNegWeightsInTraining" modified="No">False</Option>
    <Option name="NTrees" modified="Yes">1000</Option>
    <Option name="MaxDepth" modified="Yes">2</Option>
    <Option name="MinNodeSize" modified="Yes">2.5%</Option>
    <Option name="nCuts" modified="Yes">20</Option>
    <Option name="BoostType" modified="Yes">Grad</Option>
    <Option name="AdaBoostR2Loss" modified="No">quadratic</Option>
    <Option name="UseBaggedBoost" modified="Yes">True</Option>
    <Option name="Shrinkage" modified="Yes">1.000000e-01</Option>
    <Option name="AdaBoostBeta" modified="No">5.000000e-01</Option>
    <Option name="UseRandomisedTrees" modified="No">False</Option>
    <Option name="UseNvars" modified="No">2</Option>
    <Option name="UsePoissonNvars" modified="No">True</Option>
    <Option name="BaggedSampleFraction" modified="Yes">5.000000e-01</Option>
    <Option name="UseYesNoLeaf" modified="No">True</Option>
    <Option name="NegWeightTreatment" modified="No">ignorenegweightsintraining</Option>
    <Option name="Css" modified="No">1.000000e+00</Option>
    <Option name="Cts_sb" modified="No">1.000000e+00</Option>
    <Option name="Ctb_ss" modified="No">1.000000e+00</Option>
    <Option name="Cbb" modified="No">1.000000e+00</Option>
    <Option name="NodePurityLimit" modified="No">5.000000e-01</Option>
    <Option name="SeparationType" modified="No">giniindex</Option>
    <Option name="DoBoostMonitor" modified="No">False</Option>
    <Option name="UseFisherCuts" modified="No">False</Option>
    <Option name="MinLinCorrForFisher" modified="No">8.000000e-01</Option>
    <Option name="UseExclusiveVars" modified="No">False</Option>
    <Option name="DoPreselection" modified="No">False</Option>
    <Option name="SigToBkgFraction" modified="No">1.000000e+00</Option>
    <Option name="PruneMethod" modified="No">nopruning</Option>
    <Option name="PruneStrength" modified="No">0.000000e+00</Option>
    <Option name="PruningValFraction" modified="No">5.000000e-01</Option>
    <Option name="nEventsMin" modified="No">0</Option>
    <Option name="UseBaggedGrad" modified="No">False</Option>
    <Option name="GradBaggingFraction" modified="No">5.000000e-01</Option>
    <Option name="UseNTrainEvents" modified="No">0</Option>
    <Option name="NNodesMax" modified="No">0</Option>
  </Options>
  <Variables NVar="4">
    <Variable VarIndex="0" Expression="Dclus" Label="Dclus" Title="Dclus:Zlus/costheta" Unit="mm" Internal="Dclus" Type="" Min="8.61055088e+00" Max="1.91835547e+03"/>
    <Variable VarIndex="1" Expression="EclOvPtr" Label="EclOvPtr" Title="EclusOverPtrue" Unit="1" Internal="EclOvPtr" Type="" Min="6.34043366e-02" Max="8.68229866e+00"/>
    <Variable VarIndex="2" Expression="Rmean" Label="Rmean" Title="Rmean" Unit="mm" Internal="Rmean" Type="" Min="3.43753409e+00" Max="3.52108215e+02"/>
    <Variable VarIndex="3" Expression="Rrms" Label="Rrms" Title="Rrms" Unit="mm" Internal="Rrms" Type="" Min="3.96571040e+00" Max="3.70648773e+02"/>
  </Variables>
  <Spectators NSpec="0"/>
  <Classes NClass="2">
    <Class Name="Signal" Index="0"/>
    <Class Name="Background" Index="1"/>
  </Classes>
  <Transformations NTransformations="0"/>
  <MVAPdfs/>
  <Weights NTrees="1000" AnalysisType="1">
    <BinaryTree type="DecisionTree" boostWeight="1.0000000000000000e+00" itree="0">
      <Node pos="s" depth="0" NCoef="0" IVar="0" Cut="3.7237149047851562e+02" cType="0" res="-1.9944156520068645e-04" rms="4.9999997019767761e-01" purity="4.9980056285858154e-01" nType="0">
        <Node pos="l" depth="1" NCoef="0" IVar="0" Cut="4.4619708251953125e+02" cType="0" res="4.3705111742019653e-01" rms="2.4287098646163940e-01" purity="9.3705111742019653e-01" nType="0">
          <Node pos="l" depth="2" NCoef="0" IVar="-1" Cut="0.0000000000000000e+00" cType="1" res="9.2678867280483246e-02" rms="1.9218538701534271e-01" purity="9.6158939599990845e-01" nType="-99"/>
          <Node pos="r" depth="2" NCoef="0" IVar="-1" Cut="0.0000000000000000e+00" cType="1" res="7.9343281686306000e-02" rms="3.0807343125343323e-01" purity="8.9381563663482666e-01" nType="-99"/>
        </Node>
        <Node pos="r" depth="1" NCoef="0" IVar="3" Cut="1.2148244476318359e+02" cType="0" res="-3.9119759202003479e-01" rms="3.1139114499092102e-01" purity="1.0880241543054581e-01" nType="0">
          <Node pos="l" depth="2" NCoef="0" IVar="-1" Cut="0.0000000000000000e+00" cType="1" res="-8.6100859334692359e-04" rms="4.9995648860931396e-01" purity="5.0659632682800293e-01" nType="-99"/>
          <Node pos="r" depth="2" NCoef="0" IVar="-1" Cut="0.0000000000000000e+00" cType="1" res="-9.1124914586544037e-02" rms="2.0133648812770844e-01" purity="4.2328041046857834e-02" nType="-99"/>
        </Node>
      </Node>
    </BinaryTree>
    <BinaryTree type="DecisionTree" boostWeight="1.0000000000000000e+00" itree="1">
      <Node pos="s" depth="0" NCoef="0" IVar="0" Cut="3.2619430541992188e+02" cType="0" res="1.4648442156612873e-03" rms="4.6300086379051208e-01" purity="5.0147432088851929e-01" nType="0">
        <Node pos="l" depth="1" NCoef="0" IVar="0" Cut="3.8917745971679688e+02" cType="0" res="3.7356391549110413e-01" rms="2.7563107013702393e-01" purity="9.1274398565292358e-01" nType="0">
          <Node pos="l" depth="2" NCoef="0" IVar="-1" Cut="0.0000000000000000e+00" cType="1" res="8.1454463303089142e-02" rms="2.1474367380142212e-01" purity="9.5140999555587769e-01" nType="-99"/>
          <Node pos="r" depth="2" NCoef="0" IVar="-1" Cut="0.0000000000000000e+00" cType="1" res="2.1294901147484779e-02" rms="4.7635960578918457e-01" purity="6.2337660789489746e-01" nType="-99"/>
        </Node>
        <Node pos="r" depth="1" NCoef="0" IVar="3" Cut="1.2174929809570312e+02" cType="0" res="-3.9154034852981567e-01" rms="2.4464854598045349e-01" purity="6.7097820341587067e-02" nType="0">
          <Node pos="l" depth="2" NCoef="0" IVar="-1" Cut="0.0000000000000000e+00" cType="1" res="-1.7182987183332443e-02" rms="4.9477836489677429e-01" purity="4.2792794108390808e-01" nType="-99"/>
          <Node pos="r" depth="2" NCoef="0" IVar="-1" Cut="0.0000000000000000e+00" cType="1" res="-8.4127895534038544e-02" rms="1.7475084960460663e-01" purity="3.1527530401945114e-02" nType="-99"/>
        </Node>
      </Node>
    </BinaryTree>
    <BinaryTree type="DecisionTree" boostWeight="1.0000000000000000e+00" itree="2">
      <Node pos="s" depth="0" NCoef="0" IVar="0" Cut="3.1987078857421875e+02" cType="0" res="-4.4566225260496140e-03" rms="4.3077233433723450e-01" purity="4.9454906582832336e-01" nType="0">
        <Node pos="l" depth="1" NCoef="0" IVar="0" Cut="3.8125692749023438e+02" cType="0" res="3.3325630426406860e-01" rms="2.7813190221786499e-01" purity="9.0732842683792114e-01" nType="0">
          <Node pos="l" depth="2" NCoef="0" IVar="-1" Cut="0.0000000000000000e+00" cType="1" res="7.4217632412910461e-02" rms="2.2074015438556671e-01" purity="9.4835883378982544e-01" nType="-99"/>
          <Node pos="r" depth="2" NCoef="0" IVar="-1" Cut="0.0000000000000000e+00" cType="1" res="1.0178849101066589e-02" rms="4.8001852631568909e-01" purity="5.8843535184860229e-01" nType="-99"/>
        </Node>
        <Node pos="r" depth="1" NCoef="0" IVar="0" Cut="2.3307411193847656e+02" cType="0" res="-3.5764464735984802e-01" rms="2.3390755057334900e-01" purity="6.2854826450347900e-02" nType="0">
          <Node pos="l" depth="2" NCoef="0" IVar="-1" Cut="0.0000000000000000e+00" cType="1" res="-3.3175956457853317e-02" rms="4.3282824754714966e-01" purity="2.7412280440330505e-01" nType="-99"/>
          <Node pos="r" depth="2" NCoef="0" IVar="-1" Cut="0.0000000000000000e+00" cType="1" res="-8.1224068999290466e-02" rms="1.2200755625963211e-01" purity="1.4925372786819935e-02" nType="-99"/>
        </Node>
      </Node>
    </BinaryTree>
    <BinaryTree type="DecisionTree" boostWeight="1.0000000000000000e+00" itree="3">
      <Node pos="s" depth="0" NCoef="0" IVar="0" Cut="3.7284591674804688e+02" cType="0" res="-9.6262423321604729e-03" rms="4.0471726655960083e-01" purity="4.8942658305168152e-01" nType="0">
        <Node pos="l" depth="1" NCoef="0" IVar="1" Cut="8.4218633174896240e-01" cType="0" res="3.1652036309242249e-01" rms="2.4683256447315216e-01" purity="9.3389159440994263e-01" nType="0">
          <Node pos="l" depth="2" NCoef="0" IVar="-1" Cut="0.0000000000000000e+00" cType="1" res="6.9653086364269257e-02" rms="2.2864259779453278e-01" purity="9.4376182556152344e-01" nType="-99"/>
          <Node pos="r" depth="2" NCoef="0" IVar="-1" Cut="0.0000000000000000e+00" cType="1" res="4.7100607305765152e-02" rms="4.0126878023147583e-01" purity="7.9738563299179077e-01" nType="-99"/>
        </Node>
        <Node pos="r" depth="1" NCoef="0" IVar="3" Cut="1.5210787963867188e+02" cType="0" res="-2.8898701071739197e-01" rms="2.8767010569572449e-01" purity="1.0872027277946472e-01" nType="0">
          <Node pos="l" depth="2" NCoef="0" IVar="-1" Cut="0.0000000000000000e+00" cType="1" res="3.3260811120271683e-02" rms="4.6833667159080505e-01" purity="6.7010307312011719e-01" nType="-99"/>
          <Node pos="r" depth="2" NCoef="0" IVar="-1" Cut="0.0000000000000000e+00" cType="1" res="-6.6596366465091705e-02" rms="2.3354506492614746e-01" purity="6.4358450472354889e-02" nType="-99"/>
        </Node>
      </Node>
    </BinaryTree>
    <BinaryTree type="DecisionTree" boostWeight="1.0000000000000000e+00" itree="4">
      <Node pos="s" depth="0" NCoef="0" IVar="0" Cut="3.1942269897460938e+02" cType="0" res="2.2974368184804916e-03" rms="3.8047161698341370e-01" purity="5.0457596778869629e-01" nType="0">
        <Node pos="l" depth="1" NCoef="0" IVar="0" Cut="3.8235644531250000e+02" cType="0" res="2.6359954476356506e-01" rms="2.8218802809715271e-01" purity="8.9821982383728027e-01" nType="0">
          <Node pos="l" depth="2" NCoef="0" IVar="-1" Cut="0.0000000000000000e+00" cType="1" res="6.4688056707382202e-02" rms="2.3070634901523590e-01" purity="9.4305735826492310e-01" nType="-99"/>
          <Node pos="r" depth="2" NCoef="0" IVar="-1" Cut="0.0000000000000000e+00" cType="1" res="1.0019062086939812e-02" rms="4.7478717565536499e-01" purity="5.5813956260681152e-01" nType="-99"/>
        </Node>
        <Node pos="r" depth="1" NCoef="0" IVar="3" Cut="1.2121416473388672e+02" cType="0" res="-2.8711733222007751e-01" rms="2.3980952799320221e-01" purity="6.8581223487854004e-02" nType="0">
          <Node pos="l" depth="2" NCoef="0" IVar="-1" Cut="0.0000000000000000e+00" cType="1" res="-9.0198302641510963e-03" rms="4.8796164989471436e-01" purity="4.1284403204917908e-01" nType="-99"/>
          <Node pos="r" depth="2" NCoef="0" IVar="-1" Cut="0.0000000000000000e+00" cType="1" res="-6.8566836416721344e-02" rms="1.7748109996318817e-01" purity="3.3096928149461746e-02" nType="-99"/>
        </Node>
      </Node>
    </BinaryTree>
    <BinaryTree type="DecisionTree" boostWeight="1.0000000000000000e+00" itree="5">
      <Node pos="s" depth="0" NCoef="0" IVar="0" Cut="3.1942269897460938e+02" cType="0" res="-1.3717862311750650e-03" rms="3.6300569772720337e-01" purity="4.9571284651756287e-01" nType="0">
        <Node pos="l" depth="1" NCoef="0" IVar="0" Cut="3.8235644531250000e+02" cType="0" res="2.3822773993015289e-01" rms="2.8481891751289368e-01" purity="8.9596271514892578e-01" nType="0">
          <Node pos="l" depth="2" NCoef="0" IVar="-1" Cut="0.0000000000000000e+00" cType="1" res="6.0896962881088257e-02" rms="2.3487289249897003e-01" purity="9.4088667631149292e-01" nType="-99"/>
          <Node pos="r" depth="2" NCoef="0" IVar="-1" Cut="0.0000000000000000e+00" cType="1" res="9.0222293511033058e-03" rms="4.7248882055282593e-01" purity="6.0349851846694946e-01" nType="-99"/>
        </Node>
        <Node pos="r" depth="1" NCoef="0" IVar="0" Cut="2.3050532531738281e+02" cType="0" res="-2.5442975759506226e-01" rms="2.4616791307926178e-01" purity="7.2980731725692749e-02" nType="0">
          <Node pos="l" depth="2" NCoef="0" IVar="-1" Cut="0.0000000000000000e+00" cType="1" res="-2.1546185016632080e-02" rms="4.3051329255104065e-01" purity="2.7655309438705444e-01" nType="-99"/>
          <Node pos="r" depth="2" NCoef="0" IVar="-1" Cut="0.0000000000000000e+00" cType="1" res="-6.8721346557140350e-02" rms="1.4308355748653412e-01" purity="2.0618556067347527e-02" nType="-99"/>
        </Node>
      </Node>
    </BinaryTree>
    <BinaryTree type="DecisionTree" boostWeight="1.0000000000000000e+00" itree="6">
      <Node pos="s" depth="0" NCoef="0" IVar="0" Cut="2.8860116577148438e+02" cType="0" res="1.0055573657155037e-02" rms="3.4079641103744507e-01" purity="5.1825267076492310e-01" nType="0">
        <Node pos="l" depth="1" NCoef="0" IVar="0" Cut="3.6725961303710938e+02" cType="0" res="2.1127618849277496e-01" rms="2.8600868582725525e-01" purity="8.8250273466110229e-01" nType="0">
          <Node pos="l" depth="2" NCoef="0" IVar="-1" Cut="0.0000000000000000e+00" cType="1" res="5.6506324559450150e-02" rms="2.3510089516639709e-01" purity="9.3902945518493652e-01" nType="-99"/>
          <Node pos="r" depth="2" NCoef="0" IVar="-1" Cut="0.0000000000000000e+00" cType="1" res="-4.2101978324353695e-03" rms="4.7735062241554260e-01" purity="4.7928994894027710e-01" nType="-99"/>
        </Node>
        <Node pos="r" depth="1" NCoef="0" IVar="2" Cut="1.0067505645751953e+02" cType="0" res="-2.5000810623168945e-01" rms="2.0140145719051361e-01" purity="4.7484721988439560e-02" nType="0">
          <Node pos="l" depth="2" NCoef="0" IVar="-1" Cut="0.0000000000000000e+00" cType="1" res="-1.6718350350856781e-02" rms="4.5363500714302063e-01" purity="3.0927833914756775e-01" nType="-99"/>
          <Node pos="r" depth="2" NCoef="0" IVar="-1" Cut="0.0000000000000000e+00" cType="1" res="-6.3731648027896881e-02" rms="1.4356864988803864e-01" purity="2.1210553124547005e-02" nType="-99"/>
        </Node>
      </Node>
    </BinaryTree>
    <BinaryTree type="DecisionTree" boostWeight="1.0000000000000000e+00" itree="7">
      <Node pos="s" depth="0" NCoef="0" IVar="0" Cut="3.4143634033203125e+02" cType="0" res="5.7218684814870358e-03" rms="3.2800465822219849e-01" purity="5.1039999723434448e-01" nType="0">
        <Node pos="l" depth="1" NCoef="0" IVar="0" Cut="4.0514208984375000e+02" cType="0" res="2.0740327239036560e-01" rms="2.5694784522056580e-01" purity="9.2086613178253174e-01" nType="0">
          <Node pos="l" depth="2" NCoef="0" IVar="-1" Cut="0.0000000000000000e+00" cType="1" res="5.7860422879457474e-02" rms="1.9522987306118011e-01" purity="9.6011263132095337e-01" nType="-99"/>
          <Node pos="r" depth="2" NCoef="0" IVar="-1" Cut="0.0000000000000000e+00" cType="1" res="2.1372890099883080e-02" rms="4.3965879082679749e-01" purity="7.1638143062591553e-01" nType="-99"/>
        </Node>
        <Node pos="r" depth="1" NCoef="0" IVar="0" Cut="2.3042416381835938e+02" cType="0" res="-2.0251828432083130e-01" rms="2.5522834062576294e-01" purity="8.6585365235805511e-02" nType="0">
          <Node pos="l" depth="2" NCoef="0" IVar="-1" Cut="0.0000000000000000e+00" cType="1" res="-1.8246956169605255e-02" rms="4.4145342707633972e-01" purity="3.0860033631324768e-01" nType="-99"/>
          <Node pos="r" depth="2" NCoef="0" IVar="-1" Cut="0.0000000000000000e+00" cType="1" res="-6.2934376299381256e-02" rms="1.2685388326644897e-01" purity="1.6068559139966965e-02" nType="-99"/>
        </Node>
      </Node>
    </BinaryTree>
    <BinaryTree type="DecisionTree" boostWeight="1.0000000000000000e+00" itree="8">
      <Node pos="s" depth="0" NCoef="0" IVar="0" Cut="3.3577426147460938e+02" cType="0" res="-1.5732739120721817e-03" rms="3.1734302639961243e-01" purity="4.9751836061477661e-01" nType="0">
        <Node pos="l" depth="1" NCoef="0" IVar="0" Cut="4.0186782836914062e+02" cType="0" res="1.7822530865669250e-01" rms="2.6997628808021545e-01" purity="9.0891087055206299e-01" nType="0">
          <Node pos="l" depth="2" NCoef="0" IVar="-1" Cut="0.0000000000000000e+00" cType="1" res="5.4845247417688370e-02" rms="2.1380743384361267e-01" purity="9.5175641775131226e-01" nType="-99"/>
          <Node pos="r" depth="2" NCoef="0" IVar="-1" Cut="0.0000000000000000e+00" cType="1" res="1.5670672059059143e-02" rms="4.5147934556007385e-01" purity="6.7435896396636963e-01" nType="-99"/>
        </Node>
        <Node pos="r" depth="1" NCoef="0" IVar="3" Cut="1.2567586517333984e+02" cType="0" res="-1.8230234086513519e-01" rms="2.5201615691184998e-01" purity="8.3996817469596863e-02" nType="0">
          <Node pos="l" depth="2" NCoef="0" IVar="-1" Cut="0.0000000000000000e+00" cType="1" res="2.5469384854659438e-04" rms="4.9460124969482422e-01" purity="4.8706895112991333e-01" nType="-99"/>
          <Node pos="r" depth="2" NCoef="0" IVar="-1" Cut="0.0000000000000000e+00" cType="1" res="-5.5516339838504791e-02" rms="1.9699668884277344e-01" purity="4.2982455343008041e-02" nType="-99"/>
        </Node>
      </Node>
    </BinaryTree>
    <BinaryTree type="DecisionTree" boostWeight="1.0000000000000000e+00" itree="9">
      <Node pos="s" depth="0" NCoef="0" IVar="0" Cut="3.1942269897460938e+02" cType="0" res="-1.7648038920015097e-03" rms="3.0414929986000061e-01" purity="4.9879807233810425e-01" nType="0">
        <Node pos="l" depth="1" NCoef="0" IVar="0" Cut="3.8241171264648438e+02" cType="0" res="1.5533426403999329e-01" rms="2.7605524659156799e-01" purity="8.9721792936325073e-01" nType="0">
          <Node pos="l" depth="2" NCoef="0" IVar="-1" Cut="0.0000000000000000e+00" cType="1" res="4.9623403698205948e-02" rms="2.3518083989620209e-01" purity="9.4001752138137817e-01" nType="-99"/>
          <Node pos="r" depth="2" NCoef="0" IVar="-1" Cut="0.0000000000000000e+00" cType="1" res="5.1163206808269024e-03" rms="4.6525168418884277e-01" purity="5.7565790414810181e-01" nType="-99"/>
        </Node>
        <Node pos="r" depth="1" NCoef="0" IVar="2" Cut="8.2274429321289062e+01" cType="0" res="-1.7088809609413147e-01" rms="2.3427098989486694e-01" purity="6.9883525371551514e-02" nType="0">
          <Node pos="l" depth="2" NCoef="0" IVar="-1" Cut="0.0000000000000000e+00" cType="1" res="-1.7276385799050331e-02" rms="4.0933638811111450e-01" purity="2.4350649118423462e-01" nType="-99"/>
          <Node pos="r" depth="2" NCoef="0" IVar="-1" Cut="0.0000000000000000e+00" cType="1" res="-5.9945560991764069e-02" rms="9.9218644201755524e-02" purity="1.0067113675177097e-02" nType="-99"/>
        </Node>
      </Node>
    </BinaryTree>
    <BinaryTree type="DecisionTree" boostWeight="1.0000000000000000e+00" itree="10">
      <Node pos="s" depth="0" NCoef="0" IVar="0" Cut="2.9554382324218750e+02" cType="0" res="-7.9205812653526664e-04" rms="3.0364444851875305e-01" purity="4.9811246991157532e-01" nType="0">
        <Node pos="l" depth="1" NCoef="0" IVar="0" Cut="3.7325265502929688e+02" cType="0" res="1.2802544236183167e-01" rms="2.9756149649620056e-01" purity="8.6585366725921631e-01" nType="0">
          <Node pos="l" depth="2" NCoef="0" IVar="-1" Cut="0.0000000000000000e+00" cType="1" res="4.6489883214235306e-02" rms="2.5128787755966187e-01" purity="9.3035250902175903e-01" nType="-99"/>
          <Node pos="r" depth="2" NCoef="0" IVar="-1" Cut="0.0000000000000000e+00" cType="1" res="9.0387067757546902e-04" rms="4.7607693076133728e-01" purity="4.7105261683464050e-01" nType="-99"/>
        </Node>
        <Node pos="r" depth="1" NCoef="0" IVar="2" Cut="8.7128311157226562e+01" cType="0" res="-1.5059015154838562e-01" rms="2.3391579091548920e-01" purity="7.0477008819580078e-02" nType="0">
          <Node pos="l" depth="2" NCoef="0" IVar="-1" Cut="0.0000000000000000e+00" cType="1" res="-1.7179379239678383e-02" rms="4.2896890640258789e-01" purity="2.8237792849540710e-01" nType="-99"/>
          <Node pos="r" depth="2" NCoef="0" IVar="-1" Cut="0.0000000000000000e+00" cType="1" res="-5.7457592338323593e-02" rms="1.2705709040164948e-01" purity="1.6702586784958839e-02" nType="-99"/>
        </Node>
      </Node>
    </BinaryTree>
    <BinaryTree type="DecisionTree" boostWeight="1.0000000000000000e+00" itree="11">
      <Node pos="s" depth="0" NCoef="0" IVar="0" Cut="2.5412985229492188e+02" cType="0" res="4.7106207348406315e-03" rms="2.8880962729454041e-01" purity="5.1362341642379761e-01" nType="0">
        <Node pos="l" depth="1" NCoef="0" IVar="0" Cut="3.9413012695312500e+02" cType="0" res="1.1640477925539017e-01" rms="3.0019754171371460e-01" purity="8.3604335784912109e-01" nType="0">
          <Node pos="l" depth="2" NCoef="0" IVar="-1" Cut="0.0000000000000000e+00" cType="1" res="4.7237079590559006e-02" rms="2.1083164215087891e-01" purity="9.5301097631454468e-01" nType="-99"/>
          <Node pos="r" depth="2" NCoef="0" IVar="-1" Cut="0.0000000000000000e+00" cType="1" res="9.4149727374315262e-04" rms="4.5675888657569885e-01" purity="4.9868419766426086e-01" nType="-99"/>
        </Node>
        <Node pos="r" depth="1" NCoef="0" IVar="0" Cut="1.7234709167480469e+02" cType="0" res="-1.6300106048583984e-01" rms="1.6272613406181335e-01" purity="2.9501525685191154e-02" nType="0">
          <Node pos="l" depth="2" NCoef="0" IVar="-1" Cut="0.0000000000000000e+00" cType="1" res="-3.4460656344890594e-02" rms="2.8485554456710815e-01" purity="9.5152601599693298e-02" nType="-99"/>
          <Node pos="r" depth="2" NCoef="0" IVar="-1" Cut="0.0000000000000000e+00" cType="1" res="-5.9493996202945709e-02" rms="6.2420208007097244e-02" purity="3.5486160777509212e-03" nType="-99"/>
        </Node>
      </Node>
    </BinaryTree>
    <BinaryTree type="DecisionTree" boostWeight="1.0000000000000000e+00" itree="12">
      <Node pos="s" depth="0" NCoef="0" IVar="0" Cut="2.8193356323242188e+02" cType="0" res="2.2429057862609625e-03" rms="2.8059104084968567e-01" purity="5.0422537326812744e-01" nType="0">
        <Node pos="l" depth="1" NCoef="0" IVar="3" Cut="1.4705720520019531e+02" cType="0" res="1.1162225902080536e-01" rms="2.8479281067848206e-01" purity="8.6524564027786255e-01" nType="0">
          <Node pos="l" depth="2" NCoef="0" IVar="-1" Cut="0.0000000000000000e+00" cType="1" res="4.4779550284147263e-02" rms="2.4299529194831848e-01" purity="9.2997199296951294e-01" nType="-99"/>
          <Node pos="r" depth="2" NCoef="0" IVar="-1" Cut="0.0000000000000000e+00" cType="1" res="1.9857684150338173e-02" rms="3.1614267826080322e-01" purity="7.9626864194869995e-01" nType="-99"/>
        </Node>
        <Node pos="r" depth="1" NCoef="0" IVar="0" Cut="1.6483650207519531e+02" cType="0" res="-1.3525120913982391e-01" rms="2.0445400476455688e-01" purity="5.0408720970153809e-02" nType="0">
          <Node pos="l" depth="2" NCoef="0" IVar="-1" Cut="0.0000000000000000e+00" cType="1" res="-2.7231782674789429e-02" rms="3.2619497179985046e-01" purity="1.3399504125118256e-01" nType="-99"/>
          <Node pos="r" depth="2" NCoef="0" IVar="-1" Cut="0.0000000000000000e+00" cType="1" res="-5.8517593890428543e-02" rms="4.8374302685260773e-02" purity="2.1489970386028290e-03" nType="-99"/>
        </Node>
      </Node>
    </BinaryTree>
    <BinaryTree type="DecisionTree" boostWeight="1.0000000000000000e+00" itree="13">
      <Node pos="s" depth="0" NCoef="0" IVar="0" Cut="3.5716937255859375e+02" cType="0" res="-1.1324191000312567e-03" rms="2.6851826906204224e-01" purity="5.0139945745468140e-01" nType="0">
        <Node pos="l" depth="1" NCoef="0" IVar="1" Cut="1.0296486616134644e+00" cType="0" res="1.2555527687072754e-01" rms="2.3468895256519318e-01" purity="9.3617022037506104e-01" nType="0">
          <Node pos="l" depth="2" NCoef="0" IVar="-1" Cut="0.0000000000000000e+00" cType="1" res="4.3331559747457504e-02" rms="2.0613767206668854e-01" purity="9.5037806034088135e-01" nType="-99"/>
          <Node pos="r" depth="2" NCoef="0" IVar="-1" Cut="0.0000000000000000e+00" cType="1" res="1.4720529317855835e-02" rms="3.6086294054985046e-01" purity="8.4451222419738770e-01" nType="-99"/>
        </Node>
        <Node pos="r" depth="1" NCoef="0" IVar="3" Cut="1.2184569549560547e+02" cType="0" res="-1.2217414379119873e-01" rms="2.4162153899669647e-01" purity="8.6004689335823059e-02" nType="0">
          <Node pos="l" depth="2" NCoef="0" IVar="-1" Cut="0.0000000000000000e+00" cType="1" res="2.2229345049709082e-03" rms="4.8880359530448914e-01" purity="4.3843844532966614e-01" nType="-99"/>
          <Node pos="r" depth="2" NCoef="0" IVar="-1" Cut="0.0000000000000000e+00" cType="1" res="-4.6598713845014572e-02" rms="1.7133302986621857e-01" purity="3.3258426934480667e-02" nType="-99"/>
        </Node>
      </Node>
    </BinaryTree>
    <BinaryTree type="DecisionTree" boostWeight="1.0000000000000000e+00" itree="14">
      <Node pos="s" depth="0" NCoef="0" IVar="0" Cut="3.7237149047851562e+02" cType="0" res="3.2890329603105783e-03" rms="2.7375730872154236e-01" purity="5.0441235303878784e-01" nType="0">
        <Node pos="l" depth="1" NCoef="0" IVar="1" Cut="1.4719079732894897e+00" cType="1" res="1.0662098228931427e-01" rms="2.3390750586986542e-01" purity="9.3921232223510742e-01" nType="0">
          <Node pos="l" depth="2" NCoef="0" IVar="-1" Cut="0.0000000000000000e+00" cType="1" res="4.1573856025934219e-02" rms="2.1820932626724243e-01" purity="9.4765591621398926e-01" nType="-99"/>
          <Node pos="r" depth="2" NCoef="0" IVar="-1" Cut="0.0000000000000000e+00" cType="1" res="-7.1816700510680676e-03" rms="3.8449144363403320e-01" purity="8.0575537681579590e-01" nType="-99"/>
        </Node>
        <Node pos="r" depth="1" NCoef="0" IVar="3" Cut="1.3193873596191406e+02" cType="0" res="-8.7799049913883209e-02" rms="2.7398347854614258e-01" purity="1.2113207578659058e-01" nType="0">
          <Node pos="l" depth="2" NCoef="0" IVar="-1" Cut="0.0000000000000000e+00" cType="1" res="1.3314361684024334e-02" rms="4.7926670312881470e-01" purity="6.0130721330642700e-01" nType="-99"/>
          <Node pos="r" depth="2" NCoef="0" IVar="-1" Cut="0.0000000000000000e+00" cType="1" res="-4.2480718344449997e-02" rms="2.2133737802505493e-01" purity="5.8447100222110748e-02" nType="-99"/>
        </Node>
      </Node>
    </BinaryTree>
    <BinaryTree type="DecisionTree" boostWeight="1.0000000000000000e+00" itree="15">
      <Node pos="s" depth="0" NCoef="0" IVar="0" Cut="4.0349899291992188e+02" cType="0" res="-2.4622816126793623e-03" rms="2.6919397711753845e-01" purity="4.9937602877616882e-01" nType="0">
        <Node pos="l" depth="1" NCoef="0" IVar="1" Cut="1.4560434818267822e+00" cType="1" res="1.0384100675582886e-01" rms="2.1210169792175293e-01" purity="9.5221674442291260e-01" nType="0">
          <Node pos="l" depth="2" NCoef="0" IVar="-1" Cut="0.0000000000000000e+00" cType="1" res="4.5002710074186325e-02" rms="1.9215643405914307e-01" purity="9.6119087934494019e-01" nType="-99"/>
          <Node pos="r" depth="2" NCoef="0" IVar="-1" Cut="0.0000000000000000e+00" cType="1" res="9.6151987090706825e-03" rms="3.6719718575477600e-01" purity="8.3892619609832764e-01" nType="-99"/>
        </Node>
        <Node pos="r" depth="1" NCoef="0" IVar="3" Cut="1.8168869018554688e+02" cType="0" res="-8.0142512917518616e-02" rms="2.7973741292953491e-01" purity="1.6846652328968048e-01" nType="0">
          <Node pos="l" depth="2" NCoef="0" IVar="-1" Cut="0.0000000000000000e+00" cType="1" res="4.4159673154354095e-02" rms="2.9163271188735962e-01" purity="9.0776699781417847e-01" nType="-99"/>
          <Node pos="r" depth="2" NCoef="0" IVar="-1" Cut="0.0000000000000000e+00" cType="1" res="-3.4973558038473129e-02" rms="2.6700586080551147e-01" purity="1.0925349593162537e-01" nType="-99"/>
        </Node>
      </Node>
    </BinaryTree>
    <BinaryTree type="DecisionTree" boostWeight="1.0000000000000000e+00" itree="16">
      <Node pos="s" depth="0" NCoef="0" IVar="0" Cut="2.5412985229492188e+02" cType="0" res="3.3477682154625654e-03" rms="2.5713762640953064e-01" purity="5.1046603918075562e-01" nType="0">
        <Node pos="l" depth="1" NCoef="0" IVar="1" Cut="1.4825584888458252e+00" cType="1" res="7.6627954840660095e-02" rms="2.8328973054885864e-01" purity="8.4365582466125488e-01" nType="0">
          <Node pos="l" depth="2" NCoef="0" IVar="-1" Cut="0.0000000000000000e+00" cType="1" res="2.8613038361072540e-02" rms="2.7267062664031982e-01" purity="8.5548526048660278e-01" nType="-99"/>
          <Node pos="r" depth="2" NCoef="0" IVar="-1" Cut="0.0000000000000000e+00" cType="1" res="-3.3560413867235184e-02" rms="3.8889056444168091e-01" purity="6.0839158296585083e-01" nType="-99"/>
        </Node>
        <Node pos="r" depth="1" NCoef="0" IVar="0" Cut="2.3045501708984375e+02" cType="0" res="-1.0203880816698074e-01" rms="1.6421054303646088e-01" purity="3.1295135617256165e-02" nType="0">
          <Node pos="l" depth="2" NCoef="0" IVar="-1" Cut="0.0000000000000000e+00" cType="1" res="-4.4271657243371010e-03" rms="3.9975899457931519e-01" purity="2.3809523880481720e-01" nType="-99"/>
          <Node pos="r" depth="2" NCoef="0" IVar="-1" Cut="0.0000000000000000e+00" cType="1" res="-4.8890005797147751e-02" rms="1.2443120032548904e-01" purity="1.5544041059911251e-02" nType="-99"/>
        </Node>
      </Node>
    </BinaryTree>
    <BinaryTree type="DecisionTree" boostWeight="1.0000000000000000e+00" itree="17">
      <Node pos="s" depth="0" NCoef="0" IVar="0" Cut="3.7914306640625000e+02" cType="0" res="-1.9892298150807619e-03" rms="2.6440078020095825e-01" purity="5.0699442625045776e-01" nType="0">
        <Node pos="l" depth="1" NCoef="0" IVar="1" Cut="1.0520935058593750e+00" cType="0" res="7.5698569416999817e-02" rms="2.4055685102939606e-01" purity="9.3570220470428467e-01" nType="0">
          <Node pos="l" depth="2" NCoef="0" IVar="-1" Cut="0.0000000000000000e+00" cType="1" res="3.9115436375141144e-02" rms="2.0459392666816711e-01" purity="9.5434463024139404e-01" nType="-99"/>
          <Node pos="r" depth="2" NCoef="0" IVar="-1" Cut="0.0000000000000000e+00" cType="1" res="9.6875475719571114e-03" rms="3.8076496124267578e-01" purity="8.1957185268402100e-01" nType="-99"/>
        </Node>
        <Node pos="r" depth="1" NCoef="0" IVar="0" Cut="2.0662257385253906e+02" cType="0" res="-7.1555122733116150e-02" rms="2.6541545987129211e-01" purity="1.2310606241226196e-01" nType="0">
          <Node pos="l" depth="2" NCoef="0" IVar="-1" Cut="0.0000000000000000e+00" cType="1" res="-3.5189883783459663e-03" rms="4.2225086688995361e-01" purity="3.3700439333915710e-01" nType="-99"/>
          <Node pos="r" depth="2" NCoef="0" IVar="-1" Cut="0.0000000000000000e+00" cType="1" res="-5.0413403660058975e-02" rms="1.0475283861160278e-01" purity="1.0969976894557476e-02" nType="-99"/>
        </Node>
      </Node>
    </BinaryTree>
    <BinaryTree type="DecisionTree" boostWeight="1.0000000000000000e+00" itree="18">
      <Node pos="s" depth="0" NCoef="0" IVar="0" Cut="3.7237149047851562e+02" cType="0" res="-2.2106815595179796e-03" rms="2.5797799229621887e-01" purity="4.9206349253654480e-01" nType="0">
        <Node pos="l" depth="1" NCoef="0" IVar="3" Cut="1.8728887939453125e+02" cType="0" res="7.1835651993751526e-02" rms="2.3467345535755157e-01" purity="9.3801832199096680e-01" nType="0">
          <Node pos="l" depth="2" NCoef="0" IVar="-1" Cut="0.0000000000000000e+00" cType="1" res="4.5502338558435440e-02" rms="1.3377732038497925e-01" purity="9.8226952552795410e-01" nType="-99"/>
          <Node pos="r" depth="2" NCoef="0" IVar="-1" Cut="0.0000000000000000e+00" cType="1" res="2.4052735418081284e-02" rms="2.7427798509597778e-01" purity="9.1211074590682983e-01" nType="-99"/>
        </Node>
        <Node pos="r" depth="1" NCoef="0" IVar="3" Cut="1.2162821197509766e+02" cType="0" res="-6.5367847681045532e-02" rms="2.6015356183052063e-01" purity="1.1169024556875229e-01" nType="0">
          <Node pos="l" depth="2" NCoef="0" IVar="-1" Cut="0.0000000000000000e+00" cType="1" res="7.5482181273400784e-03" rms="4.7697535157203674e-01" purity="5.0000000000000000e-01" nType="-99"/>
          <Node pos="r" depth="2" NCoef="0" IVar="-1" Cut="0.0000000000000000e+00" cType="1" res="-3.8822837173938751e-02" rms="1.9117817282676697e-01" purity="4.2543858289718628e-02" nType="-99"/>
        </Node>
      </Node>
    </BinaryTree>
    <BinaryTree type="DecisionTree" boostWeight="1.0000000000000000e+00" itree="19">
      <Node pos="s" depth="0" NCoef="0" IVar="0" Cut="3.9712576293945312e+02" cType="0" res="1.3157166540622711e-03" rms="2.5385513901710510e-01" purity="5.0780624151229858e-01" nType="0">
        <Node pos="l" depth="1" NCoef="0" IVar="1" Cut="9.6021991968154907e-01" cType="0" res="7.5076028704643250e-02" rms="2.0669859647750854e-01" purity="9.5417422056198120e-01" nType="0">
          <Node pos="l" depth="2" NCoef="0" IVar="-1" Cut="0.0000000000000000e+00" cType="1" res="3.7938375025987625e-02" rms="1.8136660754680634e-01" purity="9.6526056528091431e-01" nType="-99"/>
          <Node pos="r" depth="2" NCoef="0" IVar="-1" Cut="0.0000000000000000e+00" cType="1" res="4.2784567922353745e-03" rms="3.6868098378181458e-01" purity="8.3597886562347412e-01" nType="-99"/>
        </Node>
        <Node pos="r" depth="1" NCoef="0" IVar="3" Cut="1.6820014953613281e+02" cType="0" res="-5.6910544633865356e-02" rms="2.7184849977493286e-01" purity="1.5544413030147552e-01" nType="0">
          <Node pos="l" depth="2" NCoef="0" IVar="-1" Cut="0.0000000000000000e+00" cType="1" res="3.4009013324975967e-02" rms="3.3503329753875732e-01" purity="8.4722220897674561e-01" nType="-99"/>
          <Node pos="r" depth="2" NCoef="0" IVar="-1" Cut="0.0000000000000000e+00" cType="1" res="-3.1087137758731842e-02" rms="2.5942245125770569e-01" purity="9.7437888383865356e-02" nType="-99"/>
        </Node>
      </Node>
    </BinaryTree>
    <BinaryTree type="DecisionTree" boostWeight="1.0000000000000000e+00" itree="20">
      <Node pos="s" depth="0" NCoef="0" IVar="0" Cut="2.8860116577148438e+02" cType="0" res="4.3214126490056515e-03" rms="2.4456876516342163e-01" purity="5.1134794950485229e-01" nType="0">
        <Node pos="l" depth="1" NCoef="0" IVar="1" Cut="1.4972763061523438e+00" cType="1" res="5.9177801012992859e-02" rms="2.6175287365913391e-01" purity="8.8185054063796997e-01" nType="0">
          <Node pos="l" depth="2" NCoef="0" IVar="-1" Cut="0.0000000000000000e+00" cType="1" res="2.4403044953942299e-02" rms="2.5044491887092590e-01" purity="8.9096343517303467e-01" nType="-99"/>
          <Node pos="r" depth="2" NCoef="0" IVar="-1" Cut="0.0000000000000000e+00" cType="1" res="-3.8159973919391632e-02" rms="3.9573639631271362e-01" purity="6.9696968793869019e-01" nType="-99"/>
        </Node>
        <Node pos="r" depth="1" NCoef="0" IVar="1" Cut="8.7295013666152954e-01" cType="1" res="-6.3975639641284943e-02" rms="2.0142088830471039e-01" purity="5.0066459923982620e-02" nType="0">
          <Node pos="l" depth="2" NCoef="0" IVar="-1" Cut="0.0000000000000000e+00" cType="1" res="-1.9042395055294037e-02" rms="2.3711885511875153e-01" purity="7.0882558822631836e-02" nType="-99"/>
          <Node pos="r" depth="2" NCoef="0" IVar="-1" Cut="0.0000000000000000e+00" cType="1" res="-5.1758486777544022e-02" rms="1.0225386917591095e-01" purity="1.3447432778775692e-02" nType="-99"/>
        </Node>
      </Node>
    </BinaryTree>
    <BinaryTree type="DecisionTree" boostWeight="1.0000000000000000e+00" itree="21">
      <Node pos="s" depth="0" NCoef="0" IVar="0" Cut="3.7237149047851562e+02" cType="0" res="3.8666052278131247e-03" rms="2.4385285377502441e-01" purity="5.0639289617538452e-01" nType="0">
        <Node pos="l" depth="1" NCoef="0" IVar="1" Cut="1.0716121196746826e+00" cType="0" res="6.5679423511028290e-02" rms="2.1245521306991577e-01" purity="9.4934099912643433e-01" nType="0">
          <Node pos="l" depth="2" NCoef="0" IVar="-1" Cut="0.0000000000000000e+00" cType="1" res="3.2676663249731064e-02" rms="1.7601083219051361e-01" purity="9.6594893932342529e-01" nType="-99"/>
          <Node pos="r" depth="2" NCoef="0" IVar="-1" Cut="0.0000000000000000e+00" cType="1" res="4.9968138337135315e-03" rms="3.2718399167060852e-01" purity="8.7238979339599609e-01" nType="-99"/>
        </Node>
        <Node pos="r" depth="1" NCoef="0" IVar="2" Cut="1.0055111694335938e+02" cType="0" res="-5.1027882844209671e-02" rms="2.5647825002670288e-01" purity="1.1302121728658676e-01" nType="0">
          <Node pos="l" depth="2" NCoef="0" IVar="-1" Cut="0.0000000000000000e+00" cType="1" res="6.8925893865525723e-03" rms="4.5932170748710632e-01" purity="4.4283121824264526e-01" nType="-99"/>
          <Node pos="r" depth="2" NCoef="0" IVar="-1" Cut="0.0000000000000000e+00" cType="1" res="-3.7295371294021606e-02" rms="1.6312482953071594e-01" purity="2.9775537550449371e-02" nType="-99"/>
        </Node>
      </Node>
    </BinaryTree>
    <BinaryTree type="DecisionTree" boostWeight="1.0000000000000000e+00" itree="22">
      <Node pos="s" depth="0" NCoef="0" IVar="0" Cut="1.8012916564941406e+02" cType="0" res="3.7761114072054625e-04" rms="2.5167030096054077e-01" purity="5.0506252050399780e-01" nType="0">
        <Node pos="l" depth="1" NCoef="0" IVar="1" Cut="1.5260330438613892e+00" cType="1" res="3.4071199595928192e-02" rms="2.9245886206626892e-01" purity="7.2431504726409912e-01" nType="0">
          <Node pos="l" depth="2" NCoef="0" IVar="-1" Cut="0.0000000000000000e+00" cType="1" res="1.7162103205919266e-02" rms="2.8732839226722717e-01" purity="7.3337310552597046e-01" nType="-99"/>
          <Node pos="r" depth="2" NCoef="0" IVar="-1" Cut="0.0000000000000000e+00" cType="1" res="-4.7489378601312637e-02" rms="3.5240682959556580e-01" purity="5.2317881584167480e-01" nType="-99"/>
        </Node>
        <Node pos="r" depth="1" NCoef="0" IVar="2" Cut="8.1935043334960938e+01" cType="1" res="-7.6636299490928650e-02" rms="6.3892260193824768e-02" purity="3.9138942956924438e-03" nType="0">
          <Node pos="l" depth="2" NCoef="0" IVar="-1" Cut="0.0000000000000000e+00" cType="1" res="-4.9260403960943222e-02" rms="6.5403439104557037e-02" purity="4.3165469542145729e-03" nType="-99"/>
          <Node pos="r" depth="2" NCoef="0" IVar="-1" Cut="0.0000000000000000e+00" cType="1" res="-4.9255862832069397e-02" rms="3.6399081349372864e-02" purity="0.0000000000000000e+00" nType="-99"/>
        </Node>
      </Node>
    </BinaryTree>
    <BinaryTree type="DecisionTree" boostWeight="1.0000000000000000e+00" itree="23">
      <Node pos="s" depth="0" NCoef="0" IVar="0" Cut="1.9102124023437500e+02" cType="0" res="3.8003192748874426e-03" rms="2.4855272471904755e-01" purity="5.0981169939041138e-01" nType="0">
        <Node pos="l" depth="1" NCoef="0" IVar="1" Cut="1.5488901138305664e+00" cType="1" res="3.6915361881256104e-02" rms="2.8900223970413208e-01" purity="7.5324290990829468e-01" nType="0">
          <Node pos="l" depth="2" NCoef="0" IVar="-1" Cut="0.0000000000000000e+00" cType="1" res="1.6507076099514961e-02" rms="2.8317227959632874e-01" purity="7.6821392774581909e-01" nType="-99"/>
          <Node pos="r" depth="2" NCoef="0" IVar="-1" Cut="0.0000000000000000e+00" cType="1" res="-4.7244120389223099e-02" rms="3.4683728218078613e-01" purity="4.0287768840789795e-01" nType="-99"/>
        </Node>
        <Node pos="r" depth="1" NCoef="0" IVar="1" Cut="6.1737281084060669e-01" cType="1" res="-6.4152628183364868e-02" rms="1.0144787281751633e-01" purity="1.0284331627190113e-02" nType="0">
          <Node pos="l" depth="2" NCoef="0" IVar="-1" Cut="0.0000000000000000e+00" cType="1" res="-3.8690794259309769e-02" rms="1.5538114309310913e-01" purity="2.4590164422988892e-02" nType="-99"/>
          <Node pos="r" depth="2" NCoef="0" IVar="-1" Cut="0.0000000000000000e+00" cType="1" res="-5.2471391856670380e-02" rms="4.5122727751731873e-02" purity="1.9175455672666430e-03" nType="-99"/>
        </Node>
      </Node>
    </BinaryTree>
    <BinaryTree type="DecisionTree" boostWeight="1.0000000000000000e+00" itree="24">
      <Node pos="s" depth="0" NCoef="0" IVar="0" Cut="3.7284591674804688e+02" cType="0" res="-1.9359299913048744e-03" rms="2.4378263950347900e-01" purity="4.9184566736221313e-01" nType="0">
        <Node pos="l" depth="1" NCoef="0" IVar="0" Cut="4.4685925292968750e+02" cType="0" res="4.5108940452337265e-02" rms="2.2844401001930237e-01" purity="9.4058978557586670e-01" nType="0">
          <Node pos="l" depth="2" NCoef="0" IVar="-1" Cut="0.0000000000000000e+00" cType="1" res="3.5189840942621231e-02" rms="1.8076893687248230e-01" purity="9.6521145105361938e-01" nType="-99"/>
          <Node pos="r" depth="2" NCoef="0" IVar="-1" Cut="0.0000000000000000e+00" cType="1" res="5.9371702373027802e-03" rms="2.9074886441230774e-01" purity="8.9761906862258911e-01" nType="-99"/>
        </Node>
        <Node pos="r" depth="1" NCoef="0" IVar="3" Cut="1.5661332702636719e+02" cType="0" res="-4.1790988296270370e-02" rms="2.4920453131198883e-01" purity="1.1168258637189865e-01" nType="0">
          <Node pos="l" depth="2" NCoef="0" IVar="-1" Cut="0.0000000000000000e+00" cType="1" res="1.9403703510761261e-02" rms="3.9696216583251953e-01" purity="7.5428569316864014e-01" nType="-99"/>
          <Node pos="r" depth="2" NCoef="0" IVar="-1" Cut="0.0000000000000000e+00" cType="1" res="-2.4846611544489861e-02" rms="2.3018199205398560e-01" purity="6.7530430853366852e-02" nType="-99"/>
        </Node>
      </Node>
    </BinaryTree>
    <BinaryTree type="DecisionTree" boostWeight="1.0000000000000000e+00" itree="25">
      <Node pos="s" depth="0" NCoef="0" IVar="0" Cut="3.9757226562500000e+02" cType="0" res="-1.1848098365589976e-03" rms="2.4835819005966187e-01" purity="4.9013805389404297e-01" nType="0">
        <Node pos="l" depth="1" NCoef="0" IVar="1" Cut="8.9449387788772583e-01" cType="0" res="5.1819834858179092e-02" rms="2.0010167360305786e-01" purity="9.5707547664642334e-01" nType="0">
          <Node pos="l" depth="2" NCoef="0" IVar="-1" Cut="0.0000000000000000e+00" cType="1" res="3.1612079590559006e-02" rms="1.8477980792522430e-01" purity="9.6375703811645508e-01" nType="-99"/>
          <Node pos="r" depth="2" NCoef="0" IVar="-1" Cut="0.0000000000000000e+00" cType="1" res="-8.1168627366423607e-03" rms="3.2843488454818726e-01" purity="8.7577641010284424e-01" nType="-99"/>
        </Node>
        <Node pos="r" depth="1" NCoef="0" IVar="1" Cut="8.0390381813049316e-01" cType="0" res="-3.9276283234357834e-02" rms="2.7159538865089417e-01" purity="1.5457627177238464e-01" nType="0">
          <Node pos="l" depth="2" NCoef="0" IVar="-1" Cut="0.0000000000000000e+00" cType="1" res="-2.8974317014217377e-02" rms="2.7009919285774231e-01" purity="1.9265463948249817e-01" nType="-99"/>
          <Node pos="r" depth="2" NCoef="0" IVar="-1" Cut="0.0000000000000000e+00" cType="1" res="-7.6139718294143677e-04" rms="2.6818108558654785e-01" purity="1.1230328679084778e-01" nType="-99"/>
        </Node>
      </Node>
    </BinaryTree>
    <BinaryTree type="DecisionTree" boostWeight="1.0000000000000000e+00" itree="26">
      <Node pos="s" depth="0" NCoef="0" IVar="0" Cut="2.0104496765136719e+02" cType="0" res="4.6275793574750423e-03" rms="2.5135239958763123e-01" purity="5.0662446022033691e-01" nType="0">
        <Node pos="l" depth="1" NCoef="0" IVar="1" Cut="6.7448824644088745e-01" cType="0" res="3.2257083803415298e-02" rms="2.9229810833930969e-01" purity="7.5393760204315186e-01" nType="0">
          <Node pos="l" depth="2" NCoef="0" IVar="-1" Cut="0.0000000000000000e+00" cType="1" res="9.1137969866394997e-03" rms="2.6832661032676697e-01" purity="7.6980280876159668e-01" nType="-99"/>
          <Node pos="r" depth="2" NCoef="0" IVar="-1" Cut="0.0000000000000000e+00" cType="1" res="4.5142550021409988e-02" rms="4.7150760889053345e-01" purity="5.7352942228317261e-01" nType="-99"/>
        </Node>
        <Node pos="r" depth="1" NCoef="0" IVar="0" Cut="1.7324949645996094e+02" cType="0" res="-5.0321172922849655e-02" rms="1.1987537145614624e-01" purity="1.4775414019823074e-02" nType="0">
          <Node pos="l" depth="2" NCoef="0" IVar="-1" Cut="0.0000000000000000e+00" cType="1" res="-2.2348864004015923e-02" rms="2.5266984105110168e-01" purity="6.9124422967433929e-02" nType="-99"/>
          <Node pos="r" depth="2" NCoef="0" IVar="-1" Cut="0.0000000000000000e+00" cType="1" res="-4.8320554196834564e-02" rms="8.2723513245582581e-02" purity="6.7796609364449978e-03" nType="-99"/>
        </Node>
      </Node>
    </BinaryTree>
    <BinaryTree type="DecisionTree" boostWeight="1.0000000000000000e+00" itree="27">
      <Node pos="s" depth="0" NCoef="0" IVar="2" Cut="7.2812767028808594e+01" cType="0" res="-2.5344437453895807e-03" rms="2.4657608568668365e-01" purity="4.9345871806144714e-01" nType="0">
        <Node pos="l" depth="1" NCoef="0" IVar="1" Cut="6.2124574184417725e-01" cType="0" res="2.6905817911028862e-02" rms="2.8541940450668335e-01" purity="6.9332867860794067e-01" nType="0">
          <Node pos="l" depth="2" NCoef="0" IVar="-1" Cut="0.0000000000000000e+00" cType="1" res="9.6112964674830437e-03" rms="2.6911547780036926e-01" purity="7.1598315238952637e-01" nType="-99"/>
          <Node pos="r" depth="2" NCoef="0" IVar="-1" Cut="0.0000000000000000e+00" cType="1" res="5.0475705415010452e-02" rms="3.9933994412422180e-01" purity="4.6062991023063660e-01" nType="-99"/>
        </Node>
        <Node pos="r" depth="1" NCoef="0" IVar="0" Cut="4.6968496704101562e+02" cType="0" res="-4.4075828045606613e-02" rms="1.6938920319080353e-01" purity="2.1143420040607452e-01" nType="0">
          <Node pos="l" depth="2" NCoef="0" IVar="-1" Cut="0.0000000000000000e+00" cType="1" res="2.6121534407138824e-02" rms="2.2658519446849823e-01" purity="9.4425088167190552e-01" nType="-99"/>
          <Node pos="r" depth="2" NCoef="0" IVar="-1" Cut="0.0000000000000000e+00" cType="1" res="-4.1609603911638260e-02" rms="1.5428875386714935e-01" purity="9.0700343251228333e-02" nType="-99"/>
        </Node>
      </Node>
    </BinaryTree>
    <BinaryTree type="DecisionTree" boostWeight="1.0000000000000000e+00" itree="28">
      <Node pos="s" depth="0" NCoef="0" IVar="3" Cut="1.3833369445800781e+02" cType="0" res="3.1674006022512913e-03" rms="2.5376066565513611e-01" purity="5.1754921674728394e-01" nType="0">
        <Node pos="l" depth="1" NCoef="0" IVar="1" Cut="1.2795501947402954e+00" cType="1" res="5.6929152458906174e-02" rms="2.6622533798217773e-01" purity="8.9987862110137939e-01" nType="0">
          <Node pos="l" depth="2" NCoef="0" IVar="-1" Cut="0.0000000000000000e+00" cType="1" res="2.5436677038669586e-02" rms="2.6488530635833740e-01" purity="9.0551841259002686e-01" nType="-99"/>
          <Node pos="r" depth="2" NCoef="0" IVar="-1" Cut="0.0000000000000000e+00" cType="1" res="1.1881342157721519e-02" rms="2.6432049274444580e-01" purity="8.8495576381683350e-01" nType="-99"/>
        </Node>
        <Node pos="r" depth="1" NCoef="0" IVar="0" Cut="4.6331170654296875e+02" cType="0" res="-2.3836368694901466e-02" rms="2.4281258881092072e-01" purity="3.2551050186157227e-01" nType="0">
          <Node pos="l" depth="2" NCoef="0" IVar="-1" Cut="0.0000000000000000e+00" cType="1" res="3.2053813338279724e-02" rms="2.0358997583389282e-01" purity="9.5565092563629150e-01" nType="-99"/>
          <Node pos="r" depth="2" NCoef="0" IVar="-1" Cut="0.0000000000000000e+00" cType="1" res="-2.4584703147411346e-02" rms="2.4927167594432831e-01" purity="1.5491867065429688e-01" nType="-99"/>
        </Node>
      </Node>
    </BinaryTree>
    <BinaryTree type="DecisionTree" boostWeight="1.0000000000000000e+00" itree="29">
      <Node pos="s" depth="0" NCoef="0" IVar="3" Cut="1.6111560058593750e+02" cType="0" res="-4.0405667386949062e-03" rms="2.4581401050090790e-01" purity="4.9960690736770630e-01" nType="0">
        <Node pos="l" depth="1" NCoef="0" IVar="0" Cut="3.8486901855468750e+02" cType="0" res="5.4809227585792542e-02" rms="2.2822763025760651e-01" purity="9.3979674577713013e-01" nType="0">
          <Node pos="l" depth="2" NCoef="0" IVar="-1" Cut="0.0000000000000000e+00" cType="1" res="3.1267132610082626e-02" rms="2.0259672403335571e-01" purity="9.5479202270507812e-01" nType="-99"/>
          <Node pos="r" depth="2" NCoef="0" IVar="-1" Cut="0.0000000000000000e+00" cType="1" res="2.3139175027608871e-02" rms="3.3456778526306152e-01" purity="8.4393066167831421e-01" nType="-99"/>
        </Node>
        <Node pos="r" depth="1" NCoef="0" IVar="0" Cut="4.6331170654296875e+02" cType="0" res="-2.3801367729902267e-02" rms="2.4833533167839050e-01" purity="3.5179838538169861e-01" nType="0">
          <Node pos="l" depth="2" NCoef="0" IVar="-1" Cut="0.0000000000000000e+00" cType="1" res="2.9285231605172157e-02" rms="1.9027063250541687e-01" purity="9.6163368225097656e-01" nType="-99"/>
          <Node pos="r" depth="2" NCoef="0" IVar="-1" Cut="0.0000000000000000e+00" cType="1" res="-2.0902620628476143e-02" rms="2.5870153307914734e-01" purity="1.8760412931442261e-01" nType="-99"/>
        </Node>
      </Node>
    </BinaryTree>
    <BinaryTree type="DecisionTree" boostWeight="1.0000000000000000e+00" itree="30">
      <Node pos="s" depth="0" NCoef="0" IVar="3" Cut="1.7719616699218750e+02" cType="0" res="6.6174095263704658e-04" rms="2.3998367786407471e-01" purity="5.0321799516677856e-01" nType="0">
        <Node pos="l" depth="1" NCoef="0" IVar="2" Cut="1.9130877685546875e+02" cType="1" res="6.5250150859355927e-02" rms="1.8424779176712036e-01" purity="9.6387833356857300e-01" nType="0">
          <Node pos="l" depth="2" NCoef="0" IVar="-1" Cut="0.0000000000000000e+00" cType="1" res="3.1286235898733139e-02" rms="1.8685573339462280e-01" purity="9.6533334255218506e-01" nType="-99"/>
          <Node pos="r" depth="2" NCoef="0" IVar="-1" Cut="0.0000000000000000e+00" cType="1" res="3.4254994243383408e-02" rms="1.8063390254974365e-01" purity="9.6307235956192017e-01" nType="-99"/>
        </Node>
        <Node pos="r" depth="1" NCoef="0" IVar="0" Cut="4.6375823974609375e+02" cType="0" res="-1.6671678051352501e-02" rms="2.5003540515899658e-01" purity="3.7959182262420654e-01" nType="0">
          <Node pos="l" depth="2" NCoef="0" IVar="-1" Cut="0.0000000000000000e+00" cType="1" res="2.7934158220887184e-02" rms="1.9955943524837494e-01" purity="9.5735126733779907e-01" nType="-99"/>
          <Node pos="r" depth="2" NCoef="0" IVar="-1" Cut="0.0000000000000000e+00" cType="1" res="-1.7779696732759476e-02" rms="2.6104563474655151e-01" purity="2.0964014530181885e-01" nType="-99"/>
        </Node>
      </Node>
    </BinaryTree>
    <BinaryTree type="DecisionTree" boostWeight="1.0000000000000000e+00" itree="31">
      <Node pos="s" depth="0" NCoef="0" IVar="0" Cut="1.9049101257324219e+02" cType="0" res="7.1462909691035748e-03" rms="2.4115741252899170e-01" purity="5.0307357311248779e-01" nType="0">
        <Node pos="l" depth="1" NCoef="0" IVar="1" Cut="8.9449387788772583e-01" cType="0" res="3.0757410451769829e-02" rms="2.8475528955459595e-01" purity="7.4498230218887329e-01" nType="0">
          <Node pos="l" depth="2" NCoef="0" IVar="-1" Cut="0.0000000000000000e+00" cType="1" res="4.0034642443060875e-03" rms="2.3669831454753876e-01" purity="8.0952382087707520e-01" nType="-99"/>
          <Node pos="r" depth="2" NCoef="0" IVar="-1" Cut="0.0000000000000000e+00" cType="1" res="2.5314806029200554e-02" rms="4.1843023896217346e-01" purity="4.8748159408569336e-01" nType="-99"/>
        </Node>
        <Node pos="r" depth="1" NCoef="0" IVar="0" Cut="1.7307220458984375e+02" cType="0" res="-4.1188735514879227e-02" rms="8.7985187768936157e-02" purity="7.8549850732088089e-03" nType="0">
          <Node pos="l" depth="2" NCoef="0" IVar="-1" Cut="0.0000000000000000e+00" cType="1" res="-1.5556070953607559e-02" rms="2.3543603718280792e-01" purity="5.9259258210659027e-02" nType="-99"/>
          <Node pos="r" depth="2" NCoef="0" IVar="-1" Cut="0.0000000000000000e+00" cType="1" res="-4.6452373266220093e-02" rms="5.8128230273723602e-02" purity="3.2894737087190151e-03" nType="-99"/>
        </Node>
      </Node>
    </BinaryTree>
    <BinaryTree type="DecisionTree" boostWeight="1.0000000000000000e+00" itree="32">
      <Node pos="s" depth="0" NCoef="0" IVar="3" Cut="1.6111560058593750e+02" cType="0" res="-2.6453665923327208e-03" rms="2.4457372725009918e-01" purity="4.9881142377853394e-01" nType="0">
        <Node pos="l" depth="1" NCoef="0" IVar="0" Cut="3.8310696411132812e+02" cType="0" res="4.5633319765329361e-02" rms="2.2542646527290344e-01" purity="9.3645989894866943e-01" nType="0">
          <Node pos="l" depth="2" NCoef="0" IVar="-1" Cut="0.0000000000000000e+00" cType="1" res="2.8008751571178436e-02" rms="1.8488672375679016e-01" purity="9.6198052167892456e-01" nType="-99"/>
          <Node pos="r" depth="2" NCoef="0" IVar="-1" Cut="0.0000000000000000e+00" cType="1" res="1.9555330276489258e-02" rms="3.8303950428962708e-01" purity="7.8534030914306641e-01" nType="-99"/>
        </Node>
        <Node pos="r" depth="1" NCoef="0" IVar="0" Cut="4.1697216796875000e+02" cType="0" res="-1.9774841144680977e-02" rms="2.4877472221851349e-01" purity="3.4353193640708923e-01" nType="0">
          <Node pos="l" depth="2" NCoef="0" IVar="-1" Cut="0.0000000000000000e+00" cType="1" res="1.8578691408038139e-02" rms="2.4001918733119965e-01" purity="9.3703007698059082e-01" nType="-99"/>
          <Node pos="r" depth="2" NCoef="0" IVar="-1" Cut="0.0000000000000000e+00" cType="1" res="-1.9903443753719330e-02" rms="2.5070199370384216e-01" purity="1.0631104558706284e-01" nType="-99"/>
        </Node>
      </Node>
    </BinaryTree>
    <BinaryTree type="DecisionTree" boostWeight="1.0000000000000000e+00" itree="33">
      <Node pos="s" depth="0" NCoef="0" IVar="3" Cut="9.6208229064941406e+01" cType="0" res="-1.9255988299846649e-03" rms="2.4057430028915405e-01" purity="4.8346108198165894e-01" nType="0">
        <Node pos="l" depth="1" NCoef="0" IVar="1" Cut="9.2360806465148926e-01" cType="0" res="2.7819899842143059e-02" rms="2.9183927178382874e-01" purity="7.2595572471618652e-01" nType="0">
          <Node pos="l" depth="2" NCoef="0" IVar="-1" Cut="0.0000000000000000e+00" cType="1" res="3.0027301982045174e-03" rms="2.3767709732055664e-01" purity="8.1004709005355835e-01" nType="-99"/>
          <Node pos="r" depth="2" NCoef="0" IVar="-1" Cut="0.0000000000000000e+00" cType="1" res="3.0279584228992462e-02" rms="4.1617187857627869e-01" purity="4.4599303603172302e-01" nType="-99"/>
        </Node>
        <Node pos="r" depth="1" NCoef="0" IVar="0" Cut="4.6375823974609375e+02" cType="0" res="-3.1815435737371445e-02" rms="1.6931298375129700e-01" purity="2.3978972434997559e-01" nType="0">
          <Node pos="l" depth="2" NCoef="0" IVar="-1" Cut="0.0000000000000000e+00" cType="1" res="2.5627778843045235e-02" rms="2.0451232790946960e-01" purity="9.5529413223266602e-01" nType="-99"/>
          <Node pos="r" depth="2" NCoef="0" IVar="-1" Cut="0.0000000000000000e+00" cType="1" res="-3.1255267560482025e-02" rms="1.5840291976928711e-01" purity="9.1308593750000000e-02" nType="-99"/>
        </Node>
      </Node>
    </BinaryTree>
    <BinaryTree type="DecisionTree" boostWeight="1.0000000000000000e+00" itree="34">
      <Node pos="s" depth="0" NCoef="0" IVar="0" Cut="4.1393045043945312e+02" cType="0" res="-2.1295209880918264e-03" rms="2.3391808569431305e-01" purity="4.9161008000373840e-01" nType="0">
        <Node pos="l" depth="1" NCoef="0" IVar="1" Cut="1.3561317920684814e+00" cType="1" res="3.9775501936674118e-02" rms="1.7557050287723541e-01" purity="9.6734696626663208e-01" nType="0">
          <Node pos="l" depth="2" NCoef="0" IVar="-1" Cut="0.0000000000000000e+00" cType="1" res="2.8145126998424530e-02" rms="1.5483200550079346e-01" purity="9.7498434782028198e-01" nType="-99"/>
          <Node pos="r" depth="2" NCoef="0" IVar="-1" Cut="0.0000000000000000e+00" cType="1" res="5.5592961143702269e-04" rms="2.4583201110363007e-01" purity="9.3351799249649048e-01" nType="-99"/>
        </Node>
        <Node pos="r" depth="1" NCoef="0" IVar="3" Cut="1.8049688720703125e+02" cType="0" res="-2.9094012454152107e-02" rms="2.6121789216995239e-01" purity="1.8548916280269623e-01" nType="0">
          <Node pos="l" depth="2" NCoef="0" IVar="-1" Cut="0.0000000000000000e+00" cType="1" res="2.5518396869301796e-02" rms="2.4424414336681366e-01" purity="9.3581080436706543e-01" nType="-99"/>
          <Node pos="r" depth="2" NCoef="0" IVar="-1" Cut="0.0000000000000000e+00" cType="1" res="-1.7104461789131165e-02" rms="2.6036545634269714e-01" purity="1.0472727566957474e-01" nType="-99"/>
        </Node>
      </Node>
    </BinaryTree>
    <BinaryTree type="DecisionTree" boostWeight="1.0000000000000000e+00" itree="35">
      <Node pos="s" depth="0" NCoef="0" IVar="3" Cut="1.7710147094726562e+02" cType="0" res="9.9671503994613886e-04" rms="2.3539867997169495e-01" purity="4.9577686190605164e-01" nType="0">
        <Node pos="l" depth="1" NCoef="0" IVar="0" Cut="3.9329284667968750e+02" cType="0" res="5.8241393417119980e-02" rms="1.6174712777137756e-01" purity="9.7248578071594238e-01" nType="0">
          <Node pos="l" depth="2" NCoef="0" IVar="-1" Cut="0.0000000000000000e+00" cType="1" res="3.1069600954651833e-02" rms="1.1819858103990555e-01" purity="9.8549109697341919e-01" nType="-99"/>
          <Node pos="r" depth="2" NCoef="0" IVar="-1" Cut="0.0000000000000000e+00" cType="1" res="2.2362582385540009e-02" rms="3.0405399203300476e-01" purity="8.9873415231704712e-01" nType="-99"/>
        </Node>
        <Node pos="r" depth="1" NCoef="0" IVar="0" Cut="4.6331170654296875e+02" cType="0" res="-1.3949009589850903e-02" rms="2.4893862009048462e-01" purity="3.7131533026695251e-01" nType="0">
          <Node pos="l" depth="2" NCoef="0" IVar="-1" Cut="0.0000000000000000e+00" cType="1" res="2.2701907902956009e-02" rms="1.6975894570350647e-01" purity="9.6976244449615479e-01" nType="-99"/>
          <Node pos="r" depth="2" NCoef="0" IVar="-1" Cut="0.0000000000000000e+00" cType="1" res="-1.3990135863423347e-02" rms="2.6628747582435608e-01" purity="1.9318546354770660e-01" nType="-99"/>
        </Node>
      </Node>
    </BinaryTree>
    <BinaryTree type="DecisionTree" boostWeight="1.0000000000000000e+00" itree="36">
      <Node pos="s" depth="0" NCoef="0" IVar="2" Cut="8.6865493774414062e+01" cType="0" res="4.3719089590013027e-03" rms="2.3522536456584930e-01" purity="5.0122547149658203e-01" nType="0">
        <Node pos="l" depth="1" NCoef="0" IVar="1" Cut="8.1851875782012939e-01" cType="0" res="3.3167257905006409e-02" rms="2.7980926632881165e-01" purity="7.7782291173934937e-01" nType="0">
          <Node pos="l" depth="2" NCoef="0" IVar="-1" Cut="0.0000000000000000e+00" cType="1" res="2.5851302780210972e-03" rms="2.4253605306148529e-01" purity="8.2974654436111450e-01" nType="-99"/>
          <Node pos="r" depth="2" NCoef="0" IVar="-1" Cut="0.0000000000000000e+00" cType="1" res="4.4674400240182877e-02" rms="4.1694292426109314e-01" purity="4.8517519235610962e-01" nType="-99"/>
        </Node>
        <Node pos="r" depth="1" NCoef="0" IVar="0" Cut="4.6375823974609375e+02" cType="0" res="-2.4754695594310760e-02" rms="1.7440614104270935e-01" purity="2.2144618630409241e-01" nType="0">
          <Node pos="l" depth="2" NCoef="0" IVar="-1" Cut="0.0000000000000000e+00" cType="1" res="1.9113676622509956e-02" rms="2.0930616557598114e-01" purity="9.5380437374114990e-01" nType="-99"/>
          <Node pos="r" depth="2" NCoef="0" IVar="-1" Cut="0.0000000000000000e+00" cType="1" res="-2.8708806261420250e-02" rms="1.6647261381149292e-01" purity="9.0997092425823212e-02" nType="-99"/>
        </Node>
      </Node>
    </BinaryTree>
    <BinaryTree type="DecisionTree" boostWeight="1.0000000000000000e+00" itree="37">
      <Node pos="s" depth="0" NCoef="0" IVar="2" Cut="8.6454360961914062e+01" cType="0" res="3.3259224146604538e-03" rms="2.4398182332515717e-01" purity="5.0442475080490112e-01" nType="0">
        <Node pos="l" depth="1" NCoef="0" IVar="1" Cut="8.0742347240447998e-01" cType="0" res="2.3712849244475365e-02" rms="2.8694170713424683e-01" purity="7.7557492256164551e-01" nType="0">
          <Node pos="l" depth="2" NCoef="0" IVar="-1" Cut="0.0000000000000000e+00" cType="1" res="2.6617175899446011e-03" rms="2.5630086660385132e-01" purity="8.1830853223800659e-01" nType="-99"/>
          <Node pos="r" depth="2" NCoef="0" IVar="-1" Cut="0.0000000000000000e+00" cType="1" res="3.9488211274147034e-02" rms="4.1344413161277771e-01" purity="5.2702701091766357e-01" nType="-99"/>
        </Node>
        <Node pos="r" depth="1" NCoef="0" IVar="3" Cut="5.1962013244628906e+01" cType="1" res="-1.7660129815340042e-02" rms="1.8756376206874847e-01" purity="2.2530612349510193e-01" nType="0">
          <Node pos="l" depth="2" NCoef="0" IVar="-1" Cut="0.0000000000000000e+00" cType="1" res="-1.6545287799090147e-03" rms="1.8373405933380127e-01" purity="3.5791090130805969e-01" nType="-99"/>
          <Node pos="r" depth="2" NCoef="0" IVar="-1" Cut="0.0000000000000000e+00" cType="1" res="-2.5806279852986336e-02" rms="1.8717288970947266e-01" purity="1.7732073366641998e-01" nType="-99"/>
        </Node>
      </Node>
    </BinaryTree>
    <BinaryTree type="DecisionTree" boostWeight="1.0000000000000000e+00" itree="38">
      <Node pos="s" depth="0" NCoef="0" IVar="0" Cut="4.0400909423828125e+02" cType="0" res="-8.7257823906838894e-04" rms="2.2915609180927277e-01" purity="4.9929422140121460e-01" nType="0">
        <Node pos="l" depth="1" NCoef="0" IVar="1" Cut="1.4560434818267822e+00" cType="1" res="3.3428318798542023e-02" rms="1.7873527109622955e-01" purity="9.6555072069168091e-01" nType="0">
          <Node pos="l" depth="2" NCoef="0" IVar="-1" Cut="0.0000000000000000e+00" cType="1" res="2.4562560021877289e-02" rms="1.6212452948093414e-01" purity="9.7236704826354980e-01" nType="-99"/>
          <Node pos="r" depth="2" NCoef="0" IVar="-1" Cut="0.0000000000000000e+00" cType="1" res="-2.0591195672750473e-02" rms="3.2287463545799255e-01" purity="8.7412589788436890e-01" nType="-99"/>
        </Node>
        <Node pos="r" depth="1" NCoef="0" IVar="3" Cut="1.8659674072265625e+02" cType="0" res="-2.5266693904995918e-02" rms="2.5633373856544495e-01" purity="1.6770187020301819e-01" nType="0">
          <Node pos="l" depth="2" NCoef="0" IVar="-1" Cut="0.0000000000000000e+00" cType="1" res="2.3789623752236366e-02" rms="2.3216801881790161e-01" purity="9.4270831346511841e-01" nType="-99"/>
          <Node pos="r" depth="2" NCoef="0" IVar="-1" Cut="0.0000000000000000e+00" cType="1" res="-1.4526155777275562e-02" rms="2.5597688555717468e-01" purity="1.1271248757839203e-01" nType="-99"/>
        </Node>
      </Node>
    </BinaryTree>
    <BinaryTree type="DecisionTree" boostWeight="1.0000000000000000e+00" itree="39">
      <Node pos="s" depth="0" NCoef="0" IVar="1" Cut="1.7050985097885132e+00" cType="1" res="1.2356599327176809e-03" rms="2.3613038659095764e-01" purity="5.0396037101745605e-01" nType="0">
        <Node pos="l" depth="1" NCoef="0" IVar="2" Cut="7.8149421691894531e+01" cType="0" res="4.7991201281547546e-03" rms="2.3543007671833038e-01" purity="5.1624107360839844e-01" nType="0">
          <Node pos="l" depth="2" NCoef="0" IVar="-1" Cut="0.0000000000000000e+00" cType="1" res="1.1209010146558285e-02" rms="2.8249144554138184e-01" purity="7.3949277400970459e-01" nType="-99"/>
          <Node pos="r" depth="2" NCoef="0" IVar="-1" Cut="0.0000000000000000e+00" cType="1" res="-1.8874993547797203e-02" rms="1.5161873400211334e-01" purity="2.2763465344905853e-01" nType="-99"/>
        </Node>
        <Node pos="r" depth="1" NCoef="0" IVar="-1" Cut="0.0000000000000000e+00" cType="1" res="-7.9099126160144806e-02" rms="2.3048049211502075e-01" purity="1.1612903326749802e-01" nType="-99"/>
      </Node>
    </BinaryTree>
    <BinaryTree type="DecisionTree" boostWeight="1.0000000000000000e+00" itree="40">
      <Node pos="s" depth="0" NCoef="0" IVar="1" Cut="1.4729996919631958e+00" cType="1" res="-2.5034294230863452e-04" rms="2.4462947249412537e-01" purity="4.9929732084274292e-01" nType="0">
        <Node pos="l" depth="1" NCoef="0" IVar="0" Cut="1.9102124023437500e+02" cType="0" res="5.6363120675086975e-03" rms="2.4240659177303314e-01" purity="5.1031816005706787e-01" nType="0">
          <Node pos="l" depth="2" NCoef="0" IVar="-1" Cut="0.0000000000000000e+00" cType="1" res="1.1189626529812813e-02" rms="2.8410252928733826e-01" purity="7.5594091415405273e-01" nType="-99"/>
          <Node pos="r" depth="2" NCoef="0" IVar="-1" Cut="0.0000000000000000e+00" cType="1" res="-3.7770386785268784e-02" rms="1.1442372202873230e-01" purity="1.3003901578485966e-02" nType="-99"/>
        </Node>
        <Node pos="r" depth="1" NCoef="0" IVar="2" Cut="1.0012809753417969e+02" cType="0" res="-8.3486571907997131e-02" rms="2.6025649905204773e-01" purity="3.4346505999565125e-01" nType="0">
          <Node pos="l" depth="2" NCoef="0" IVar="-1" Cut="0.0000000000000000e+00" cType="1" res="-4.9307454377412796e-02" rms="3.5629212856292725e-01" purity="6.0416668653488159e-01" nType="-99"/>
          <Node pos="r" depth="2" NCoef="0" IVar="-1" Cut="0.0000000000000000e+00" cType="1" res="-4.3959353119134903e-02" rms="1.2508626282215118e-01" purity="1.4054054021835327e-01" nType="-99"/>
        </Node>
      </Node>
    </BinaryTree>
    <BinaryTree type="DecisionTree" boostWeight="1.0000000000000000e+00" itree="41">
      <Node pos="s" depth="0" NCoef="0" IVar="2" Cut="1.6975384521484375e+02" cType="0" res="-2.5966241955757141e-03" rms="2.3968552052974701e-01" purity="5.0785756111145020e-01" nType="0">
        <Node pos="l" depth="1" NCoef="0" IVar="0" Cut="3.9840628051757812e+02" cType="0" res="4.5912779867649078e-02" rms="1.6079176962375641e-01" purity="9.7120922803878784e-01" nType="0">
          <Node pos="l" depth="2" NCoef="0" IVar="-1" Cut="0.0000000000000000e+00" cType="1" res="3.1276091933250427e-02" rms="1.3469518721103668e-01" purity="9.8137366771697998e-01" nType="-99"/>
          <Node pos="r" depth="2" NCoef="0" IVar="-1" Cut="0.0000000000000000e+00" cType="1" res="1.4503324404358864e-02" rms="2.4535775184631348e-01" purity="9.2349725961685181e-01" nType="-99"/>
        </Node>
        <Node pos="r" depth="1" NCoef="0" IVar="1" Cut="8.9040267467498779e-01" cType="0" res="-1.5280889347195625e-02" rms="2.5482243299484253e-01" purity="3.8670012354850769e-01" nType="0">
          <Node pos="l" depth="2" NCoef="0" IVar="-1" Cut="0.0000000000000000e+00" cType="1" res="-1.3767108321189880e-02" rms="2.4381986260414124e-01" purity="5.4609614610671997e-01" nType="-99"/>
          <Node pos="r" depth="2" NCoef="0" IVar="-1" Cut="0.0000000000000000e+00" cType="1" res="5.6755365803837776e-03" rms="2.6684165000915527e-01" purity="1.7636786401271820e-01" nType="-99"/>
        </Node>
      </Node>
    </BinaryTree>
    <BinaryTree type="DecisionTree" boostWeight="1.0000000000000000e+00" itree="42">
      <Node pos="s" depth="0" NCoef="0" IVar="3" Cut="1.1623290252685547e+02" cType="0" res="4.1323485784232616e-03" rms="2.3617585003376007e-01" purity="5.0749850273132324e-01" nType="0">
        <Node pos="l" depth="1" NCoef="0" IVar="1" Cut="8.9760041236877441e-01" cType="0" res="2.9447006061673164e-02" rms="2.7630004286766052e-01" purity="8.5225582122802734e-01" nType="0">
          <Node pos="l" depth="2" NCoef="0" IVar="-1" Cut="0.0000000000000000e+00" cType="1" res="3.4416913986206055e-03" rms="2.4419146776199341e-01" purity="8.7764436006546021e-01" nType="-99"/>
          <Node pos="r" depth="2" NCoef="0" IVar="-1" Cut="0.0000000000000000e+00" cType="1" res="2.6816401630640030e-02" rms="4.0785631537437439e-01" purity="6.8656718730926514e-01" nType="-99"/>
        </Node>
        <Node pos="r" depth="1" NCoef="0" IVar="0" Cut="4.2385552978515625e+02" cType="0" res="-1.2978798709809780e-02" rms="2.0286442339420319e-01" purity="2.7446380257606506e-01" nType="0">
          <Node pos="l" depth="2" NCoef="0" IVar="-1" Cut="0.0000000000000000e+00" cType="1" res="1.6819711774587631e-02" rms="2.0321191847324371e-01" purity="9.5518207550048828e-01" nType="-99"/>
          <Node pos="r" depth="2" NCoef="0" IVar="-1" Cut="0.0000000000000000e+00" cType="1" res="-2.0750649273395538e-02" rms="2.0113520324230194e-01" purity="6.0352422297000885e-02" nType="-99"/>
        </Node>
      </Node>
    </BinaryTree>
    <BinaryTree type="DecisionTree" boostWeight="1.0000000000000000e+00" itree="43">
      <Node pos="s" depth="0" NCoef="0" IVar="0" Cut="2.5362751770019531e+02" cType="0" res="2.0420707296580076e-03" rms="2.3021289706230164e-01" purity="5.0919008255004883e-01" nType="0">
        <Node pos="l" depth="1" NCoef="0" IVar="1" Cut="6.9483786821365356e-01" cType="0" res="1.7709221690893173e-02" rms="2.7122712135314941e-01" purity="8.3883035182952881e-01" nType="0">
          <Node pos="l" depth="2" NCoef="0" IVar="-1" Cut="0.0000000000000000e+00" cType="1" res="4.5086820609867573e-03" rms="2.5451827049255371e-01" purity="8.4350323677062988e-01" nType="-99"/>
          <Node pos="r" depth="2" NCoef="0" IVar="-1" Cut="0.0000000000000000e+00" cType="1" res="2.7245651930570602e-02" rms="4.7054794430732727e-01" purity="7.5483870506286621e-01" nType="-99"/>
        </Node>
        <Node pos="r" depth="1" NCoef="0" IVar="0" Cut="2.2960182189941406e+02" cType="0" res="-2.0881853997707367e-02" rms="1.4839546382427216e-01" purity="2.6865672320127487e-02" nType="0">
          <Node pos="l" depth="2" NCoef="0" IVar="-1" Cut="0.0000000000000000e+00" cType="1" res="1.2839079834520817e-02" rms="3.7671083211898804e-01" purity="2.2302158176898956e-01" nType="-99"/>
          <Node pos="r" depth="2" NCoef="0" IVar="-1" Cut="0.0000000000000000e+00" cType="1" res="-2.7590861544013023e-02" rms="1.1241739988327026e-01" purity="1.2292891740798950e-02" nType="-99"/>
        </Node>
      </Node>
    </BinaryTree>
    <BinaryTree type="DecisionTree" boostWeight="1.0000000000000000e+00" itree="44">
      <Node pos="s" depth="0" NCoef="0" IVar="0" Cut="4.6331170654296875e+02" cType="0" res="1.5743961557745934e-03" rms="2.2933252155780792e-01" purity="4.9720892310142517e-01" nType="0">
        <Node pos="l" depth="1" NCoef="0" IVar="1" Cut="1.0611575841903687e+00" cType="0" res="3.3491391688585281e-02" rms="1.5198491513729095e-01" purity="9.7617024183273315e-01" nType="0">
          <Node pos="l" depth="2" NCoef="0" IVar="-1" Cut="0.0000000000000000e+00" cType="1" res="3.0284930020570755e-02" rms="1.2146997451782227e-01" purity="9.8484849929809570e-01" nType="-99"/>
          <Node pos="r" depth="2" NCoef="0" IVar="-1" Cut="0.0000000000000000e+00" cType="1" res="-1.7396572977304459e-02" rms="2.5537285208702087e-01" purity="9.2972970008850098e-01" nType="-99"/>
        </Node>
        <Node pos="r" depth="1" NCoef="0" IVar="3" Cut="1.5107502746582031e+02" cType="0" res="-8.1893289461731911e-03" rms="2.4740442633628845e-01" purity="3.5068991780281067e-01" nType="0">
          <Node pos="l" depth="2" NCoef="0" IVar="-1" Cut="0.0000000000000000e+00" cType="1" res="9.3025602400302887e-03" rms="2.5179421901702881e-01" purity="9.1094422340393066e-01" nType="-99"/>
          <Node pos="r" depth="2" NCoef="0" IVar="-1" Cut="0.0000000000000000e+00" cType="1" res="-1.1543845757842064e-02" rms="2.4503855407238007e-01" purity="1.7119285464286804e-01" nType="-99"/>
        </Node>
      </Node>
    </BinaryTree>
    <BinaryTree type="DecisionTree" boostWeight="1.0000000000000000e+00" itree="45">
      <Node pos="s" depth="0" NCoef="0" IVar="2" Cut="6.7293899536132812e+01" cType="0" res="-4.3131454731337726e-04" rms="2.4051597714424133e-01" purity="4.9960237741470337e-01" nType="0">
        <Node pos="l" depth="1" NCoef="0" IVar="1" Cut="8.7722849845886230e-01" cType="0" res="1.3164220377802849e-02" rms="2.8056010603904724e-01" purity="6.6645765304565430e-01" nType="0">
          <Node pos="l" depth="2" NCoef="0" IVar="-1" Cut="0.0000000000000000e+00" cType="1" res="-3.0896486714482307e-03" rms="2.4207393825054169e-01" purity="7.7538073062896729e-01" nType="-99"/>
          <Node pos="r" depth="2" NCoef="0" IVar="-1" Cut="0.0000000000000000e+00" cType="1" res="2.5830157101154327e-02" rms="3.6430335044860840e-01" purity="3.5472154617309570e-01" nType="-99"/>
        </Node>
        <Node pos="r" depth="1" NCoef="0" IVar="3" Cut="3.6694747924804688e+01" cType="1" res="-2.4001834914088249e-02" rms="1.4421007037162781e-01" purity="2.1032609045505524e-01" nType="0">
          <Node pos="l" depth="2" NCoef="0" IVar="-1" Cut="0.0000000000000000e+00" cType="1" res="2.3211052641272545e-02" rms="1.7208203673362732e-01" purity="5.1219511032104492e-01" nType="-99"/>
          <Node pos="r" depth="2" NCoef="0" IVar="-1" Cut="0.0000000000000000e+00" cType="1" res="-2.8264919295907021e-02" rms="1.3779133558273315e-01" purity="1.6373902559280396e-01" nType="-99"/>
        </Node>
      </Node>
    </BinaryTree>
    <BinaryTree type="DecisionTree" boostWeight="1.0000000000000000e+00" itree="46">
      <Node pos="s" depth="0" NCoef="0" IVar="1" Cut="1.4391019344329834e+00" cType="1" res="-2.6772862765938044e-03" rms="2.3868651688098907e-01" purity="4.9512669444084167e-01" nType="0">
        <Node pos="l" depth="1" NCoef="0" IVar="2" Cut="1.6217051696777344e+02" cType="0" res="3.1426146160811186e-03" rms="2.3446397483348846e-01" purity="5.0367569923400879e-01" nType="0">
          <Node pos="l" depth="2" NCoef="0" IVar="-1" Cut="0.0000000000000000e+00" cType="1" res="2.8025481849908829e-02" rms="1.6784776747226715e-01" purity="9.6751970052719116e-01" nType="-99"/>
          <Node pos="r" depth="2" NCoef="0" IVar="-1" Cut="0.0000000000000000e+00" cType="1" res="-2.1492713131010532e-03" rms="2.4863959848880768e-01" purity="3.7783712148666382e-01" nType="-99"/>
        </Node>
        <Node pos="r" depth="1" NCoef="0" IVar="2" Cut="1.1242605590820312e+02" cType="0" res="-7.7768206596374512e-02" rms="2.7689948678016663e-01" purity="3.8482385873794556e-01" nType="0">
          <Node pos="l" depth="2" NCoef="0" IVar="-1" Cut="0.0000000000000000e+00" cType="1" res="-3.8457758724689484e-02" rms="3.7975016236305237e-01" purity="6.5671640634536743e-01" nType="-99"/>
          <Node pos="r" depth="2" NCoef="0" IVar="-1" Cut="0.0000000000000000e+00" cType="1" res="-4.2038675397634506e-02" rms="1.8122348189353943e-01" purity="2.2978723049163818e-01" nType="-99"/>
        </Node>
      </Node>
    </BinaryTree>
    <BinaryTree type="DecisionTree" boostWeight="1.0000000000000000e+00" itree="47">
      <Node pos="s" depth="0" NCoef="0" IVar="1" Cut="1.3574310541152954e+00" cType="0" res="-5.8226273395121098e-03" rms="2.3585763573646545e-01" purity="4.9791541695594788e-01" nType="0">
        <Node pos="l" depth="1" NCoef="0" IVar="0" Cut="4.4340579223632812e+02" cType="0" res="-5.3144879639148712e-02" rms="2.5237834453582764e-01" purity="5.3758168220520020e-01" nType="0">
          <Node pos="l" depth="2" NCoef="0" IVar="-1" Cut="0.0000000000000000e+00" cType="1" res="8.8497530668973923e-03" rms="2.6323500275611877e-01" purity="9.2096221446990967e-01" nType="-99"/>
          <Node pos="r" depth="2" NCoef="0" IVar="-1" Cut="0.0000000000000000e+00" cType="1" res="-5.7312902063131332e-02" rms="2.3213441669940948e-01" purity="1.9003115594387054e-01" nType="-99"/>
        </Node>
        <Node pos="r" depth="1" NCoef="0" IVar="3" Cut="1.8285260009765625e+02" cType="0" res="7.2228076169267297e-04" rms="2.3272450268268585e-01" purity="4.9242937564849854e-01" nType="0">
          <Node pos="l" depth="2" NCoef="0" IVar="-1" Cut="0.0000000000000000e+00" cType="1" res="2.5626139715313911e-02" rms="1.6647952795028687e-01" purity="9.7044914960861206e-01" nType="-99"/>
          <Node pos="r" depth="2" NCoef="0" IVar="-1" Cut="0.0000000000000000e+00" cType="1" res="-3.3881326089613140e-04" rms="2.4515387415885925e-01" purity="3.7943559885025024e-01" nType="-99"/>
        </Node>
      </Node>
    </BinaryTree>
    <BinaryTree type="DecisionTree" boostWeight="1.0000000000000000e+00" itree="48">
      <Node pos="s" depth="0" NCoef="0" IVar="3" Cut="1.6129051208496094e+02" cType="0" res="-3.9983722381293774e-03" rms="2.3613697290420532e-01" purity="4.9523615837097168e-01" nType="0">
        <Node pos="l" depth="1" NCoef="0" IVar="0" Cut="4.7089031982421875e+02" cType="0" res="2.6122713461518288e-02" rms="2.2121372818946838e-01" purity="9.4215530157089233e-01" nType="0">
          <Node pos="l" depth="2" NCoef="0" IVar="-1" Cut="0.0000000000000000e+00" cType="1" res="3.0363218858838081e-02" rms="8.8260285556316376e-02" purity="9.9267399311065674e-01" nType="-99"/>
          <Node pos="r" depth="2" NCoef="0" IVar="-1" Cut="0.0000000000000000e+00" cType="1" res="1.1048946529626846e-02" rms="2.4524584412574768e-01" purity="9.2821031808853149e-01" nType="-99"/>
        </Node>
        <Node pos="r" depth="1" NCoef="0" IVar="1" Cut="1.6091008186340332e+00" cType="1" res="-1.4353265054523945e-02" rms="2.4018299579620361e-01" purity="3.4159630537033081e-01" nType="0">
          <Node pos="l" depth="2" NCoef="0" IVar="-1" Cut="0.0000000000000000e+00" cType="1" res="-3.0693779699504375e-03" rms="2.4085275828838348e-01" purity="3.5359272360801697e-01" nType="-99"/>
          <Node pos="r" depth="2" NCoef="0" IVar="-1" Cut="0.0000000000000000e+00" cType="1" res="-6.9371104240417480e-02" rms="2.1140739321708679e-01" purity="5.9999998658895493e-02" nType="-99"/>
        </Node>
      </Node>
    </BinaryTree>
    <BinaryTree type="DecisionTree" boostWeight="1.0000000000000000e+00" itree="49">
      <Node pos="s" depth="0" NCoef="0" IVar="1" Cut="1.4417349100112915e+00" cType="1" res="-4.3248836882412434e-03" rms="2.3176139593124390e-01" purity="4.9625277519226074e-01" nType="0">
        <Node pos="l" depth="1" NCoef="0" IVar="3" Cut="1.5123536682128906e+02" cType="0" res="1.3827565126121044e-03" rms="2.2838585078716278e-01" purity="5.0571930408477783e-01" nType="0">
          <Node pos="l" depth="2" NCoef="0" IVar="-1" Cut="0.0000000000000000e+00" cType="1" res="1.5085623599588871e-02" rms="2.1702140569686890e-01" purity="9.3808776140213013e-01" nType="-99"/>
          <Node pos="r" depth="2" NCoef="0" IVar="-1" Cut="0.0000000000000000e+00" cType="1" res="-1.9718487747013569e-03" rms="2.3187476396560669e-01" purity="3.3700305223464966e-01" nType="-99"/>
        </Node>
        <Node pos="r" depth="1" NCoef="0" IVar="0" Cut="2.5207250976562500e+02" cType="0" res="-7.0685327053070068e-02" rms="2.5882399082183838e-01" purity="3.8618925213813782e-01" nType="0">
          <Node pos="l" depth="2" NCoef="0" IVar="-1" Cut="0.0000000000000000e+00" cType="1" res="-2.9613625258207321e-02" rms="3.3097726106643677e-01" purity="6.4806866645812988e-01" nType="-99"/>
          <Node pos="r" depth="2" NCoef="0" IVar="-1" Cut="0.0000000000000000e+00" cType="1" res="-5.2419077605009079e-02" rms="2.5849925354123116e-02" purity="0.0000000000000000e+00" nType="-99"/>
        </Node>
      </Node>
    </BinaryTree>
    <BinaryTree type="DecisionTree" boostWeight="1.0000000000000000e+00" itree="50">
      <Node pos="s" depth="0" NCoef="0" IVar="0" Cut="1.6138510131835938e+02" cType="0" res="4.8034409992396832e-03" rms="2.3118516802787781e-01" purity="5.0196230411529541e-01" nType="0">
        <Node pos="l" depth="1" NCoef="0" IVar="1" Cut="8.6006468534469604e-01" cType="0" res="1.5603424049913883e-02" rms="2.6898282766342163e-01" purity="6.9308006763458252e-01" nType="0">
          <Node pos="l" depth="2" NCoef="0" IVar="-1" Cut="0.0000000000000000e+00" cType="1" res="-1.3221867848187685e-03" rms="2.3011158406734467e-01" purity="7.6222825050354004e-01" nType="-99"/>
          <Node pos="r" depth="2" NCoef="0" IVar="-1" Cut="0.0000000000000000e+00" cType="1" res="2.2936511784791946e-02" rms="3.8083949685096741e-01" purity="4.1835358738899231e-01" nType="-99"/>
        </Node>
        <Node pos="r" depth="1" NCoef="0" IVar="3" Cut="9.6219863891601562e+01" cType="1" res="-2.3402040824294090e-02" rms="5.4527126252651215e-02" purity="2.8348688501864672e-03" nType="0">
          <Node pos="l" depth="2" NCoef="0" IVar="-1" Cut="0.0000000000000000e+00" cType="1" res="-4.1632488369941711e-02" rms="5.6379348039627075e-02" purity="3.1872510444372892e-03" nType="-99"/>
          <Node pos="r" depth="2" NCoef="0" IVar="-1" Cut="0.0000000000000000e+00" cType="1" res="-5.3833607584238052e-02" rms="2.7949033305048943e-02" purity="0.0000000000000000e+00" nType="-99"/>
        </Node>
      </Node>
    </BinaryTree>
    <BinaryTree type="DecisionTree" boostWeight="1.0000000000000000e+00" itree="51">
      <Node pos="s" depth="0" NCoef="0" IVar="0" Cut="1.9805926513671875e+02" cType="0" res="1.8480475991964340e-03" rms="2.3182417452335358e-01" purity="5.0542515516281128e-01" nType="0">
        <Node pos="l" depth="1" NCoef="0" IVar="1" Cut="6.3227915763854980e-01" cType="0" res="1.1585347354412079e-02" rms="2.7594208717346191e-01" purity="7.6419347524642944e-01" nType="0">
          <Node pos="l" depth="2" NCoef="0" IVar="-1" Cut="0.0000000000000000e+00" cType="1" res="1.4445398701354861e-03" rms="2.6131680607795715e-01" purity="7.7742242813110352e-01" nType="-99"/>
          <Node pos="r" depth="2" NCoef="0" IVar="-1" Cut="0.0000000000000000e+00" cType="1" res="4.2086005210876465e-02" rms="4.3575435876846313e-01" purity="5.5940592288970947e-01" nType="-99"/>
        </Node>
        <Node pos="r" depth="1" NCoef="0" IVar="2" Cut="8.5868293762207031e+01" cType="1" res="-1.6781533136963844e-02" rms="1.0175883769989014e-01" purity="1.0344827547669411e-02" nType="0">
          <Node pos="l" depth="2" NCoef="0" IVar="-1" Cut="0.0000000000000000e+00" cType="1" res="-2.9557416215538979e-02" rms="1.0489924252033234e-01" purity="1.1335012502968311e-02" nType="-99"/>
          <Node pos="r" depth="2" NCoef="0" IVar="-1" Cut="0.0000000000000000e+00" cType="1" res="-3.6848828196525574e-02" rms="3.6214772611856461e-02" purity="0.0000000000000000e+00" nType="-99"/>
        </Node>
      </Node>
    </BinaryTree>
    <BinaryTree type="DecisionTree" boostWeight="1.0000000000000000e+00" itree="52">
      <Node pos="s" depth="0" NCoef="0" IVar="0" Cut="4.5762420654296875e+02" cType="0" res="1.8056371482089162e-03" rms="2.3137871921062469e-01" purity="5.0729852914810181e-01" nType="0">
        <Node pos="l" depth="1" NCoef="0" IVar="3" Cut="4.3861087799072266e+01" cType="1" res="3.0473094433546066e-02" rms="1.5348690748214722e-01" purity="9.7465437650680542e-01" nType="0">
          <Node pos="l" depth="2" NCoef="0" IVar="-1" Cut="0.0000000000000000e+00" cType="1" res="3.4043222665786743e-02" rms="2.2054273635149002e-02" purity="1.0000000000000000e+00" nType="-99"/>
          <Node pos="r" depth="2" NCoef="0" IVar="-1" Cut="0.0000000000000000e+00" cType="1" res="1.9460672512650490e-02" rms="1.6127900779247284e-01" purity="9.7184300422668457e-01" nType="-99"/>
        </Node>
        <Node pos="r" depth="1" NCoef="0" IVar="1" Cut="6.1473655700683594e-01" cType="0" res="-8.2849357277154922e-03" rms="2.5238233804702759e-01" purity="3.4279534220695496e-01" nType="0">
          <Node pos="l" depth="2" NCoef="0" IVar="-1" Cut="0.0000000000000000e+00" cType="1" res="-1.0682853870093822e-02" rms="2.4578814208507538e-01" purity="3.9738869667053223e-01" nType="-99"/>
          <Node pos="r" depth="2" NCoef="0" IVar="-1" Cut="0.0000000000000000e+00" cType="1" res="2.9406158253550529e-02" rms="2.7328684926033020e-01" purity="1.1376404762268066e-01" nType="-99"/>
        </Node>
      </Node>
    </BinaryTree>
    <BinaryTree type="DecisionTree" boostWeight="1.0000000000000000e+00" itree="53">
      <Node pos="s" depth="0" NCoef="0" IVar="1" Cut="7.1290659904479980e-01" cType="0" res="-9.3643029686063528e-04" rms="2.4459984898567200e-01" purity="4.9524387717247009e-01" nType="0">
        <Node pos="l" depth="1" NCoef="0" IVar="0" Cut="4.5762420654296875e+02" cType="0" res="-8.9405812323093414e-03" rms="2.2958242893218994e-01" purity="5.8445245027542114e-01" nType="0">
          <Node pos="l" depth="2" NCoef="0" IVar="-1" Cut="0.0000000000000000e+00" cType="1" res="2.5885770097374916e-02" rms="1.6790285706520081e-01" purity="9.6926909685134888e-01" nType="-99"/>
          <Node pos="r" depth="2" NCoef="0" IVar="-1" Cut="0.0000000000000000e+00" cType="1" res="-1.1827739886939526e-02" rms="2.5106373429298401e-01" purity="4.1079461574554443e-01" nType="-99"/>
        </Node>
        <Node pos="r" depth="1" NCoef="0" IVar="2" Cut="6.9218490600585938e+01" cType="0" res="2.8055218979716301e-02" rms="2.9077363014221191e-01" purity="1.7212347686290741e-01" nType="0">
          <Node pos="l" depth="2" NCoef="0" IVar="-1" Cut="0.0000000000000000e+00" cType="1" res="3.6817450076341629e-02" rms="3.9164176583290100e-01" purity="3.7317073345184326e-01" nType="-99"/>
          <Node pos="r" depth="2" NCoef="0" IVar="-1" Cut="0.0000000000000000e+00" cType="1" res="-3.2607890665531158e-02" rms="1.8600562214851379e-01" purity="4.7040972858667374e-02" nType="-99"/>
        </Node>
      </Node>
    </BinaryTree>
    <BinaryTree type="DecisionTree" boostWeight="1.0000000000000000e+00" itree="54">
      <Node pos="s" depth="0" NCoef="0" IVar="3" Cut="1.7415551757812500e+02" cType="0" res="-2.0348278339952230e-03" rms="2.3277460038661957e-01" purity="5.0874751806259155e-01" nType="0">
        <Node pos="l" depth="1" NCoef="0" IVar="0" Cut="4.3009927368164062e+02" cType="0" res="2.8706908226013184e-02" rms="1.8488286435604095e-01" purity="9.6095830202102661e-01" nType="0">
          <Node pos="l" depth="2" NCoef="0" IVar="-1" Cut="0.0000000000000000e+00" cType="1" res="2.3812001571059227e-02" rms="1.6947898268699646e-01" purity="9.6907216310501099e-01" nType="-99"/>
          <Node pos="r" depth="2" NCoef="0" IVar="-1" Cut="0.0000000000000000e+00" cType="1" res="1.4702332206070423e-02" rms="2.0401147007942200e-01" purity="9.4866073131561279e-01" nType="-99"/>
        </Node>
        <Node pos="r" depth="1" NCoef="0" IVar="2" Cut="1.4512605285644531e+02" cType="0" res="-1.0911572724580765e-02" rms="2.4414761364459991e-01" purity="3.7817063927650452e-01" nType="0">
          <Node pos="l" depth="2" NCoef="0" IVar="-1" Cut="0.0000000000000000e+00" cType="1" res="-1.3471858575940132e-02" rms="3.2502859830856323e-01" purity="7.7729254961013794e-01" nType="-99"/>
          <Node pos="r" depth="2" NCoef="0" IVar="-1" Cut="0.0000000000000000e+00" cType="1" res="-3.8530498277395964e-03" rms="2.3763084411621094e-01" purity="3.5329341888427734e-01" nType="-99"/>
        </Node>
      </Node>
    </BinaryTree>
    <BinaryTree type="DecisionTree" boostWeight="1.0000000000000000e+00" itree="55">
      <Node pos="s" depth="0" NCoef="0" IVar="1" Cut="1.6091008186340332e+00" cType="1" res="-1.4134441153146327e-04" rms="2.3849222064018250e-01" purity="4.9115756154060364e-01" nType="0">
        <Node pos="l" depth="1" NCoef="0" IVar="0" Cut="1.7112609863281250e+02" cType="0" res="2.9940283857285976e-03" rms="2.3764415085315704e-01" purity="5.0260686874389648e-01" nType="0">
          <Node pos="l" depth="2" NCoef="0" IVar="-1" Cut="0.0000000000000000e+00" cType="1" res="6.3781342469155788e-03" rms="2.7811202406883240e-01" purity="7.0981085300445557e-01" nType="-99"/>
          <Node pos="r" depth="2" NCoef="0" IVar="-1" Cut="0.0000000000000000e+00" cType="1" res="-3.9697121828794479e-02" rms="7.6129563152790070e-02" purity="5.6697377003729343e-03" nType="-99"/>
        </Node>
        <Node pos="r" depth="1" NCoef="0" IVar="-1" Cut="0.0000000000000000e+00" cType="1" res="-4.9970556050539017e-02" rms="2.4579685926437378e-01" purity="1.8784530460834503e-01" nType="-99"/>
      </Node>
    </BinaryTree>
    <BinaryTree type="DecisionTree" boostWeight="1.0000000000000000e+00" itree="56">
      <Node pos="s" depth="0" NCoef="0" IVar="3" Cut="1.9618354797363281e+02" cType="0" res="-5.2376282401382923e-03" rms="2.3137448728084564e-01" purity="4.9907311797142029e-01" nType="0">
        <Node pos="l" depth="1" NCoef="0" IVar="1" Cut="1.2604560852050781e+00" cType="0" res="3.0558794736862183e-02" rms="1.4069356024265289e-01" purity="9.7848099470138550e-01" nType="0">
          <Node pos="l" depth="2" NCoef="0" IVar="-1" Cut="0.0000000000000000e+00" cType="1" res="2.5029620155692101e-02" rms="8.0041460692882538e-02" purity="9.9305558204650879e-01" nType="-99"/>
          <Node pos="r" depth="2" NCoef="0" IVar="-1" Cut="0.0000000000000000e+00" cType="1" res="2.1330440416932106e-02" rms="1.6480685770511627e-01" purity="9.7011953592300415e-01" nType="-99"/>
        </Node>
        <Node pos="r" depth="1" NCoef="0" IVar="3" Cut="3.1680570602416992e+01" cType="1" res="-1.2194374576210976e-02" rms="2.4452754855155945e-01" purity="4.0590405464172363e-01" nType="0">
          <Node pos="l" depth="2" NCoef="0" IVar="-1" Cut="0.0000000000000000e+00" cType="1" res="3.1794089823961258e-02" rms="2.2201862931251526e-01" purity="6.1176472902297974e-01" nType="-99"/>
          <Node pos="r" depth="2" NCoef="0" IVar="-1" Cut="0.0000000000000000e+00" cType="1" res="-4.2992620728909969e-03" rms="2.4474290013313293e-01" purity="3.9691913127899170e-01" nType="-99"/>
        </Node>
      </Node>
    </BinaryTree>
    <BinaryTree type="DecisionTree" boostWeight="1.0000000000000000e+00" itree="57">
      <Node pos="s" depth="0" NCoef="0" IVar="0" Cut="2.0412248229980469e+02" cType="0" res="4.6005658805370331e-03" rms="2.3384948074817657e-01" purity="5.0571376085281372e-01" nType="0">
        <Node pos="l" depth="1" NCoef="0" IVar="1" Cut="8.8073140382766724e-01" cType="0" res="1.6301929950714111e-02" rms="2.8327515721321106e-01" purity="7.7964574098587036e-01" nType="0">
          <Node pos="l" depth="2" NCoef="0" IVar="-1" Cut="0.0000000000000000e+00" cType="1" res="-8.7112083565443754e-04" rms="2.3238129913806915e-01" purity="8.3667516708374023e-01" nType="-99"/>
          <Node pos="r" depth="2" NCoef="0" IVar="-1" Cut="0.0000000000000000e+00" cType="1" res="1.6139009967446327e-02" rms="4.4400265812873840e-01" purity="5.1360541582107544e-01" nType="-99"/>
        </Node>
        <Node pos="r" depth="1" NCoef="0" IVar="3" Cut="1.0449492645263672e+02" cType="0" res="-1.6675220802426338e-02" rms="8.6667977273464203e-02" purity="7.6419212855398655e-03" nType="0">
          <Node pos="l" depth="2" NCoef="0" IVar="-1" Cut="0.0000000000000000e+00" cType="1" res="-3.5664547234773636e-02" rms="1.2632048130035400e-01" purity="1.5151515603065491e-02" nType="-99"/>
          <Node pos="r" depth="2" NCoef="0" IVar="-1" Cut="0.0000000000000000e+00" cType="1" res="-2.3659775033593178e-02" rms="8.2402974367141724e-02" purity="7.0588234812021255e-03" nType="-99"/>
        </Node>
      </Node>
    </BinaryTree>
    <BinaryTree type="DecisionTree" boostWeight="1.0000000000000000e+00" itree="58">
      <Node pos="s" depth="0" NCoef="0" IVar="1" Cut="1.3830738067626953e+00" cType="1" res="-3.0831210315227509e-03" rms="2.4280551075935364e-01" purity="4.9627542495727539e-01" nType="0">
        <Node pos="l" depth="1" NCoef="0" IVar="1" Cut="7.4512553215026855e-01" cType="0" res="1.9636447541415691e-03" rms="2.4120655655860901e-01" purity="4.9819248914718628e-01" nType="0">
          <Node pos="l" depth="2" NCoef="0" IVar="-1" Cut="0.0000000000000000e+00" cType="1" res="-1.2653210433200002e-04" rms="2.2079272568225861e-01" purity="6.2005603313446045e-01" nType="-99"/>
          <Node pos="r" depth="2" NCoef="0" IVar="-1" Cut="0.0000000000000000e+00" cType="1" res="1.3685480691492558e-02" rms="2.8655230998992920e-01" purity="1.7613168060779572e-01" nType="-99"/>
        </Node>
        <Node pos="r" depth="1" NCoef="0" IVar="1" Cut="1.7308723926544189e+00" cType="1" res="-4.4371448457241058e-02" rms="2.5173977017402649e-01" purity="4.8059150576591492e-01" nType="0">
          <Node pos="l" depth="2" NCoef="0" IVar="-1" Cut="0.0000000000000000e+00" cType="1" res="-1.6918556764721870e-02" rms="2.5578814744949341e-01" purity="6.2254899740219116e-01" nType="-99"/>
          <Node pos="r" depth="2" NCoef="0" IVar="-1" Cut="0.0000000000000000e+00" cType="1" res="-6.6725164651870728e-02" rms="2.3164086043834686e-01" purity="4.5112781226634979e-02" nType="-99"/>
        </Node>
      </Node>
    </BinaryTree>
    <BinaryTree type="DecisionTree" boostWeight="1.0000000000000000e+00" itree="59">
      <Node pos="s" depth="0" NCoef="0" IVar="0" Cut="4.5762420654296875e+02" cType="0" res="8.6536142043769360e-04" rms="2.2306998074054718e-01" purity="4.9605694413185120e-01" nType="0">
        <Node pos="l" depth="1" NCoef="0" IVar="1" Cut="9.6021991968154907e-01" cType="0" res="2.9719021171331406e-02" rms="1.4727817475795746e-01" purity="9.7747749090194702e-01" nType="0">
          <Node pos="l" depth="2" NCoef="0" IVar="-1" Cut="0.0000000000000000e+00" cType="1" res="2.7813702821731567e-02" rms="1.3374944031238556e-01" purity="9.8138749599456787e-01" nType="-99"/>
          <Node pos="r" depth="2" NCoef="0" IVar="-1" Cut="0.0000000000000000e+00" cType="1" res="-6.6218227148056030e-02" rms="2.2419396042823792e-01" purity="9.4666665792465210e-01" nType="-99"/>
        </Node>
        <Node pos="r" depth="1" NCoef="0" IVar="1" Cut="6.1473655700683594e-01" cType="0" res="-9.0733701363205910e-03" rms="2.4298816919326782e-01" purity="3.3023014664649963e-01" nType="0">
          <Node pos="l" depth="2" NCoef="0" IVar="-1" Cut="0.0000000000000000e+00" cType="1" res="-8.9941136538982391e-03" rms="2.4005551636219025e-01" purity="3.8402557373046875e-01" nType="-99"/>
          <Node pos="r" depth="2" NCoef="0" IVar="-1" Cut="0.0000000000000000e+00" cType="1" res="2.6155620813369751e-02" rms="2.5259542465209961e-01" purity="1.0176390409469604e-01" nType="-99"/>
        </Node>
      </Node>
    </BinaryTree>
    <BinaryTree type="DecisionTree" boostWeight="1.0000000000000000e+00" itree="60">
      <Node pos="s" depth="0" NCoef="0" IVar="0" Cut="1.7195520019531250e+02" cType="0" res="-1.4154415111988783e-05" rms="2.3541715741157532e-01" purity="4.9787837266921997e-01" nType="0">
        <Node pos="l" depth="1" NCoef="0" IVar="1" Cut="6.2898749113082886e-01" cType="0" res="6.2265731394290924e-03" rms="2.7670815587043762e-01" purity="7.0757704973220825e-01" nType="0">
          <Node pos="l" depth="2" NCoef="0" IVar="-1" Cut="0.0000000000000000e+00" cType="1" res="5.9489719569683075e-04" rms="2.5915637612342834e-01" purity="7.2563624382019043e-01" nType="-99"/>
          <Node pos="r" depth="2" NCoef="0" IVar="-1" Cut="0.0000000000000000e+00" cType="1" res="3.4873839467763901e-02" rms="4.3814575672149658e-01" purity="4.7389557957649231e-01" nType="-99"/>
        </Node>
        <Node pos="r" depth="1" NCoef="0" IVar="2" Cut="7.8617309570312500e+01" cType="1" res="-1.4670153148472309e-02" rms="7.3853857815265656e-02" purity="5.4127196781337261e-03" nType="0">
          <Node pos="l" depth="2" NCoef="0" IVar="-1" Cut="0.0000000000000000e+00" cType="1" res="-3.4716535359621048e-02" rms="7.7365435659885406e-02" purity="6.0790274292230606e-03" nType="-99"/>
          <Node pos="r" depth="2" NCoef="0" IVar="-1" Cut="0.0000000000000000e+00" cType="1" res="-4.9139924347400665e-02" rms="2.3341147229075432e-02" purity="0.0000000000000000e+00" nType="-99"/>
        </Node>
      </Node>
    </BinaryTree>
    <BinaryTree type="DecisionTree" boostWeight="1.0000000000000000e+00" itree="61">
      <Node pos="s" depth="0" NCoef="0" IVar="1" Cut="1.4743549823760986e+00" cType="1" res="-4.2163059115409851e-03" rms="2.3512592911720276e-01" purity="4.9980315566062927e-01" nType="0">
        <Node pos="l" depth="1" NCoef="0" IVar="3" Cut="1.5621440124511719e+02" cType="0" res="8.3132239524275064e-04" rms="2.3071473836898804e-01" purity="5.1085597276687622e-01" nType="0">
          <Node pos="l" depth="2" NCoef="0" IVar="-1" Cut="0.0000000000000000e+00" cType="1" res="1.5881657600402832e-02" rms="2.0696388185024261e-01" purity="9.4223260879516602e-01" nType="-99"/>
          <Node pos="r" depth="2" NCoef="0" IVar="-1" Cut="0.0000000000000000e+00" cType="1" res="-2.3574568331241608e-03" rms="2.3837219178676605e-01" purity="3.5337704420089722e-01" nType="-99"/>
        </Node>
        <Node pos="r" depth="1" NCoef="0" IVar="0" Cut="2.8353674316406250e+02" cType="0" res="-8.7589196860790253e-02" rms="2.8610116243362427e-01" purity="3.1724137067794800e-01" nType="0">
          <Node pos="l" depth="2" NCoef="0" IVar="-1" Cut="0.0000000000000000e+00" cType="1" res="-2.9710421338677406e-02" rms="3.7983602285385132e-01" purity="5.9354835748672485e-01" nType="-99"/>
          <Node pos="r" depth="2" NCoef="0" IVar="-1" Cut="0.0000000000000000e+00" cType="1" res="-5.3654029965400696e-02" rms="2.2909423336386681e-02" purity="0.0000000000000000e+00" nType="-99"/>
        </Node>
      </Node>
    </BinaryTree>
    <BinaryTree type="DecisionTree" boostWeight="1.0000000000000000e+00" itree="62">
      <Node pos="s" depth="0" NCoef="0" IVar="0" Cut="4.2334542846679688e+02" cType="0" res="-2.5214389897882938e-03" rms="2.3771759867668152e-01" purity="4.9700480699539185e-01" nType="0">
        <Node pos="l" depth="1" NCoef="0" IVar="1" Cut="8.9957547187805176e-01" cType="0" res="1.4698127284646034e-02" rms="1.9049677252769470e-01" purity="9.6101784706115723e-01" nType="0">
          <Node pos="l" depth="2" NCoef="0" IVar="-1" Cut="0.0000000000000000e+00" cType="1" res="2.1151136606931686e-02" rms="1.6957300901412964e-01" purity="9.6935766935348511e-01" nType="-99"/>
          <Node pos="r" depth="2" NCoef="0" IVar="-1" Cut="0.0000000000000000e+00" cType="1" res="-5.9591930359601974e-02" rms="3.3512115478515625e-01" purity="8.6666667461395264e-01" nType="-99"/>
        </Node>
        <Node pos="r" depth="1" NCoef="0" IVar="1" Cut="9.7387325763702393e-01" cType="0" res="-1.2582982890307903e-02" rms="2.6086446642875671e-01" purity="2.2587788105010986e-01" nType="0">
          <Node pos="l" depth="2" NCoef="0" IVar="-1" Cut="0.0000000000000000e+00" cType="1" res="-2.1889049559831619e-02" rms="2.5253450870513916e-01" purity="3.7626853585243225e-01" nType="-99"/>
          <Node pos="r" depth="2" NCoef="0" IVar="-1" Cut="0.0000000000000000e+00" cType="1" res="6.0596438124775887e-03" rms="2.6442891359329224e-01" purity="1.2340425699949265e-01" nType="-99"/>
        </Node>
      </Node>
    </BinaryTree>
    <BinaryTree type="DecisionTree" boostWeight="1.0000000000000000e+00" itree="63">
      <Node pos="s" depth="0" NCoef="0" IVar="3" Cut="1.7377276611328125e+02" cType="0" res="-3.8173252250999212e-03" rms="2.3491939902305603e-01" purity="4.9561402201652527e-01" nType="0">
        <Node pos="l" depth="1" NCoef="0" IVar="2" Cut="1.7526997375488281e+02" cType="0" res="2.2317973896861076e-02" rms="1.9251593947410583e-01" purity="9.5505619049072266e-01" nType="0">
          <Node pos="l" depth="2" NCoef="0" IVar="-1" Cut="0.0000000000000000e+00" cType="1" res="1.8110675737261772e-02" rms="1.8461662530899048e-01" purity="9.5995551347732544e-01" nType="-99"/>
          <Node pos="r" depth="2" NCoef="0" IVar="-1" Cut="0.0000000000000000e+00" cType="1" res="9.6144396811723709e-03" rms="2.2489133477210999e-01" purity="9.2899405956268311e-01" nType="-99"/>
        </Node>
        <Node pos="r" depth="1" NCoef="0" IVar="2" Cut="1.3609637451171875e+02" cType="0" res="-1.0887360200285912e-02" rms="2.4465365707874298e-01" purity="3.7132725119590759e-01" nType="0">
          <Node pos="l" depth="2" NCoef="0" IVar="-1" Cut="0.0000000000000000e+00" cType="1" res="-1.2312673963606358e-02" rms="3.4698310494422913e-01" purity="7.7777779102325439e-01" nType="-99"/>
