<?xml version="1.0"?>
<MethodSetup Method="BDT::BDTG_17GeVP_clusterinfo">
  <GeneralInfo>
    <Info name="TMVA Release" value="4.2.0 [262656]"/>
    <Info name="ROOT Release" value="5.34/10 [336394]"/>
    <Info name="Creator" value="halesert"/>
    <Info name="Date" value="Mon Jan 26 16:50:21 2015"/>
    <Info name="Host" value="Linux ilcsoft_build_sl6.desy.de 2.6.32-431.1.2.el6.x86_64 #1 SMP Thu Dec 12 13:59:19 CST 2013 x86_64 x86_64 x86_64 GNU/Linux"/>
    <Info name="Dir" value="/afs/desy.de/group/flc/pool/halesert/CodePool/TMVA/TMVA-v4.2.0/workdir/MyAna/Analysis"/>
    <Info name="Training events" value="10000"/>
    <Info name="TrainingTime" value="5.60061002e+00"/>
    <Info name="AnalysisType" value="Classification"/>
  </GeneralInfo>
  <Options>
    <Option name="V" modified="Yes">False</Option>
    <Option name="VerbosityLevel" modified="No">Default</Option>
    <Option name="VarTransform" modified="No">None</Option>
    <Option name="H" modified="Yes">False</Option>
    <Option name="CreateMVAPdfs" modified="No">False</Option>
    <Option name="IgnoreNegWeightsInTraining" modified="No">False</Option>
    <Option name="NTrees" modified="Yes">1000</Option>
    <Option name="MaxDepth" modified="Yes">2</Option>
    <Option name="MinNodeSize" modified="Yes">2.5%</Option>
    <Option name="nCuts" modified="Yes">20</Option>
    <Option name="BoostType" modified="Yes">Grad</Option>
    <Option name="AdaBoostR2Loss" modified="No">quadratic</Option>
    <Option name="UseBaggedBoost" modified="Yes">True</Option>
    <Option name="Shrinkage" modified="Yes">1.000000e-01</Option>
    <Option name="AdaBoostBeta" modified="No">5.000000e-01</Option>
    <Option name="UseRandomisedTrees" modified="No">False</Option>
    <Option name="UseNvars" modified="No">2</Option>
    <Option name="UsePoissonNvars" modified="No">True</Option>
    <Option name="BaggedSampleFraction" modified="Yes">5.000000e-01</Option>
    <Option name="UseYesNoLeaf" modified="No">True</Option>
    <Option name="NegWeightTreatment" modified="No">ignorenegweightsintraining</Option>
    <Option name="Css" modified="No">1.000000e+00</Option>
    <Option name="Cts_sb" modified="No">1.000000e+00</Option>
    <Option name="Ctb_ss" modified="No">1.000000e+00</Option>
    <Option name="Cbb" modified="No">1.000000e+00</Option>
    <Option name="NodePurityLimit" modified="No">5.000000e-01</Option>
    <Option name="SeparationType" modified="No">giniindex</Option>
    <Option name="DoBoostMonitor" modified="No">False</Option>
    <Option name="UseFisherCuts" modified="No">False</Option>
    <Option name="MinLinCorrForFisher" modified="No">8.000000e-01</Option>
    <Option name="UseExclusiveVars" modified="No">False</Option>
    <Option name="DoPreselection" modified="No">False</Option>
    <Option name="SigToBkgFraction" modified="No">1.000000e+00</Option>
    <Option name="PruneMethod" modified="No">nopruning</Option>
    <Option name="PruneStrength" modified="No">0.000000e+00</Option>
    <Option name="PruningValFraction" modified="No">5.000000e-01</Option>
    <Option name="nEventsMin" modified="No">0</Option>
    <Option name="UseBaggedGrad" modified="No">False</Option>
    <Option name="GradBaggingFraction" modified="No">5.000000e-01</Option>
    <Option name="UseNTrainEvents" modified="No">0</Option>
    <Option name="NNodesMax" modified="No">0</Option>
  </Options>
  <Variables NVar="4">
    <Variable VarIndex="0" Expression="Dclus" Label="Dclus" Title="Dclus:Zlus/costheta" Unit="mm" Internal="Dclus" Type="" Min="2.07556248e+01" Max="3.16108276e+03"/>
    <Variable VarIndex="1" Expression="EclOvPtr" Label="EclOvPtr" Title="EclusOverPtrue" Unit="1" Internal="EclOvPtr" Type="" Min="7.95813277e-02" Max="5.86158466e+00"/>
    <Variable VarIndex="2" Expression="Rmean" Label="Rmean" Title="Rmean" Unit="mm" Internal="Rmean" Type="" Min="4.73390198e+00" Max="5.80072021e+02"/>
    <Variable VarIndex="3" Expression="Rrms" Label="Rrms" Title="Rrms" Unit="mm" Internal="Rrms" Type="" Min="5.80211067e+00" Max="6.30317078e+02"/>
  </Variables>
  <Spectators NSpec="0"/>
  <Classes NClass="2">
    <Class Name="Signal" Index="0"/>
    <Class Name="Background" Index="1"/>
  </Classes>
  <Transformations NTransformations="0"/>
  <MVAPdfs/>
  <Weights NTrees="1000" AnalysisType="1">
    <BinaryTree type="DecisionTree" boostWeight="1.0000000000000000e+00" itree="0">
      <Node pos="s" depth="0" NCoef="0" IVar="0" Cut="5.4343188476562500e+02" cType="0" res="-1.9944156520068645e-04" rms="4.9999997019767761e-01" purity="4.9980056285858154e-01" nType="0">
        <Node pos="l" depth="1" NCoef="0" IVar="0" Cut="6.4952404785156250e+02" cType="0" res="4.7240471839904785e-01" rms="1.6381016373634338e-01" purity="9.7240471839904785e-01" nType="0">
          <Node pos="l" depth="2" NCoef="0" IVar="-1" Cut="0.0000000000000000e+00" cType="1" res="9.7151733934879303e-02" rms="1.1064816266298294e-01" purity="9.8760330677032471e-01" nType="-99"/>
          <Node pos="r" depth="2" NCoef="0" IVar="-1" Cut="0.0000000000000000e+00" cType="1" res="7.6569035649299622e-02" rms="3.1584805250167847e-01" purity="8.8760805130004883e-01" nType="-99"/>
        </Node>
        <Node pos="r" depth="1" NCoef="0" IVar="3" Cut="1.2607775878906250e+02" cType="0" res="-3.9527645707130432e-01" rms="3.0619686841964722e-01" purity="1.0472354292869568e-01" nType="0">
          <Node pos="l" depth="2" NCoef="0" IVar="-1" Cut="0.0000000000000000e+00" cType="1" res="-2.5442684069275856e-02" rms="4.8544964194297791e-01" purity="3.8025593757629395e-01" nType="-99"/>
          <Node pos="r" depth="2" NCoef="0" IVar="-1" Cut="0.0000000000000000e+00" cType="1" res="-9.2640295624732971e-02" rms="1.8557687103748322e-01" purity="3.5714287310838699e-02" nType="-99"/>
        </Node>
      </Node>
    </BinaryTree>
    <BinaryTree type="DecisionTree" boostWeight="1.0000000000000000e+00" itree="1">
      <Node pos="s" depth="0" NCoef="0" IVar="0" Cut="5.4443865966796875e+02" cType="0" res="1.3253076467663050e-03" rms="4.6153190732002258e-01" purity="5.0147432088851929e-01" nType="0">
        <Node pos="l" depth="1" NCoef="0" IVar="1" Cut="1.0238142013549805e+00" cType="0" res="4.1759184002876282e-01" rms="1.8423239886760712e-01" purity="9.6449959278106689e-01" nType="0">
          <Node pos="l" depth="2" NCoef="0" IVar="-1" Cut="0.0000000000000000e+00" cType="1" res="8.7683260440826416e-02" rms="1.3747623562812805e-01" purity="9.8049730062484741e-01" nType="-99"/>
          <Node pos="r" depth="2" NCoef="0" IVar="-1" Cut="0.0000000000000000e+00" cType="1" res="7.0162922143936157e-02" rms="3.5606253147125244e-01" purity="8.5017418861389160e-01" nType="-99"/>
        </Node>
        <Node pos="r" depth="1" NCoef="0" IVar="3" Cut="1.4412405395507812e+02" cType="0" res="-3.5270568728446960e-01" rms="3.0430257320404053e-01" purity="1.0767551511526108e-01" nType="0">
          <Node pos="l" depth="2" NCoef="0" IVar="-1" Cut="0.0000000000000000e+00" cType="1" res="-5.8340742252767086e-03" rms="4.9992901086807251e-01" purity="4.9157303571701050e-01" nType="-99"/>
          <Node pos="r" depth="2" NCoef="0" IVar="-1" Cut="0.0000000000000000e+00" cType="1" res="-8.1861875951290131e-02" rms="2.1774776279926300e-01" purity="5.0564143806695938e-02" nType="-99"/>
        </Node>
      </Node>
    </BinaryTree>
    <BinaryTree type="DecisionTree" boostWeight="1.0000000000000000e+00" itree="2">
      <Node pos="s" depth="0" NCoef="0" IVar="0" Cut="5.6126470947265625e+02" cType="0" res="-4.2699412442743778e-03" rms="4.2713424563407898e-01" purity="4.9454906582832336e-01" nType="0">
        <Node pos="l" depth="1" NCoef="0" IVar="1" Cut="1.0397096872329712e+00" cType="0" res="3.8635599613189697e-01" rms="1.5384285151958466e-01" purity="9.7536945343017578e-01" nType="0">
          <Node pos="l" depth="2" NCoef="0" IVar="-1" Cut="0.0000000000000000e+00" cType="1" res="8.1409253180027008e-02" rms="1.2078823149204254e-01" purity="9.8508232831954956e-01" nType="-99"/>
          <Node pos="r" depth="2" NCoef="0" IVar="-1" Cut="0.0000000000000000e+00" cType="1" res="6.7324191331863403e-02" rms="2.8438973426818848e-01" purity="9.1003459692001343e-01" nType="-99"/>
        </Node>
        <Node pos="r" depth="1" NCoef="0" IVar="3" Cut="1.4201051330566406e+02" cType="0" res="-3.1446471810340881e-01" rms="3.0188784003257751e-01" purity="1.1273115128278732e-01" nType="0">
          <Node pos="l" depth="2" NCoef="0" IVar="-1" Cut="0.0000000000000000e+00" cType="1" res="-2.4090362712740898e-03" rms="4.9672916531562805e-01" purity="4.9753695726394653e-01" nType="-99"/>
          <Node pos="r" depth="2" NCoef="0" IVar="-1" Cut="0.0000000000000000e+00" cType="1" res="-7.5599521398544312e-02" rms="2.1102233231067657e-01" purity="4.7797173261642456e-02" nType="-99"/>
        </Node>
      </Node>
    </BinaryTree>
    <BinaryTree type="DecisionTree" boostWeight="1.0000000000000000e+00" itree="3">
      <Node pos="s" depth="0" NCoef="0" IVar="0" Cut="4.2613742065429688e+02" cType="0" res="-7.1441493928432465e-03" rms="3.9834478497505188e-01" purity="4.8942658305168152e-01" nType="0">
        <Node pos="l" depth="1" NCoef="0" IVar="0" Cut="5.4221014404296875e+02" cType="0" res="3.1882429122924805e-01" rms="2.3010435700416565e-01" purity="9.3055558204650879e-01" nType="0">
          <Node pos="l" depth="2" NCoef="0" IVar="-1" Cut="0.0000000000000000e+00" cType="1" res="7.3407173156738281e-02" rms="1.7228884994983673e-01" purity="9.6803653240203857e-01" nType="-99"/>
          <Node pos="r" depth="2" NCoef="0" IVar="-1" Cut="0.0000000000000000e+00" cType="1" res="-6.6760974004864693e-04" rms="4.9308940768241882e-01" purity="4.8924732208251953e-01" nType="-99"/>
        </Node>
        <Node pos="r" depth="1" NCoef="0" IVar="0" Cut="2.7145989990234375e+02" cType="0" res="-3.1182590126991272e-01" rms="2.5565016269683838e-01" purity="7.7104642987251282e-02" nType="0">
          <Node pos="l" depth="2" NCoef="0" IVar="-1" Cut="0.0000000000000000e+00" cType="1" res="-3.4015372395515442e-02" rms="4.2919200658798218e-01" purity="2.6631394028663635e-01" nType="-99"/>
          <Node pos="r" depth="2" NCoef="0" IVar="-1" Cut="0.0000000000000000e+00" cType="1" res="-7.6564282178878784e-02" rms="1.4859607815742493e-01" purity="2.2784810513257980e-02" nType="-99"/>
        </Node>
      </Node>
    </BinaryTree>
    <BinaryTree type="DecisionTree" boostWeight="1.0000000000000000e+00" itree="4">
      <Node pos="s" depth="0" NCoef="0" IVar="0" Cut="5.3339892578125000e+02" cType="0" res="3.1882843468338251e-03" rms="3.7044498324394226e-01" purity="5.0457596778869629e-01" nType="0">
        <Node pos="l" depth="1" NCoef="0" IVar="0" Cut="6.3751031494140625e+02" cType="0" res="3.1555134057998657e-01" rms="1.5947358310222626e-01" purity="9.7333914041519165e-01" nType="0">
          <Node pos="l" depth="2" NCoef="0" IVar="-1" Cut="0.0000000000000000e+00" cType="1" res="7.2188496589660645e-02" rms="1.1501906067132950e-01" purity="9.8642534017562866e-01" nType="-99"/>
          <Node pos="r" depth="2" NCoef="0" IVar="-1" Cut="0.0000000000000000e+00" cType="1" res="4.9072671681642532e-02" rms="3.1977114081382751e-01" purity="8.8628762960433960e-01" nType="-99"/>
        </Node>
        <Node pos="r" depth="1" NCoef="0" IVar="0" Cut="3.6183837890625000e+02" cType="0" res="-2.6865905523300171e-01" rms="2.7515476942062378e-01" purity="9.6614681184291840e-02" nType="0">
          <Node pos="l" depth="2" NCoef="0" IVar="-1" Cut="0.0000000000000000e+00" cType="1" res="-1.0838289745151997e-02" rms="4.8122859001159668e-01" purity="4.0446650981903076e-01" nType="-99"/>
          <Node pos="r" depth="2" NCoef="0" IVar="-1" Cut="0.0000000000000000e+00" cType="1" res="-6.6244468092918396e-02" rms="1.8720901012420654e-01" purity="4.0880504995584488e-02" nType="-99"/>
        </Node>
      </Node>
    </BinaryTree>
    <BinaryTree type="DecisionTree" boostWeight="1.0000000000000000e+00" itree="5">
      <Node pos="s" depth="0" NCoef="0" IVar="0" Cut="4.6962631225585938e+02" cType="0" res="-4.8808739520609379e-03" rms="3.4729748964309692e-01" purity="4.9571284651756287e-01" nType="0">
        <Node pos="l" depth="1" NCoef="0" IVar="0" Cut="5.9890588378906250e+02" cType="0" res="2.6656278967857361e-01" rms="2.0438501238822937e-01" purity="9.4490128755569458e-01" nType="0">
          <Node pos="l" depth="2" NCoef="0" IVar="-1" Cut="0.0000000000000000e+00" cType="1" res="6.7676030099391937e-02" rms="1.4129193127155304e-01" purity="9.7929131984710693e-01" nType="-99"/>
          <Node pos="r" depth="2" NCoef="0" IVar="-1" Cut="0.0000000000000000e+00" cType="1" res="2.3118166252970695e-02" rms="4.3656924366950989e-01" purity="6.5637063980102539e-01" nType="-99"/>
        </Node>
        <Node pos="r" depth="1" NCoef="0" IVar="0" Cut="2.5586581420898438e+02" cType="0" res="-2.6045617461204529e-01" rms="2.4526672065258026e-01" purity="7.2783581912517548e-02" nType="0">
          <Node pos="l" depth="2" NCoef="0" IVar="-1" Cut="0.0000000000000000e+00" cType="1" res="-2.8613131493330002e-02" rms="3.9669746160507202e-01" purity="2.1227622032165527e-01" nType="-99"/>
          <Node pos="r" depth="2" NCoef="0" IVar="-1" Cut="0.0000000000000000e+00" cType="1" res="-6.9808125495910645e-02" rms="1.1024366319179535e-01" purity="1.2215435504913330e-02" nType="-99"/>
        </Node>
      </Node>
    </BinaryTree>
    <BinaryTree type="DecisionTree" boostWeight="1.0000000000000000e+00" itree="6">
      <Node pos="s" depth="0" NCoef="0" IVar="0" Cut="4.6981634521484375e+02" cType="0" res="1.0028791613876820e-02" rms="3.3032545447349548e-01" purity="5.1825267076492310e-01" nType="0">
        <Node pos="l" depth="1" NCoef="0" IVar="0" Cut="5.9850671386718750e+02" cType="0" res="2.4154478311538696e-01" rms="2.0389926433563232e-01" purity="9.4599020481109619e-01" nType="0">
          <Node pos="l" depth="2" NCoef="0" IVar="-1" Cut="0.0000000000000000e+00" cType="1" res="6.4546018838882446e-02" rms="1.4325492084026337e-01" purity="9.7868478298187256e-01" nType="-99"/>
          <Node pos="r" depth="2" NCoef="0" IVar="-1" Cut="0.0000000000000000e+00" cType="1" res="2.0966172218322754e-02" rms="4.5557442307472229e-01" purity="6.4435148239135742e-01" nType="-99"/>
        </Node>
        <Node pos="r" depth="1" NCoef="0" IVar="0" Cut="2.9862246704101562e+02" cType="0" res="-2.2262954711914062e-01" rms="2.6266729831695557e-01" purity="8.8404603302478790e-02" nType="0">
          <Node pos="l" depth="2" NCoef="0" IVar="-1" Cut="0.0000000000000000e+00" cType="1" res="-2.1082680672407150e-02" rms="4.5825284719467163e-01" purity="3.2882010936737061e-01" nType="-99"/>
          <Node pos="r" depth="2" NCoef="0" IVar="-1" Cut="0.0000000000000000e+00" cType="1" res="-6.3369289040565491e-02" rms="1.4709661900997162e-01" purity="2.3498695343732834e-02" nType="-99"/>
        </Node>
      </Node>
    </BinaryTree>
    <BinaryTree type="DecisionTree" boostWeight="1.0000000000000000e+00" itree="7">
      <Node pos="s" depth="0" NCoef="0" IVar="0" Cut="4.6937377929687500e+02" cType="0" res="9.3640536069869995e-03" rms="3.1358689069747925e-01" purity="5.1039999723434448e-01" nType="0">
        <Node pos="l" depth="1" NCoef="0" IVar="0" Cut="5.9775390625000000e+02" cType="0" res="2.2652441263198853e-01" rms="1.9220720231533051e-01" purity="9.5128941535949707e-01" nType="0">
          <Node pos="l" depth="2" NCoef="0" IVar="-1" Cut="0.0000000000000000e+00" cType="1" res="6.1833214014768600e-02" rms="1.3189335167407990e-01" purity="9.8203593492507935e-01" nType="-99"/>
          <Node pos="r" depth="2" NCoef="0" IVar="-1" Cut="0.0000000000000000e+00" cType="1" res="1.8407633528113365e-02" rms="4.2997410893440247e-01" purity="7.0588237047195435e-01" nType="-99"/>
        </Node>
        <Node pos="r" depth="1" NCoef="0" IVar="3" Cut="1.3346502685546875e+02" cType="0" res="-1.9811454415321350e-01" rms="2.6246762275695801e-01" purity="8.9166991412639618e-02" nType="0">
          <Node pos="l" depth="2" NCoef="0" IVar="-1" Cut="0.0000000000000000e+00" cType="1" res="-7.4993609450757504e-03" rms="4.8046714067459106e-01" purity="3.9886039495468140e-01" nType="-99"/>
          <Node pos="r" depth="2" NCoef="0" IVar="-1" Cut="0.0000000000000000e+00" cType="1" res="-5.9170782566070557e-02" rms="1.8944656848907471e-01" purity="3.9891205728054047e-02" nType="-99"/>
        </Node>
      </Node>
    </BinaryTree>
    <BinaryTree type="DecisionTree" boostWeight="1.0000000000000000e+00" itree="8">
      <Node pos="s" depth="0" NCoef="0" IVar="0" Cut="4.3408020019531250e+02" cType="0" res="-1.4882329851388931e-03" rms="2.9625195264816284e-01" purity="4.9751836061477661e-01" nType="0">
        <Node pos="l" depth="1" NCoef="0" IVar="0" Cut="5.5247930908203125e+02" cType="0" res="1.9100981950759888e-01" rms="2.1605424582958221e-01" purity="9.2828685045242310e-01" nType="0">
          <Node pos="l" depth="2" NCoef="0" IVar="-1" Cut="0.0000000000000000e+00" cType="1" res="5.7876627892255783e-02" rms="1.5765151381492615e-01" purity="9.7366112470626831e-01" nType="-99"/>
          <Node pos="r" depth="2" NCoef="0" IVar="-1" Cut="0.0000000000000000e+00" cType="1" res="1.2025472242385149e-03" rms="4.7556924819946289e-01" purity="4.8275861144065857e-01" nType="-99"/>
        </Node>
        <Node pos="r" depth="1" NCoef="0" IVar="2" Cut="9.3109970092773438e+01" cType="0" res="-1.9269128143787384e-01" rms="2.3496763408184052e-01" purity="6.9647803902626038e-02" nType="0">
          <Node pos="l" depth="2" NCoef="0" IVar="-1" Cut="0.0000000000000000e+00" cType="1" res="-2.0048359408974648e-02" rms="3.9825391769409180e-01" purity="2.2383721172809601e-01" nType="-99"/>
          <Node pos="r" depth="2" NCoef="0" IVar="-1" Cut="0.0000000000000000e+00" cType="1" res="-6.1883520334959030e-02" rms="1.0735942423343658e-01" purity="1.1963023804128170e-02" nType="-99"/>
        </Node>
      </Node>
    </BinaryTree>
    <BinaryTree type="DecisionTree" boostWeight="1.0000000000000000e+00" itree="9">
      <Node pos="s" depth="0" NCoef="0" IVar="0" Cut="4.6937377929687500e+02" cType="0" res="7.8306935029104352e-04" rms="2.8877863287925720e-01" purity="4.9879807233810425e-01" nType="0">
        <Node pos="l" depth="1" NCoef="0" IVar="0" Cut="5.9830889892578125e+02" cType="0" res="1.7789112031459808e-01" rms="2.0213861763477325e-01" purity="9.4490820169448853e-01" nType="0">
          <Node pos="l" depth="2" NCoef="0" IVar="-1" Cut="0.0000000000000000e+00" cType="1" res="5.7527966797351837e-02" rms="1.3921205699443817e-01" purity="9.7997206449508667e-01" nType="-99"/>
          <Node pos="r" depth="2" NCoef="0" IVar="-1" Cut="0.0000000000000000e+00" cType="1" res="1.4534083195030689e-02" rms="4.5676681399345398e-01" purity="6.4257025718688965e-01" nType="-99"/>
        </Node>
        <Node pos="r" depth="1" NCoef="0" IVar="0" Cut="2.5535279846191406e+02" cType="0" res="-1.6268028318881989e-01" rms="2.5880187749862671e-01" purity="8.7057009339332581e-02" nType="0">
          <Node pos="l" depth="2" NCoef="0" IVar="-1" Cut="0.0000000000000000e+00" cType="1" res="-1.7865108326077461e-02" rms="4.2533496022224426e-01" purity="2.6267880201339722e-01" nType="-99"/>
          <Node pos="r" depth="2" NCoef="0" IVar="-1" Cut="0.0000000000000000e+00" cType="1" res="-6.0109268873929977e-02" rms="1.1378788948059082e-01" purity="1.3136289082467556e-02" nType="-99"/>
        </Node>
      </Node>
    </BinaryTree>
    <BinaryTree type="DecisionTree" boostWeight="1.0000000000000000e+00" itree="10">
      <Node pos="s" depth="0" NCoef="0" IVar="0" Cut="4.6962631225585938e+02" cType="0" res="-1.2790539767593145e-03" rms="2.7416023612022400e-01" purity="4.9811246991157532e-01" nType="0">
        <Node pos="l" depth="1" NCoef="0" IVar="0" Cut="5.9782708740234375e+02" cType="0" res="1.6043704748153687e-01" rms="1.9866766035556793e-01" purity="9.4602388143539429e-01" nType="0">
          <Node pos="l" depth="2" NCoef="0" IVar="-1" Cut="0.0000000000000000e+00" cType="1" res="5.5578269064426422e-02" rms="1.3469076156616211e-01" purity="9.8120987415313721e-01" nType="-99"/>
          <Node pos="r" depth="2" NCoef="0" IVar="-1" Cut="0.0000000000000000e+00" cType="1" res="1.3726241886615753e-02" rms="4.5986181497573853e-01" purity="6.3265305757522583e-01" nType="-99"/>
        </Node>
        <Node pos="r" depth="1" NCoef="0" IVar="1" Cut="8.4242445230484009e-01" cType="1" res="-1.5188725292682648e-01" rms="2.4772648513317108e-01" purity="8.0967001616954803e-02" nType="0">
          <Node pos="l" depth="2" NCoef="0" IVar="-1" Cut="0.0000000000000000e+00" cType="1" res="-3.0669551342725754e-02" rms="2.9899555444717407e-01" purity="1.2928248941898346e-01" nType="-99"/>
          <Node pos="r" depth="2" NCoef="0" IVar="-1" Cut="0.0000000000000000e+00" cType="1" res="-6.2303800135850906e-02" rms="1.0419919341802597e-01" purity="1.0387158021330833e-02" nType="-99"/>
        </Node>
      </Node>
    </BinaryTree>
    <BinaryTree type="DecisionTree" boostWeight="1.0000000000000000e+00" itree="11">
      <Node pos="s" depth="0" NCoef="0" IVar="0" Cut="4.6937377929687500e+02" cType="0" res="6.9231679663062096e-03" rms="2.5973394513130188e-01" purity="5.1362341642379761e-01" nType="0">
        <Node pos="l" depth="1" NCoef="0" IVar="0" Cut="5.9850671386718750e+02" cType="0" res="1.5374043583869934e-01" rms="1.7990902066230774e-01" purity="9.5452684164047241e-01" nType="0">
          <Node pos="l" depth="2" NCoef="0" IVar="-1" Cut="0.0000000000000000e+00" cType="1" res="5.3914327174425125e-02" rms="1.0961085557937622e-01" purity="9.8766559362411499e-01" nType="-99"/>
          <Node pos="r" depth="2" NCoef="0" IVar="-1" Cut="0.0000000000000000e+00" cType="1" res="1.1931548826396465e-02" rms="4.4684496521949768e-01" purity="6.6666668653488159e-01" nType="-99"/>
        </Node>
        <Node pos="r" depth="1" NCoef="0" IVar="3" Cut="1.2636399841308594e+02" cType="0" res="-1.3776031136512756e-01" rms="2.4468508362770081e-01" purity="7.9127974808216095e-02" nType="0">
          <Node pos="l" depth="2" NCoef="0" IVar="-1" Cut="0.0000000000000000e+00" cType="1" res="-2.7781296521425247e-03" rms="4.5551511645317078e-01" purity="3.2762837409973145e-01" nType="-99"/>
          <Node pos="r" depth="2" NCoef="0" IVar="-1" Cut="0.0000000000000000e+00" cType="1" res="-5.1948487758636475e-02" rms="1.6366593539714813e-01" purity="2.9980657622218132e-02" nType="-99"/>
        </Node>
      </Node>
    </BinaryTree>
    <BinaryTree type="DecisionTree" boostWeight="1.0000000000000000e+00" itree="12">
      <Node pos="s" depth="0" NCoef="0" IVar="0" Cut="4.2638995361328125e+02" cType="0" res="1.9550379365682602e-03" rms="2.5425416231155396e-01" purity="5.0422537326812744e-01" nType="0">
        <Node pos="l" depth="1" NCoef="0" IVar="0" Cut="5.4221014404296875e+02" cType="0" res="1.3055276870727539e-01" rms="2.0580509305000305e-01" purity="9.2667460441589355e-01" nType="0">
          <Node pos="l" depth="2" NCoef="0" IVar="-1" Cut="0.0000000000000000e+00" cType="1" res="4.9464888870716095e-02" rms="1.4929710328578949e-01" purity="9.7601395845413208e-01" nType="-99"/>
          <Node pos="r" depth="2" NCoef="0" IVar="-1" Cut="0.0000000000000000e+00" cType="1" res="1.5107594663277268e-04" rms="4.7274303436279297e-01" purity="4.3478259444236755e-01" nType="-99"/>
        </Node>
        <Node pos="r" depth="1" NCoef="0" IVar="2" Cut="1.0092941284179688e+02" cType="0" res="-1.3063673675060272e-01" rms="2.3020716011524200e-01" purity="6.8655498325824738e-02" nType="0">
          <Node pos="l" depth="2" NCoef="0" IVar="-1" Cut="0.0000000000000000e+00" cType="1" res="-6.1963456682860851e-03" rms="4.2124661803245544e-01" purity="2.5984251499176025e-01" nType="-99"/>
          <Node pos="r" depth="2" NCoef="0" IVar="-1" Cut="0.0000000000000000e+00" cType="1" res="-5.2963525056838989e-02" rms="1.3061398267745972e-01" purity="1.8566271290183067e-02" nType="-99"/>
        </Node>
      </Node>
    </BinaryTree>
    <BinaryTree type="DecisionTree" boostWeight="1.0000000000000000e+00" itree="13">
      <Node pos="s" depth="0" NCoef="0" IVar="0" Cut="4.6962631225585938e+02" cType="0" res="1.5860846033319831e-03" rms="2.5247564911842346e-01" purity="5.0139945745468140e-01" nType="0">
        <Node pos="l" depth="1" NCoef="0" IVar="3" Cut="1.0396596527099609e+02" cType="0" res="1.2357813864946365e-01" rms="1.9378289580345154e-01" purity="9.5307308435440063e-01" nType="0">
          <Node pos="l" depth="2" NCoef="0" IVar="-1" Cut="0.0000000000000000e+00" cType="1" res="4.6985216438770294e-02" rms="1.7694726586341858e-01" purity="9.6339601278305054e-01" nType="-99"/>
          <Node pos="r" depth="2" NCoef="0" IVar="-1" Cut="0.0000000000000000e+00" cType="1" res="2.9212899506092072e-02" rms="2.5003033876419067e-01" purity="9.0702944993972778e-01" nType="-99"/>
        </Node>
        <Node pos="r" depth="1" NCoef="0" IVar="1" Cut="7.8570449352264404e-01" cType="1" res="-1.1165865510702133e-01" rms="2.4782791733741760e-01" purity="8.2112565636634827e-02" nType="0">
          <Node pos="l" depth="2" NCoef="0" IVar="-1" Cut="0.0000000000000000e+00" cType="1" res="-2.0333666354417801e-02" rms="3.0209106206893921e-01" purity="1.3276836276054382e-01" nType="-99"/>
          <Node pos="r" depth="2" NCoef="0" IVar="-1" Cut="0.0000000000000000e+00" cType="1" res="-5.6078322231769562e-02" rms="1.3611900806427002e-01" purity="2.1222410723567009e-02" nType="-99"/>
        </Node>
      </Node>
    </BinaryTree>
    <BinaryTree type="DecisionTree" boostWeight="1.0000000000000000e+00" itree="14">
      <Node pos="s" depth="0" NCoef="0" IVar="0" Cut="3.1983441162109375e+02" cType="0" res="1.0733152739703655e-03" rms="2.4737477302551270e-01" purity="5.0441235303878784e-01" nType="0">
        <Node pos="l" depth="1" NCoef="0" IVar="0" Cut="5.9136901855468750e+02" cType="0" res="9.3644775450229645e-02" rms="2.5094625353813171e-01" purity="8.5578614473342896e-01" nType="0">
          <Node pos="l" depth="2" NCoef="0" IVar="-1" Cut="0.0000000000000000e+00" cType="1" res="4.9211628735065460e-02" rms="1.5399819612503052e-01" purity="9.7540986537933350e-01" nType="-99"/>
          <Node pos="r" depth="2" NCoef="0" IVar="-1" Cut="0.0000000000000000e+00" cType="1" res="3.5170738119632006e-03" rms="4.3591451644897461e-01" purity="4.4976815581321716e-01" nType="-99"/>
        </Node>
        <Node pos="r" depth="1" NCoef="0" IVar="1" Cut="6.3531130552291870e-01" cType="1" res="-1.2173613160848618e-01" rms="1.7995107173919678e-01" purity="3.8264114409685135e-02" nType="0">
          <Node pos="l" depth="2" NCoef="0" IVar="-1" Cut="0.0000000000000000e+00" cType="1" res="-2.8721945360302925e-02" rms="2.7404063940048218e-01" purity="9.4540610909461975e-02" nType="-99"/>
          <Node pos="r" depth="2" NCoef="0" IVar="-1" Cut="0.0000000000000000e+00" cType="1" res="-5.6512735784053802e-02" rms="8.4517478942871094e-02" purity="7.9022990539669991e-03" nType="-99"/>
        </Node>
      </Node>
    </BinaryTree>
    <BinaryTree type="DecisionTree" boostWeight="1.0000000000000000e+00" itree="15">
      <Node pos="s" depth="0" NCoef="0" IVar="0" Cut="3.1983441162109375e+02" cType="0" res="-9.9037692416459322e-04" rms="2.3804754018783569e-01" purity="4.9937602877616882e-01" nType="0">
        <Node pos="l" depth="1" NCoef="0" IVar="0" Cut="5.9052429199218750e+02" cType="0" res="8.4180042147636414e-02" rms="2.4804668128490448e-01" purity="8.4903603792190552e-01" nType="0">
          <Node pos="l" depth="2" NCoef="0" IVar="-1" Cut="0.0000000000000000e+00" cType="1" res="4.7799456864595413e-02" rms="1.4292654395103455e-01" purity="9.7869318723678589e-01" nType="-99"/>
          <Node pos="r" depth="2" NCoef="0" IVar="-1" Cut="0.0000000000000000e+00" cType="1" res="3.0829771421849728e-03" rms="4.3652698397636414e-01" purity="4.1915228962898254e-01" nType="-99"/>
        </Node>
        <Node pos="r" depth="1" NCoef="0" IVar="2" Cut="1.0174812316894531e+02" cType="0" res="-1.1470261216163635e-01" rms="1.6601772606372833e-01" purity="3.2540068030357361e-02" nType="0">
          <Node pos="l" depth="2" NCoef="0" IVar="-1" Cut="0.0000000000000000e+00" cType="1" res="-1.3196664862334728e-02" rms="3.7773427367210388e-01" purity="1.8702289462089539e-01" nType="-99"/>
          <Node pos="r" depth="2" NCoef="0" IVar="-1" Cut="0.0000000000000000e+00" cType="1" res="-5.1371764391660690e-02" rms="9.8205879330635071e-02" purity="1.0016694664955139e-02" nType="-99"/>
        </Node>
      </Node>
    </BinaryTree>
    <BinaryTree type="DecisionTree" boostWeight="1.0000000000000000e+00" itree="16">
      <Node pos="s" depth="0" NCoef="0" IVar="0" Cut="3.2010095214843750e+02" cType="0" res="2.2079860791563988e-03" rms="2.3054043948650360e-01" purity="5.1046603918075562e-01" nType="0">
        <Node pos="l" depth="1" NCoef="0" IVar="3" Cut="2.0181880187988281e+02" cType="0" res="8.0412589013576508e-02" rms="2.3871684074401855e-01" purity="8.6692017316818237e-01" nType="0">
          <Node pos="l" depth="2" NCoef="0" IVar="-1" Cut="0.0000000000000000e+00" cType="1" res="4.2644534260034561e-02" rms="1.6670057177543640e-01" purity="9.6175909042358398e-01" nType="-99"/>
          <Node pos="r" depth="2" NCoef="0" IVar="-1" Cut="0.0000000000000000e+00" cType="1" res="1.8254527822136879e-02" rms="2.9864963889122009e-01" purity="7.5453174114227295e-01" nType="-99"/>
        </Node>
        <Node pos="r" depth="1" NCoef="0" IVar="1" Cut="5.8744096755981445e-01" cType="1" res="-1.0200478881597519e-01" rms="1.7036972939968109e-01" purity="3.5467527806758881e-02" nType="0">
          <Node pos="l" depth="2" NCoef="0" IVar="-1" Cut="0.0000000000000000e+00" cType="1" res="-1.8076395615935326e-02" rms="2.7234581112861633e-01" purity="9.7201764583587646e-02" nType="-99"/>
          <Node pos="r" depth="2" NCoef="0" IVar="-1" Cut="0.0000000000000000e+00" cType="1" res="-5.4451420903205872e-02" rms="8.0890342593193054e-02" purity="7.3726540431380272e-03" nType="-99"/>
        </Node>
      </Node>
    </BinaryTree>
    <BinaryTree type="DecisionTree" boostWeight="1.0000000000000000e+00" itree="17">
      <Node pos="s" depth="0" NCoef="0" IVar="0" Cut="3.1983441162109375e+02" cType="0" res="5.9321208391338587e-04" rms="2.3936955630779266e-01" purity="5.0699442625045776e-01" nType="0">
        <Node pos="l" depth="1" NCoef="0" IVar="1" Cut="5.6827777624130249e-01" cType="1" res="6.9317623972892761e-02" rms="2.5781077146530151e-01" purity="8.5888928174972534e-01" nType="0">
          <Node pos="l" depth="2" NCoef="0" IVar="-1" Cut="0.0000000000000000e+00" cType="1" res="5.3746622055768967e-02" rms="3.5693013668060303e-01" purity="8.7577641010284424e-01" nType="-99"/>
          <Node pos="r" depth="2" NCoef="0" IVar="-1" Cut="0.0000000000000000e+00" cType="1" res="2.5737302377820015e-02" rms="2.4613325297832489e-01" purity="8.5788303613662720e-01" nType="-99"/>
        </Node>
        <Node pos="r" depth="1" NCoef="0" IVar="1" Cut="5.7142066955566406e-01" cType="1" res="-9.1306827962398529e-02" rms="1.7399966716766357e-01" purity="3.6431573331356049e-02" nType="0">
          <Node pos="l" depth="2" NCoef="0" IVar="-1" Cut="0.0000000000000000e+00" cType="1" res="-1.5928842127323151e-02" rms="2.8746590018272400e-01" purity="1.0310965776443481e-01" nType="-99"/>
          <Node pos="r" depth="2" NCoef="0" IVar="-1" Cut="0.0000000000000000e+00" cType="1" res="-5.2412901073694229e-02" rms="8.8121756911277771e-02" purity="9.8039219155907631e-03" nType="-99"/>
        </Node>
      </Node>
    </BinaryTree>
    <BinaryTree type="DecisionTree" boostWeight="1.0000000000000000e+00" itree="18">
      <Node pos="s" depth="0" NCoef="0" IVar="0" Cut="5.6126470947265625e+02" cType="0" res="-9.8335416987538338e-04" rms="2.3410202562808990e-01" purity="4.9206349253654480e-01" nType="0">
        <Node pos="l" depth="1" NCoef="0" IVar="1" Cut="7.4247455596923828e-01" cType="0" res="8.4993459284305573e-02" rms="1.5167266130447388e-01" purity="9.7568809986114502e-01" nType="0">
          <Node pos="l" depth="2" NCoef="0" IVar="-1" Cut="0.0000000000000000e+00" cType="1" res="4.5760788023471832e-02" rms="1.2943847477436066e-01" purity="9.8234426975250244e-01" nType="-99"/>
          <Node pos="r" depth="2" NCoef="0" IVar="-1" Cut="0.0000000000000000e+00" cType="1" res="2.4286806583404541e-03" rms="3.2328188419342041e-01" purity="8.7943261861801147e-01" nType="-99"/>
        </Node>
        <Node pos="r" depth="1" NCoef="0" IVar="1" Cut="7.3791229724884033e-01" cType="1" res="-6.7994244396686554e-02" rms="2.6331803202629089e-01" purity="1.1512334644794464e-01" nType="0">
          <Node pos="l" depth="2" NCoef="0" IVar="-1" Cut="0.0000000000000000e+00" cType="1" res="-5.6784749031066895e-03" rms="3.0159482359886169e-01" purity="1.5536276996135712e-01" nType="-99"/>
          <Node pos="r" depth="2" NCoef="0" IVar="-1" Cut="0.0000000000000000e+00" cType="1" res="-4.4071655720472336e-02" rms="2.1569521725177765e-01" purity="8.1752777099609375e-02" nType="-99"/>
        </Node>
      </Node>
    </BinaryTree>
    <BinaryTree type="DecisionTree" boostWeight="1.0000000000000000e+00" itree="19">
      <Node pos="s" depth="0" NCoef="0" IVar="0" Cut="2.9630532836914062e+02" cType="0" res="1.4054646017029881e-03" rms="2.3735436797142029e-01" purity="5.0780624151229858e-01" nType="0">
        <Node pos="l" depth="1" NCoef="0" IVar="1" Cut="6.8322497606277466e-01" cType="0" res="5.6790173053741455e-02" rms="2.6424092054367065e-01" purity="8.2562398910522461e-01" nType="0">
          <Node pos="l" depth="2" NCoef="0" IVar="-1" Cut="0.0000000000000000e+00" cType="1" res="2.0471129566431046e-02" rms="2.3184418678283691e-01" purity="8.3605945110321045e-01" nType="-99"/>
          <Node pos="r" depth="2" NCoef="0" IVar="-1" Cut="0.0000000000000000e+00" cType="1" res="4.5877847820520401e-02" rms="4.3756237626075745e-01" purity="7.3650795221328735e-01" nType="-99"/>
        </Node>
        <Node pos="r" depth="1" NCoef="0" IVar="0" Cut="2.6988201904296875e+02" cType="0" res="-8.2186222076416016e-02" rms="1.5609371662139893e-01" purity="2.8126569464802742e-02" nType="0">
          <Node pos="l" depth="2" NCoef="0" IVar="-1" Cut="0.0000000000000000e+00" cType="1" res="7.5333276763558388e-03" rms="3.8423168659210205e-01" purity="2.0863309502601624e-01" nType="-99"/>
          <Node pos="r" depth="2" NCoef="0" IVar="-1" Cut="0.0000000000000000e+00" cType="1" res="-4.6738576143980026e-02" rms="1.1759079247713089e-01" purity="1.4578833244740963e-02" nType="-99"/>
        </Node>
      </Node>
    </BinaryTree>
    <BinaryTree type="DecisionTree" boostWeight="1.0000000000000000e+00" itree="20">
      <Node pos="s" depth="0" NCoef="0" IVar="0" Cut="5.7227301025390625e+02" cType="0" res="1.1232534889131784e-03" rms="2.2644363343715668e-01" purity="5.1134794950485229e-01" nType="0">
        <Node pos="l" depth="1" NCoef="0" IVar="1" Cut="9.3706679344177246e-01" cType="0" res="7.2559170424938202e-02" rms="1.4816892147064209e-01" purity="9.7720432281494141e-01" nType="0">
          <Node pos="l" depth="2" NCoef="0" IVar="-1" Cut="0.0000000000000000e+00" cType="1" res="4.5839421451091766e-02" rms="1.1592774838209152e-01" purity="9.8617732524871826e-01" nType="-99"/>
          <Node pos="r" depth="2" NCoef="0" IVar="-1" Cut="0.0000000000000000e+00" cType="1" res="8.6535355076193810e-03" rms="3.0766257643699646e-01" purity="8.9427310228347778e-01" nType="-99"/>
        </Node>
        <Node pos="r" depth="1" NCoef="0" IVar="1" Cut="7.4895727634429932e-01" cType="1" res="-5.9448774904012680e-02" rms="2.6104417443275452e-01" purity="1.1633843928575516e-01" nType="0">
          <Node pos="l" depth="2" NCoef="0" IVar="-1" Cut="0.0000000000000000e+00" cType="1" res="-3.7824879400432110e-03" rms="3.0317097902297974e-01" purity="1.5768621861934662e-01" nType="-99"/>
          <Node pos="r" depth="2" NCoef="0" IVar="-1" Cut="0.0000000000000000e+00" cType="1" res="-4.2867716401815414e-02" rms="2.0736359059810638e-01" purity="8.1081077456474304e-02" nType="-99"/>
        </Node>
      </Node>
    </BinaryTree>
    <BinaryTree type="DecisionTree" boostWeight="1.0000000000000000e+00" itree="21">
      <Node pos="s" depth="0" NCoef="0" IVar="0" Cut="2.9101016235351562e+02" cType="0" res="7.3743256507441401e-04" rms="2.2338463366031647e-01" purity="5.0639289617538452e-01" nType="0">
        <Node pos="l" depth="1" NCoef="0" IVar="1" Cut="6.8322497606277466e-01" cType="0" res="4.9276668578386307e-02" rms="2.4997018277645111e-01" purity="8.2432430982589722e-01" nType="0">
          <Node pos="l" depth="2" NCoef="0" IVar="-1" Cut="0.0000000000000000e+00" cType="1" res="1.7980566248297691e-02" rms="2.2332878410816193e-01" purity="8.3125668764114380e-01" nType="-99"/>
          <Node pos="r" depth="2" NCoef="0" IVar="-1" Cut="0.0000000000000000e+00" cType="1" res="4.2330890893936157e-02" rms="4.0633338689804077e-01" purity="7.5919729471206665e-01" nType="-99"/>
        </Node>
        <Node pos="r" depth="1" NCoef="0" IVar="0" Cut="2.1323851013183594e+02" cType="0" res="-7.2709478437900543e-02" rms="1.4798370003700256e-01" purity="2.5316456332802773e-02" nType="0">
          <Node pos="l" depth="2" NCoef="0" IVar="-1" Cut="0.0000000000000000e+00" cType="1" res="-8.3761466667056084e-03" rms="2.8171491622924805e-01" purity="9.9557518959045410e-02" nType="-99"/>
          <Node pos="r" depth="2" NCoef="0" IVar="-1" Cut="0.0000000000000000e+00" cType="1" res="-5.1574457436800003e-02" rms="6.7685931921005249e-02" purity="4.3695382773876190e-03" nType="-99"/>
        </Node>
      </Node>
    </BinaryTree>
    <BinaryTree type="DecisionTree" boostWeight="1.0000000000000000e+00" itree="22">
      <Node pos="s" depth="0" NCoef="0" IVar="0" Cut="2.9101016235351562e+02" cType="0" res="4.5354203321039677e-03" rms="2.2129236161708832e-01" purity="5.0506252050399780e-01" nType="0">
        <Node pos="l" depth="1" NCoef="0" IVar="1" Cut="6.1764878034591675e-01" cType="0" res="5.0539970397949219e-02" rms="2.4614953994750977e-01" purity="8.3411687612533569e-01" nType="0">
          <Node pos="l" depth="2" NCoef="0" IVar="-1" Cut="0.0000000000000000e+00" cType="1" res="1.6509395092725754e-02" rms="2.2267985343933105e-01" purity="8.3655601739883423e-01" nType="-99"/>
          <Node pos="r" depth="2" NCoef="0" IVar="-1" Cut="0.0000000000000000e+00" cType="1" res="4.4820558279752731e-02" rms="4.0136924386024475e-01" purity="8.0590718984603882e-01" nType="-99"/>
        </Node>
        <Node pos="r" depth="1" NCoef="0" IVar="0" Cut="2.0084275817871094e+02" cType="0" res="-6.2002483755350113e-02" rms="1.5708792209625244e-01" purity="2.9140358790755272e-02" nType="0">
          <Node pos="l" depth="2" NCoef="0" IVar="-1" Cut="0.0000000000000000e+00" cType="1" res="-1.0117985308170319e-02" rms="2.9116266965866089e-01" purity="1.0769230872392654e-01" nType="-99"/>
          <Node pos="r" depth="2" NCoef="0" IVar="-1" Cut="0.0000000000000000e+00" cType="1" res="-5.2012521773576736e-02" rms="5.3354054689407349e-02" purity="2.5990903377532959e-03" nType="-99"/>
        </Node>
      </Node>
    </BinaryTree>
    <BinaryTree type="DecisionTree" boostWeight="1.0000000000000000e+00" itree="23">
      <Node pos="s" depth="0" NCoef="0" IVar="0" Cut="5.6126470947265625e+02" cType="0" res="3.0260903295129538e-03" rms="2.2015336155891418e-01" purity="5.0981169939041138e-01" nType="0">
        <Node pos="l" depth="1" NCoef="0" IVar="1" Cut="7.4247455596923828e-01" cType="0" res="6.1257589608430862e-02" rms="1.4313277602195740e-01" purity="9.7760552167892456e-01" nType="0">
          <Node pos="l" depth="2" NCoef="0" IVar="-1" Cut="0.0000000000000000e+00" cType="1" res="4.1506789624691010e-02" rms="1.2417743355035782e-01" purity="9.8331791162490845e-01" nType="-99"/>
          <Node pos="r" depth="2" NCoef="0" IVar="-1" Cut="0.0000000000000000e+00" cType="1" res="-1.1131105944514275e-02" rms="2.8673964738845825e-01" purity="9.0243899822235107e-01" nType="-99"/>
        </Node>
        <Node pos="r" depth="1" NCoef="0" IVar="1" Cut="7.1793174743652344e-01" cType="1" res="-4.6630002558231354e-02" rms="2.5878605246543884e-01" purity="1.1090708523988724e-01" nType="0">
          <Node pos="l" depth="2" NCoef="0" IVar="-1" Cut="0.0000000000000000e+00" cType="1" res="-3.3105022157542408e-04" rms="3.1017780303955078e-01" purity="1.6622222959995270e-01" nType="-99"/>
          <Node pos="r" depth="2" NCoef="0" IVar="-1" Cut="0.0000000000000000e+00" cType="1" res="-3.7794969975948334e-02" rms="2.0591798424720764e-01" purity="7.1964956820011139e-02" nType="-99"/>
        </Node>
      </Node>
    </BinaryTree>
    <BinaryTree type="DecisionTree" boostWeight="1.0000000000000000e+00" itree="24">
      <Node pos="s" depth="0" NCoef="0" IVar="3" Cut="1.2728908538818359e+02" cType="0" res="-2.9876381158828735e-03" rms="2.1307514607906342e-01" purity="4.9184566736221313e-01" nType="0">
        <Node pos="l" depth="1" NCoef="0" IVar="1" Cut="6.5252941846847534e-01" cType="0" res="5.5324982851743698e-02" rms="2.5041940808296204e-01" purity="8.4557187557220459e-01" nType="0">
          <Node pos="l" depth="2" NCoef="0" IVar="-1" Cut="0.0000000000000000e+00" cType="1" res="1.9788742065429688e-02" rms="2.2514308989048004e-01" purity="8.5292696952819824e-01" nType="-99"/>
          <Node pos="r" depth="2" NCoef="0" IVar="-1" Cut="0.0000000000000000e+00" cType="1" res="6.6111139953136444e-02" rms="4.0292045474052429e-01" purity="7.6111114025115967e-01" nType="-99"/>
        </Node>
        <Node pos="r" depth="1" NCoef="0" IVar="0" Cut="6.6178417968750000e+02" cType="0" res="-5.0103228539228439e-02" rms="1.6262976825237274e-01" purity="2.0604099333286285e-01" nType="0">
          <Node pos="l" depth="2" NCoef="0" IVar="-1" Cut="0.0000000000000000e+00" cType="1" res="3.4986943006515503e-02" rms="1.5537062287330627e-01" purity="9.7500002384185791e-01" nType="-99"/>
          <Node pos="r" depth="2" NCoef="0" IVar="-1" Cut="0.0000000000000000e+00" cType="1" res="-3.7795662879943848e-02" rms="1.5568110346794128e-01" purity="4.5632332563400269e-02" nType="-99"/>
        </Node>
      </Node>
    </BinaryTree>
    <BinaryTree type="DecisionTree" boostWeight="1.0000000000000000e+00" itree="25">
      <Node pos="s" depth="0" NCoef="0" IVar="2" Cut="9.1142570495605469e+01" cType="0" res="-1.7514633946120739e-03" rms="2.1893590688705444e-01" purity="4.9013805389404297e-01" nType="0">
        <Node pos="l" depth="1" NCoef="0" IVar="1" Cut="5.7626813650131226e-01" cType="0" res="4.1382391005754471e-02" rms="2.5337907671928406e-01" purity="7.5261074304580688e-01" nType="0">
          <Node pos="l" depth="2" NCoef="0" IVar="-1" Cut="0.0000000000000000e+00" cType="1" res="1.2580390088260174e-02" rms="2.3117622733116150e-01" purity="7.6556921005249023e-01" nType="-99"/>
          <Node pos="r" depth="2" NCoef="0" IVar="-1" Cut="0.0000000000000000e+00" cType="1" res="7.4882172048091888e-02" rms="3.7776741385459900e-01" purity="6.2500000000000000e-01" nType="-99"/>
        </Node>
        <Node pos="r" depth="1" NCoef="0" IVar="0" Cut="5.7185504150390625e+02" cType="0" res="-5.3989890962839127e-02" rms="1.5247622132301331e-01" purity="1.7226341366767883e-01" nType="0">
          <Node pos="l" depth="2" NCoef="0" IVar="-1" Cut="0.0000000000000000e+00" cType="1" res="2.0285915583372116e-02" rms="2.3667965829372406e-01" purity="9.3814432621002197e-01" nType="-99"/>
          <Node pos="r" depth="2" NCoef="0" IVar="-1" Cut="0.0000000000000000e+00" cType="1" res="-4.6024370938539505e-02" rms="1.2410721182823181e-01" purity="1.6272965818643570e-02" nType="-99"/>
        </Node>
      </Node>
    </BinaryTree>
    <BinaryTree type="DecisionTree" boostWeight="1.0000000000000000e+00" itree="26">
      <Node pos="s" depth="0" NCoef="0" IVar="0" Cut="4.2613742065429688e+02" cType="0" res="2.8690351173281670e-03" rms="2.1258838474750519e-01" purity="5.0662446022033691e-01" nType="0">
        <Node pos="l" depth="1" NCoef="0" IVar="0" Cut="6.5983471679687500e+02" cType="0" res="4.7335654497146606e-02" rms="2.0080628991127014e-01" purity="9.3561053276062012e-01" nType="0">
          <Node pos="l" depth="2" NCoef="0" IVar="-1" Cut="0.0000000000000000e+00" cType="1" res="4.3740209192037582e-02" rms="1.0604177415370941e-01" purity="9.8857140541076660e-01" nType="-99"/>
          <Node pos="r" depth="2" NCoef="0" IVar="-1" Cut="0.0000000000000000e+00" cType="1" res="-3.1444365158677101e-03" rms="3.5907611250877380e-01" purity="7.7170419692993164e-01" nType="-99"/>
        </Node>
        <Node pos="r" depth="1" NCoef="0" IVar="1" Cut="7.3237204551696777e-01" cType="1" res="-4.2253065854310989e-02" rms="2.1469478309154510e-01" purity="7.1314744651317596e-02" nType="0">
          <Node pos="l" depth="2" NCoef="0" IVar="-1" Cut="0.0000000000000000e+00" cType="1" res="-1.4165450120344758e-03" rms="2.6931408047676086e-01" purity="1.2478335946798325e-01" nType="-99"/>
          <Node pos="r" depth="2" NCoef="0" IVar="-1" Cut="0.0000000000000000e+00" cType="1" res="-4.5574918389320374e-02" rms="1.4627620577812195e-01" purity="2.5811210274696350e-02" nType="-99"/>
        </Node>
      </Node>
    </BinaryTree>
    <BinaryTree type="DecisionTree" boostWeight="1.0000000000000000e+00" itree="27">
      <Node pos="s" depth="0" NCoef="0" IVar="0" Cut="6.1928576660156250e+02" cType="0" res="-1.2547820806503296e-03" rms="2.1146173775196075e-01" purity="4.9345871806144714e-01" nType="0">
        <Node pos="l" depth="1" NCoef="0" IVar="1" Cut="7.5937318801879883e-01" cType="0" res="5.1083873957395554e-02" rms="1.1589225381612778e-01" purity="9.8613172769546509e-01" nType="0">
          <Node pos="l" depth="2" NCoef="0" IVar="-1" Cut="0.0000000000000000e+00" cType="1" res="4.3023407459259033e-02" rms="9.6602305769920349e-02" purity="9.9050134420394897e-01" nType="-99"/>
          <Node pos="r" depth="2" NCoef="0" IVar="-1" Cut="0.0000000000000000e+00" cType="1" res="-7.3712291195988655e-03" rms="2.6895123720169067e-01" purity="9.1935485601425171e-01" nType="-99"/>
        </Node>
        <Node pos="r" depth="1" NCoef="0" IVar="1" Cut="5.1917320489883423e-01" cType="1" res="-3.8035757839679718e-02" rms="2.5184068083763123e-01" purity="1.4723286032676697e-01" nType="0">
          <Node pos="l" depth="2" NCoef="0" IVar="-1" Cut="0.0000000000000000e+00" cType="1" res="1.4350870624184608e-02" rms="3.2967314124107361e-01" purity="1.7827868461608887e-01" nType="-99"/>
          <Node pos="r" depth="2" NCoef="0" IVar="-1" Cut="0.0000000000000000e+00" cType="1" res="-2.4151077494025230e-02" rms="2.2996330261230469e-01" purity="1.4088051021099091e-01" nType="-99"/>
        </Node>
      </Node>
    </BinaryTree>
    <BinaryTree type="DecisionTree" boostWeight="1.0000000000000000e+00" itree="28">
      <Node pos="s" depth="0" NCoef="0" IVar="2" Cut="1.0437682342529297e+02" cType="0" res="3.1491424888372421e-03" rms="2.1724741160869598e-01" purity="5.1754921674728394e-01" nType="0">
        <Node pos="l" depth="1" NCoef="0" IVar="1" Cut="7.8721755743026733e-01" cType="0" res="4.4660001993179321e-02" rms="2.4008500576019287e-01" purity="8.2608693838119507e-01" nType="0">
          <Node pos="l" depth="2" NCoef="0" IVar="-1" Cut="0.0000000000000000e+00" cType="1" res="1.2339628301560879e-02" rms="1.9337758421897888e-01" purity="8.5728251934051514e-01" nType="-99"/>
          <Node pos="r" depth="2" NCoef="0" IVar="-1" Cut="0.0000000000000000e+00" cType="1" res="4.1899796575307846e-02" rms="3.8541275262832642e-01" purity="6.6326528787612915e-01" nType="-99"/>
        </Node>
        <Node pos="r" depth="1" NCoef="0" IVar="0" Cut="7.1083203125000000e+02" cType="0" res="-3.7478506565093994e-02" rms="1.8340446054935455e-01" purity="2.1557606756687164e-01" nType="0">
          <Node pos="l" depth="2" NCoef="0" IVar="-1" Cut="0.0000000000000000e+00" cType="1" res="2.4154588580131531e-02" rms="1.8982133269309998e-01" purity="9.6220928430557251e-01" nType="-99"/>
          <Node pos="r" depth="2" NCoef="0" IVar="-1" Cut="0.0000000000000000e+00" cType="1" res="-3.2829750329256058e-02" rms="1.8048202991485596e-01" purity="9.5947831869125366e-02" nType="-99"/>
        </Node>
      </Node>
    </BinaryTree>
    <BinaryTree type="DecisionTree" boostWeight="1.0000000000000000e+00" itree="29">
      <Node pos="s" depth="0" NCoef="0" IVar="3" Cut="1.4949797058105469e+02" cType="0" res="-2.3441629018634558e-03" rms="2.1075928211212158e-01" purity="4.9960690736770630e-01" nType="0">
        <Node pos="l" depth="1" NCoef="0" IVar="1" Cut="7.8336274623870850e-01" cType="0" res="4.8916876316070557e-02" rms="2.2677661478519440e-01" purity="9.0404564142227173e-01" nType="0">
          <Node pos="l" depth="2" NCoef="0" IVar="-1" Cut="0.0000000000000000e+00" cType="1" res="2.0222673192620277e-02" rms="2.0678067207336426e-01" purity="9.0617847442626953e-01" nType="-99"/>
          <Node pos="r" depth="2" NCoef="0" IVar="-1" Cut="0.0000000000000000e+00" cType="1" res="4.8355180770158768e-02" rms="3.2119157910346985e-01" purity="8.8333332538604736e-01" nType="-99"/>
        </Node>
        <Node pos="r" depth="1" NCoef="0" IVar="0" Cut="6.1933117675781250e+02" cType="0" res="-3.3619884401559830e-02" rms="1.9380973279476166e-01" purity="2.5284808874130249e-01" nType="0">
          <Node pos="l" depth="2" NCoef="0" IVar="-1" Cut="0.0000000000000000e+00" cType="1" res="2.3659493774175644e-02" rms="1.8643437325954437e-01" purity="9.6318113803863525e-01" nType="-99"/>
          <Node pos="r" depth="2" NCoef="0" IVar="-1" Cut="0.0000000000000000e+00" cType="1" res="-2.7041180059313774e-02" rms="1.9279190897941589e-01" purity="5.8444175869226456e-02" nType="-99"/>
        </Node>
      </Node>
    </BinaryTree>
    <BinaryTree type="DecisionTree" boostWeight="1.0000000000000000e+00" itree="30">
      <Node pos="s" depth="0" NCoef="0" IVar="0" Cut="4.6937377929687500e+02" cType="0" res="-1.4847975689917803e-03" rms="2.1217852830886841e-01" purity="5.0321799516677856e-01" nType="0">
        <Node pos="l" depth="1" NCoef="0" IVar="1" Cut="1.3806118965148926e+00" cType="1" res="3.3953208476305008e-02" rms="1.9591607153415680e-01" purity="9.4503688812255859e-01" nType="0">
          <Node pos="l" depth="2" NCoef="0" IVar="-1" Cut="0.0000000000000000e+00" cType="1" res="2.5616681203246117e-02" rms="1.7803569138050079e-01" purity="9.5626425743103027e-01" nType="-99"/>
          <Node pos="r" depth="2" NCoef="0" IVar="-1" Cut="0.0000000000000000e+00" cType="1" res="-6.4965505152940750e-03" rms="2.9787027835845947e-01" purity="8.4362137317657471e-01" nType="-99"/>
        </Node>
        <Node pos="r" depth="1" NCoef="0" IVar="1" Cut="5.0514829158782959e-01" cType="1" res="-3.5580243915319443e-02" rms="2.2143656015396118e-01" purity="7.8137330710887909e-02" nType="0">
          <Node pos="l" depth="2" NCoef="0" IVar="-1" Cut="0.0000000000000000e+00" cType="1" res="2.0701175555586815e-02" rms="3.0801883339881897e-01" purity="1.5065501630306244e-01" nType="-99"/>
          <Node pos="r" depth="2" NCoef="0" IVar="-1" Cut="0.0000000000000000e+00" cType="1" res="-2.6296146214008331e-02" rms="1.9392862915992737e-01" purity="6.2138728797435760e-02" nType="-99"/>
        </Node>
      </Node>
    </BinaryTree>
    <BinaryTree type="DecisionTree" boostWeight="1.0000000000000000e+00" itree="31">
      <Node pos="s" depth="0" NCoef="0" IVar="0" Cut="2.7707727050781250e+02" cType="0" res="1.9169281003996730e-03" rms="2.0815655589103699e-01" purity="5.0307357311248779e-01" nType="0">
        <Node pos="l" depth="1" NCoef="0" IVar="1" Cut="6.2484055757522583e-01" cType="0" res="2.9308449476957321e-02" rms="2.4299001693725586e-01" purity="8.2057178020477295e-01" nType="0">
          <Node pos="l" depth="2" NCoef="0" IVar="-1" Cut="0.0000000000000000e+00" cType="1" res="9.3308091163635254e-03" rms="2.1816991269588470e-01" purity="8.2646107673645020e-01" nType="-99"/>
          <Node pos="r" depth="2" NCoef="0" IVar="-1" Cut="0.0000000000000000e+00" cType="1" res="4.0847420692443848e-02" rms="4.1598320007324219e-01" purity="7.5590550899505615e-01" nType="-99"/>
        </Node>
        <Node pos="r" depth="1" NCoef="0" IVar="0" Cut="1.9139575195312500e+02" cType="0" res="-3.9759270846843719e-02" rms="1.2860913574695587e-01" purity="1.9999999552965164e-02" nType="0">
          <Node pos="l" depth="2" NCoef="0" IVar="-1" Cut="0.0000000000000000e+00" cType="1" res="-2.1223309449851513e-03" rms="2.3139561712741852e-01" purity="6.9418385624885559e-02" nType="-99"/>
          <Node pos="r" depth="2" NCoef="0" IVar="-1" Cut="0.0000000000000000e+00" cType="1" res="-5.0637796521186829e-02" rms="4.9265850335359573e-02" purity="2.0449897274374962e-03" nType="-99"/>
        </Node>
      </Node>
    </BinaryTree>
    <BinaryTree type="DecisionTree" boostWeight="1.0000000000000000e+00" itree="32">
      <Node pos="s" depth="0" NCoef="0" IVar="0" Cut="5.6254193115234375e+02" cType="0" res="-3.3964507747441530e-03" rms="2.0798470079898834e-01" purity="4.9881142377853394e-01" nType="0">
        <Node pos="l" depth="1" NCoef="0" IVar="1" Cut="9.5577019453048706e-01" cType="0" res="3.1468819826841354e-02" rms="1.5110887587070465e-01" purity="9.7473865747451782e-01" nType="0">
          <Node pos="l" depth="2" NCoef="0" IVar="-1" Cut="0.0000000000000000e+00" cType="1" res="3.6566965281963348e-02" rms="1.2735880911350250e-01" purity="9.8249030113220215e-01" nType="-99"/>
          <Node pos="r" depth="2" NCoef="0" IVar="-1" Cut="0.0000000000000000e+00" cType="1" res="-2.5942951440811157e-02" rms="2.7605584263801575e-01" purity="9.0833336114883423e-01" nType="-99"/>
        </Node>
        <Node pos="r" depth="1" NCoef="0" IVar="1" Cut="5.2623885869979858e-01" cType="1" res="-3.2484628260135651e-02" rms="2.4173730611801147e-01" purity="1.0174418240785599e-01" nType="0">
          <Node pos="l" depth="2" NCoef="0" IVar="-1" Cut="0.0000000000000000e+00" cType="1" res="1.7971394583582878e-02" rms="3.4102028608322144e-01" purity="1.9691120088100433e-01" nType="-99"/>
          <Node pos="r" depth="2" NCoef="0" IVar="-1" Cut="0.0000000000000000e+00" cType="1" res="-2.2716183215379715e-02" rms="2.0641119778156281e-01" purity="7.9677708446979523e-02" nType="-99"/>
        </Node>
      </Node>
    </BinaryTree>
    <BinaryTree type="DecisionTree" boostWeight="1.0000000000000000e+00" itree="33">
      <Node pos="s" depth="0" NCoef="0" IVar="0" Cut="2.4349386596679688e+02" cType="0" res="7.1674512582831085e-05" rms="2.1176747977733612e-01" purity="4.8346108198165894e-01" nType="0">
        <Node pos="l" depth="1" NCoef="0" IVar="1" Cut="5.7884615659713745e-01" cType="1" res="2.4333585053682327e-02" rms="2.5238013267517090e-01" purity="7.5555557012557983e-01" nType="0">
          <Node pos="l" depth="2" NCoef="0" IVar="-1" Cut="0.0000000000000000e+00" cType="1" res="5.3007468581199646e-02" rms="4.1689079999923706e-01" purity="7.5708502531051636e-01" nType="-99"/>
          <Node pos="r" depth="2" NCoef="0" IVar="-1" Cut="0.0000000000000000e+00" cType="1" res="6.4661204814910889e-03" rms="2.2740207612514496e-01" purity="7.5542539358139038e-01" nType="-99"/>
        </Node>
        <Node pos="r" depth="1" NCoef="0" IVar="0" Cut="1.7980139160156250e+02" cType="0" res="-4.2198799550533295e-02" rms="9.5870219171047211e-02" purity="9.4026550650596619e-03" nType="0">
          <Node pos="l" depth="2" NCoef="0" IVar="-1" Cut="0.0000000000000000e+00" cType="1" res="-1.6754351556301117e-02" rms="1.6986905038356781e-01" purity="3.1602710485458374e-02" nType="-99"/>
          <Node pos="r" depth="2" NCoef="0" IVar="-1" Cut="0.0000000000000000e+00" cType="1" res="-5.1035005599260330e-02" rms="5.1930058747529984e-02" purity="2.1978022996336222e-03" nType="-99"/>
        </Node>
      </Node>
    </BinaryTree>
    <BinaryTree type="DecisionTree" boostWeight="1.0000000000000000e+00" itree="34">
      <Node pos="s" depth="0" NCoef="0" IVar="2" Cut="1.1632350921630859e+02" cType="0" res="-3.9679026231169701e-03" rms="2.1578122675418854e-01" purity="4.9161008000373840e-01" nType="0">
        <Node pos="l" depth="1" NCoef="0" IVar="1" Cut="8.1036770343780518e-01" cType="0" res="2.8814692050218582e-02" rms="2.4436986446380615e-01" purity="8.4160220623016357e-01" nType="0">
          <Node pos="l" depth="2" NCoef="0" IVar="-1" Cut="0.0000000000000000e+00" cType="1" res="1.0365337133407593e-02" rms="2.0342077314853668e-01" purity="8.6578249931335449e-01" nType="-99"/>
          <Node pos="r" depth="2" NCoef="0" IVar="-1" Cut="0.0000000000000000e+00" cType="1" res="3.8473874330520630e-02" rms="3.9655038714408875e-01" purity="6.9551283121109009e-01" nType="-99"/>
        </Node>
        <Node pos="r" depth="1" NCoef="0" IVar="0" Cut="6.8918078613281250e+02" cType="0" res="-2.9608117416501045e-02" rms="1.8647944927215576e-01" purity="2.1787112951278687e-01" nType="0">
          <Node pos="l" depth="2" NCoef="0" IVar="-1" Cut="0.0000000000000000e+00" cType="1" res="2.1182466298341751e-02" rms="1.7218761146068573e-01" purity="9.6888887882232666e-01" nType="-99"/>
          <Node pos="r" depth="2" NCoef="0" IVar="-1" Cut="0.0000000000000000e+00" cType="1" res="-2.6324238628149033e-02" rms="1.8769557774066925e-01" purity="7.4607886373996735e-02" nType="-99"/>
        </Node>
      </Node>
    </BinaryTree>
    <BinaryTree type="DecisionTree" boostWeight="1.0000000000000000e+00" itree="35">
      <Node pos="s" depth="0" NCoef="0" IVar="3" Cut="1.4390536499023438e+02" cType="0" res="-2.8849097434431314e-03" rms="2.0573627948760986e-01" purity="4.9577686190605164e-01" nType="0">
        <Node pos="l" depth="1" NCoef="0" IVar="1" Cut="9.7828465700149536e-01" cType="0" res="3.3387575298547745e-02" rms="2.3056238889694214e-01" purity="8.9242053031921387e-01" nType="0">
          <Node pos="l" depth="2" NCoef="0" IVar="-1" Cut="0.0000000000000000e+00" cType="1" res="1.4884329400956631e-02" rms="1.7509298026561737e-01" purity="9.2113006114959717e-01" nType="-99"/>
          <Node pos="r" depth="2" NCoef="0" IVar="-1" Cut="0.0000000000000000e+00" cType="1" res="2.7815725654363632e-02" rms="3.9228576421737671e-01" purity="7.5144511461257935e-01" nType="-99"/>
        </Node>
        <Node pos="r" depth="1" NCoef="0" IVar="0" Cut="6.6178417968750000e+02" cType="0" res="-2.7237253263592720e-02" rms="1.8324580788612366e-01" purity="2.2948127985000610e-01" nType="0">
          <Node pos="l" depth="2" NCoef="0" IVar="-1" Cut="0.0000000000000000e+00" cType="1" res="2.2834246978163719e-02" rms="1.6655549407005310e-01" purity="9.7106689214706421e-01" nType="-99"/>
          <Node pos="r" depth="2" NCoef="0" IVar="-1" Cut="0.0000000000000000e+00" cType="1" res="-2.4183159694075584e-02" rms="1.8515940010547638e-01" purity="6.4981952309608459e-02" nType="-99"/>
        </Node>
      </Node>
    </BinaryTree>
    <BinaryTree type="DecisionTree" boostWeight="1.0000000000000000e+00" itree="36">
      <Node pos="s" depth="0" NCoef="0" IVar="1" Cut="1.4585205316543579e+00" cType="1" res="4.6675917692482471e-03" rms="2.1260142326354980e-01" purity="5.0122547149658203e-01" nType="0">
        <Node pos="l" depth="1" NCoef="0" IVar="2" Cut="9.3959808349609375e+01" cType="0" res="1.0668973438441753e-02" rms="2.0978789031505585e-01" purity="5.1272648572921753e-01" nType="0">
          <Node pos="l" depth="2" NCoef="0" IVar="-1" Cut="0.0000000000000000e+00" cType="1" res="1.6809634864330292e-02" rms="2.4646818637847900e-01" purity="7.8276550769805908e-01" nType="-99"/>
          <Node pos="r" depth="2" NCoef="0" IVar="-1" Cut="0.0000000000000000e+00" cType="1" res="-2.5488415732979774e-02" rms="1.5111322700977325e-01" purity="1.9803829491138458e-01" nType="-99"/>
        </Node>
        <Node pos="r" depth="1" NCoef="0" IVar="0" Cut="3.0321145629882812e+02" cType="0" res="-1.0234166681766510e-01" rms="2.3301596939563751e-01" purity="2.9615384340286255e-01" nType="0">
          <Node pos="l" depth="2" NCoef="0" IVar="-1" Cut="0.0000000000000000e+00" cType="1" res="-6.2723144888877869e-02" rms="3.1478238105773926e-01" purity="5.7894736528396606e-01" nType="-99"/>
          <Node pos="r" depth="2" NCoef="0" IVar="-1" Cut="0.0000000000000000e+00" cType="1" res="-5.3455017507076263e-02" rms="3.6267116665840149e-02" purity="0.0000000000000000e+00" nType="-99"/>
        </Node>
      </Node>
    </BinaryTree>
    <BinaryTree type="DecisionTree" boostWeight="1.0000000000000000e+00" itree="37">
      <Node pos="s" depth="0" NCoef="0" IVar="3" Cut="2.7523849487304688e+02" cType="0" res="-1.8392996862530708e-03" rms="2.1243578195571899e-01" purity="5.0442475080490112e-01" nType="0">
        <Node pos="l" depth="1" NCoef="0" IVar="0" Cut="6.2642846679687500e+02" cType="0" res="4.7775894403457642e-02" rms="1.0620578378438950e-01" purity="9.8887765407562256e-01" nType="0">
          <Node pos="l" depth="2" NCoef="0" IVar="-1" Cut="0.0000000000000000e+00" cType="1" res="4.3386563658714294e-02" rms="6.8715415894985199e-02" purity="9.9524939060211182e-01" nType="-99"/>
          <Node pos="r" depth="2" NCoef="0" IVar="-1" Cut="0.0000000000000000e+00" cType="1" res="3.0477264896035194e-02" rms="2.1558073163032532e-01" purity="9.5238095521926880e-01" nType="-99"/>
        </Node>
        <Node pos="r" depth="1" NCoef="0" IVar="1" Cut="6.3024830818176270e-01" cType="0" res="-1.4159015379846096e-02" rms="2.2971917688846588e-01" purity="3.8413256406784058e-01" nType="0">
          <Node pos="l" depth="2" NCoef="0" IVar="-1" Cut="0.0000000000000000e+00" cType="1" res="-1.5058768913149834e-02" rms="2.0580364763736725e-01" purity="4.2160052061080933e-01" nType="-99"/>
          <Node pos="r" depth="2" NCoef="0" IVar="-1" Cut="0.0000000000000000e+00" cType="1" res="1.1740280315279961e-02" rms="2.9264530539512634e-01" purity="2.5742575526237488e-01" nType="-99"/>
        </Node>
      </Node>
    </BinaryTree>
    <BinaryTree type="DecisionTree" boostWeight="1.0000000000000000e+00" itree="38">
      <Node pos="s" depth="0" NCoef="0" IVar="2" Cut="9.0533744812011719e+01" cType="0" res="1.1273971904302016e-04" rms="2.1327227354049683e-01" purity="4.9929422140121460e-01" nType="0">
        <Node pos="l" depth="1" NCoef="0" IVar="1" Cut="5.7234394550323486e-01" cType="0" res="1.8986288458108902e-02" rms="2.4825616180896759e-01" purity="7.3510408401489258e-01" nType="0">
          <Node pos="l" depth="2" NCoef="0" IVar="-1" Cut="0.0000000000000000e+00" cType="1" res="5.0434209406375885e-03" rms="2.2064869105815887e-01" purity="7.4783635139465332e-01" nType="-99"/>
          <Node pos="r" depth="2" NCoef="0" IVar="-1" Cut="0.0000000000000000e+00" cType="1" res="5.8786962181329727e-02" rms="4.2568767070770264e-01" purity="6.0245901346206665e-01" nType="-99"/>
        </Node>
        <Node pos="r" depth="1" NCoef="0" IVar="3" Cut="3.5117885589599609e+01" cType="1" res="-2.4085009470582008e-02" rms="1.5408439934253693e-01" purity="1.9696272909641266e-01" nType="0">
          <Node pos="l" depth="2" NCoef="0" IVar="-1" Cut="0.0000000000000000e+00" cType="1" res="5.3698871284723282e-02" rms="2.5540646910667419e-01" purity="6.5492957830429077e-01" nType="-99"/>
          <Node pos="r" depth="2" NCoef="0" IVar="-1" Cut="0.0000000000000000e+00" cType="1" res="-3.4165039658546448e-02" rms="1.4156724512577057e-01" purity="1.6494338214397430e-01" nType="-99"/>
        </Node>
      </Node>
    </BinaryTree>
    <BinaryTree type="DecisionTree" boostWeight="1.0000000000000000e+00" itree="39">
      <Node pos="s" depth="0" NCoef="0" IVar="1" Cut="1.4740902185440063e+00" cType="1" res="-2.2150818258523941e-03" rms="2.1027708053588867e-01" purity="5.0396037101745605e-01" nType="0">
        <Node pos="l" depth="1" NCoef="0" IVar="2" Cut="9.0753890991210938e+01" cType="0" res="2.4822866544127464e-03" rms="2.0714734494686127e-01" purity="5.1361465454101562e-01" nType="0">
          <Node pos="l" depth="2" NCoef="0" IVar="-1" Cut="0.0000000000000000e+00" cType="1" res="1.4394332654774189e-02" rms="2.4515461921691895e-01" purity="7.6277375221252441e-01" nType="-99"/>
          <Node pos="r" depth="2" NCoef="0" IVar="-1" Cut="0.0000000000000000e+00" cType="1" res="-2.4518925696611404e-02" rms="1.3765804469585419e-01" purity="1.8396909534931183e-01" nType="-99"/>
        </Node>
        <Node pos="r" depth="1" NCoef="0" IVar="-1" Cut="0.0000000000000000e+00" cType="1" res="-6.1618946492671967e-02" rms="2.4724350869655609e-01" purity="3.0962342023849487e-01" nType="-99"/>
      </Node>
    </BinaryTree>
    <BinaryTree type="DecisionTree" boostWeight="1.0000000000000000e+00" itree="40">
      <Node pos="s" depth="0" NCoef="0" IVar="1" Cut="1.5846060514450073e+00" cType="1" res="-1.8862797878682613e-03" rms="2.0476268231868744e-01" purity="4.9929732084274292e-01" nType="0">
        <Node pos="l" depth="1" NCoef="0" IVar="0" Cut="3.4981552124023438e+02" cType="0" res="2.4886361788958311e-03" rms="2.0179018378257751e-01" purity="5.1162791252136230e-01" nType="0">
          <Node pos="l" depth="2" NCoef="0" IVar="-1" Cut="0.0000000000000000e+00" cType="1" res="1.4430396258831024e-02" rms="2.2367727756500244e-01" purity="8.8248419761657715e-01" nType="-99"/>
          <Node pos="r" depth="2" NCoef="0" IVar="-1" Cut="0.0000000000000000e+00" cType="1" res="-1.7627989873290062e-02" rms="1.6573902964591980e-01" purity="4.2783264070749283e-02" nType="-99"/>
        </Node>
        <Node pos="r" depth="1" NCoef="0" IVar="-1" Cut="0.0000000000000000e+00" cType="1" res="-7.8437373042106628e-02" rms="2.4563442170619965e-01" purity="1.3939394056797028e-01" nType="-99"/>
      </Node>
    </BinaryTree>
    <BinaryTree type="DecisionTree" boostWeight="1.0000000000000000e+00" itree="41">
      <Node pos="s" depth="0" NCoef="0" IVar="0" Cut="6.9674261474609375e+02" cType="0" res="-1.8809426110237837e-03" rms="2.0943059027194977e-01" purity="5.0785756111145020e-01" nType="0">
        <Node pos="l" depth="1" NCoef="0" IVar="1" Cut="8.2423472404479980e-01" cType="0" res="2.9139580205082893e-02" rms="1.1697515100240707e-01" purity="9.8580646514892578e-01" nType="0">
          <Node pos="l" depth="2" NCoef="0" IVar="-1" Cut="0.0000000000000000e+00" cType="1" res="4.2927000671625137e-02" rms="9.1280959546566010e-02" purity="9.9149537086486816e-01" nType="-99"/>
          <Node pos="r" depth="2" NCoef="0" IVar="-1" Cut="0.0000000000000000e+00" cType="1" res="-1.5107180923223495e-02" rms="2.5485450029373169e-01" purity="9.2805755138397217e-01" nType="-99"/>
        </Node>
        <Node pos="r" depth="1" NCoef="0" IVar="2" Cut="3.1215084838867188e+02" cType="0" res="-1.5709476545453072e-02" rms="2.3810483515262604e-01" purity="2.9479435086250305e-01" nType="0">
          <Node pos="l" depth="2" NCoef="0" IVar="-1" Cut="0.0000000000000000e+00" cType="1" res="4.2350202798843384e-02" rms="1.4252294600009918e-01" purity="9.7877985239028931e-01" nType="-99"/>
          <Node pos="r" depth="2" NCoef="0" IVar="-1" Cut="0.0000000000000000e+00" cType="1" res="-1.2908903881907463e-02" rms="2.4642631411552429e-01" purity="2.1161291003227234e-01" nType="-99"/>
        </Node>
      </Node>
    </BinaryTree>
    <BinaryTree type="DecisionTree" boostWeight="1.0000000000000000e+00" itree="42">
      <Node pos="s" depth="0" NCoef="0" IVar="0" Cut="6.1915167236328125e+02" cType="0" res="2.3636722471565008e-03" rms="2.0335562527179718e-01" purity="5.0749850273132324e-01" nType="0">
        <Node pos="l" depth="1" NCoef="0" IVar="1" Cut="1.0583213567733765e+00" cType="0" res="2.9307512566447258e-02" rms="1.0898421704769135e-01" purity="9.8757171630859375e-01" nType="0">
          <Node pos="l" depth="2" NCoef="0" IVar="-1" Cut="0.0000000000000000e+00" cType="1" res="3.9693102240562439e-02" rms="7.3229469358921051e-02" purity="9.9444752931594849e-01" nType="-99"/>
          <Node pos="r" depth="2" NCoef="0" IVar="-1" Cut="0.0000000000000000e+00" cType="1" res="-1.5535235404968262e-02" rms="2.2540107369422913e-01" purity="9.4501715898513794e-01" nType="-99"/>
        </Node>
        <Node pos="r" depth="1" NCoef="0" IVar="1" Cut="8.1538754701614380e-01" cType="0" res="-1.7012922093272209e-02" rms="2.4830128252506256e-01" purity="1.6225506365299225e-01" nType="0">
          <Node pos="l" depth="2" NCoef="0" IVar="-1" Cut="0.0000000000000000e+00" cType="1" res="-3.5497900098562241e-02" rms="2.1657675504684448e-01" purity="1.7849305272102356e-01" nType="-99"/>
          <Node pos="r" depth="2" NCoef="0" IVar="-1" Cut="0.0000000000000000e+00" cType="1" res="8.4684528410434723e-03" rms="2.7018091082572937e-01" purity="1.4785991609096527e-01" nType="-99"/>
        </Node>
      </Node>
    </BinaryTree>
    <BinaryTree type="DecisionTree" boostWeight="1.0000000000000000e+00" itree="43">
      <Node pos="s" depth="0" NCoef="0" IVar="0" Cut="6.7483734130859375e+02" cType="0" res="2.2797042038291693e-03" rms="2.0670665800571442e-01" purity="5.0919008255004883e-01" nType="0">
        <Node pos="l" depth="1" NCoef="0" IVar="1" Cut="9.3706679344177246e-01" cType="0" res="2.7839196845889091e-02" rms="1.0200589895248413e-01" purity="9.8928976058959961e-01" nType="0">
          <Node pos="l" depth="2" NCoef="0" IVar="-1" Cut="0.0000000000000000e+00" cType="1" res="4.1771210730075836e-02" rms="7.8864865005016327e-02" purity="9.9376946687698364e-01" nType="-99"/>
          <Node pos="r" depth="2" NCoef="0" IVar="-1" Cut="0.0000000000000000e+00" cType="1" res="-1.0666520334780216e-02" rms="2.2152233123779297e-01" purity="9.4674557447433472e-01" nType="-99"/>
        </Node>
        <Node pos="r" depth="1" NCoef="0" IVar="1" Cut="9.3071520328521729e-01" cType="0" res="-1.1992420069873333e-02" rms="2.4537242949008942e-01" purity="2.4110797047615051e-01" nType="0">
          <Node pos="l" depth="2" NCoef="0" IVar="-1" Cut="0.0000000000000000e+00" cType="1" res="-2.9837297275662422e-02" rms="2.0799736678600311e-01" purity="3.5633054375648499e-01" nType="-99"/>
          <Node pos="r" depth="2" NCoef="0" IVar="-1" Cut="0.0000000000000000e+00" cType="1" res="2.1765145938843489e-03" rms="2.6639154553413391e-01" purity="1.5931108593940735e-01" nType="-99"/>
        </Node>
      </Node>
    </BinaryTree>
    <BinaryTree type="DecisionTree" boostWeight="1.0000000000000000e+00" itree="44">
      <Node pos="s" depth="0" NCoef="0" IVar="2" Cut="8.6925064086914062e+01" cType="0" res="1.9301129505038261e-03" rms="1.9552533328533173e-01" purity="4.9720892310142517e-01" nType="0">
        <Node pos="l" depth="1" NCoef="0" IVar="1" Cut="4.9151179194450378e-01" cType="0" res="2.1378071978688240e-02" rms="2.2535100579261780e-01" purity="7.4433207511901855e-01" nType="0">
          <Node pos="l" depth="2" NCoef="0" IVar="-1" Cut="0.0000000000000000e+00" cType="1" res="5.2510043606162071e-03" rms="2.0721939206123352e-01" purity="7.5183284282684326e-01" nType="-99"/>
          <Node pos="r" depth="2" NCoef="0" IVar="-1" Cut="0.0000000000000000e+00" cType="1" res="6.1265453696250916e-02" rms="4.1568255424499512e-01" purity="5.9712231159210205e-01" nType="-99"/>
        </Node>
        <Node pos="r" depth="1" NCoef="0" IVar="2" Cut="7.9059867858886719e+01" cType="0" res="-2.4015581235289574e-02" rms="1.4249710738658905e-01" purity="1.6751977801322937e-01" nType="0">
          <Node pos="l" depth="2" NCoef="0" IVar="-1" Cut="0.0000000000000000e+00" cType="1" res="2.5862277834676206e-04" rms="1.8879282474517822e-01" purity="2.6428571343421936e-01" nType="-99"/>
          <Node pos="r" depth="2" NCoef="0" IVar="-1" Cut="0.0000000000000000e+00" cType="1" res="-2.9811538755893707e-02" rms="1.3361710309982300e-01" purity="1.5302300453186035e-01" nType="-99"/>
        </Node>
      </Node>
    </BinaryTree>
    <BinaryTree type="DecisionTree" boostWeight="1.0000000000000000e+00" itree="45">
      <Node pos="s" depth="0" NCoef="0" IVar="0" Cut="7.0985437011718750e+02" cType="0" res="-4.6892962418496609e-03" rms="2.1183696389198303e-01" purity="4.9960237741470337e-01" nType="0">
        <Node pos="l" depth="1" NCoef="0" IVar="1" Cut="8.4979391098022461e-01" cType="0" res="2.1888857707381248e-02" rms="1.1575821042060852e-01" purity="9.8587357997894287e-01" nType="0">
          <Node pos="l" depth="2" NCoef="0" IVar="-1" Cut="0.0000000000000000e+00" cType="1" res="3.9033707231283188e-02" rms="7.6377749443054199e-02" purity="9.9411761760711670e-01" nType="-99"/>
          <Node pos="r" depth="2" NCoef="0" IVar="-1" Cut="0.0000000000000000e+00" cType="1" res="-5.3225220181047916e-03" rms="2.6241788268089294e-01" purity="9.2258065938949585e-01" nType="-99"/>
        </Node>
        <Node pos="r" depth="1" NCoef="0" IVar="1" Cut="6.3024830818176270e-01" cType="0" res="-1.4390141703188419e-02" rms="2.3666664958000183e-01" purity="3.2211670279502869e-01" nType="0">
          <Node pos="l" depth="2" NCoef="0" IVar="-1" Cut="0.0000000000000000e+00" cType="1" res="-1.3136375695466995e-02" rms="2.1858204901218414e-01" purity="3.6919227242469788e-01" nType="-99"/>
          <Node pos="r" depth="2" NCoef="0" IVar="-1" Cut="0.0000000000000000e+00" cType="1" res="1.2118407525122166e-02" rms="2.8333976864814758e-01" purity="1.7361894249916077e-01" nType="-99"/>
        </Node>
      </Node>
    </BinaryTree>
    <BinaryTree type="DecisionTree" boostWeight="1.0000000000000000e+00" itree="46">
      <Node pos="s" depth="0" NCoef="0" IVar="0" Cut="6.2029254150390625e+02" cType="0" res="-5.0688073970377445e-03" rms="2.0081470906734467e-01" purity="4.9512669444084167e-01" nType="0">
        <Node pos="l" depth="1" NCoef="0" IVar="1" Cut="1.0038650035858154e+00" cType="0" res="1.6135141253471375e-02" rms="1.4057356119155884e-01" purity="9.7902095317840576e-01" nType="0">
          <Node pos="l" depth="2" NCoef="0" IVar="-1" Cut="0.0000000000000000e+00" cType="1" res="3.6366414278745651e-02" rms="1.1291659623384476e-01" purity="9.8686975240707397e-01" nType="-99"/>
          <Node pos="r" depth="2" NCoef="0" IVar="-1" Cut="0.0000000000000000e+00" cType="1" res="-2.2062212228775024e-02" rms="2.6993066072463989e-01" purity="9.1701245307922363e-01" nType="-99"/>
        </Node>
        <Node pos="r" depth="1" NCoef="0" IVar="1" Cut="8.0568504333496094e-01" cType="1" res="-2.0305816084146500e-02" rms="2.3355858027935028e-01" purity="1.4740368723869324e-01" nType="0">
          <Node pos="l" depth="2" NCoef="0" IVar="-1" Cut="0.0000000000000000e+00" cType="1" res="7.8757097944617271e-03" rms="2.5377863645553589e-01" purity="1.4936369657516479e-01" nType="-99"/>
          <Node pos="r" depth="2" NCoef="0" IVar="-1" Cut="0.0000000000000000e+00" cType="1" res="-2.9493551701307297e-02" rms="2.0646165311336517e-01" purity="1.4544236660003662e-01" nType="-99"/>
        </Node>
      </Node>
    </BinaryTree>
    <BinaryTree type="DecisionTree" boostWeight="1.0000000000000000e+00" itree="47">
      <Node pos="s" depth="0" NCoef="0" IVar="3" Cut="2.4077830505371094e+02" cType="0" res="-1.5438374830409884e-03" rms="2.0444445312023163e-01" purity="4.9791541695594788e-01" nType="0">
        <Node pos="l" depth="1" NCoef="0" IVar="1" Cut="1.2574013471603394e+00" cType="1" res="2.6895776391029358e-02" rms="1.5567396581172943e-01" purity="9.7342997789382935e-01" nType="0">
          <Node pos="l" depth="2" NCoef="0" IVar="-1" Cut="0.0000000000000000e+00" cType="1" res="3.1669881194829941e-02" rms="1.4962971210479736e-01" purity="9.7799175977706909e-01" nType="-99"/>
          <Node pos="r" depth="2" NCoef="0" IVar="-1" Cut="0.0000000000000000e+00" cType="1" res="2.3820748552680016e-02" rms="1.6224637627601624e-01" purity="9.6699029207229614e-01" nType="-99"/>
        </Node>
        <Node pos="r" depth="1" NCoef="0" IVar="1" Cut="6.3024830818176270e-01" cType="0" res="-1.0851347818970680e-02" rms="2.1724212169647217e-01" purity="3.4229248762130737e-01" nType="0">
          <Node pos="l" depth="2" NCoef="0" IVar="-1" Cut="0.0000000000000000e+00" cType="1" res="-1.4201207086443901e-02" rms="1.8802992999553680e-01" purity="3.7637069821357727e-01" nType="-99"/>
          <Node pos="r" depth="2" NCoef="0" IVar="-1" Cut="0.0000000000000000e+00" cType="1" res="9.0903462842106819e-03" rms="2.8356489539146423e-01" purity="2.4276860058307648e-01" nType="-99"/>
        </Node>
      </Node>
    </BinaryTree>
    <BinaryTree type="DecisionTree" boostWeight="1.0000000000000000e+00" itree="48">
      <Node pos="s" depth="0" NCoef="0" IVar="0" Cut="1.7057559204101562e+02" cType="0" res="8.1918918294832110e-04" rms="2.0055918395519257e-01" purity="4.9523615837097168e-01" nType="0">
        <Node pos="l" depth="1" NCoef="0" IVar="1" Cut="1.5008606910705566e+00" cType="1" res="1.1279370635747910e-02" rms="2.2961956262588501e-01" purity="6.5946531295776367e-01" nType="0">
          <Node pos="l" depth="2" NCoef="0" IVar="-1" Cut="0.0000000000000000e+00" cType="1" res="1.0420564562082291e-02" rms="2.2774954140186310e-01" purity="6.7426162958145142e-01" nType="-99"/>
          <Node pos="r" depth="2" NCoef="0" IVar="-1" Cut="0.0000000000000000e+00" cType="1" res="-7.5444042682647705e-02" rms="2.4725721776485443e-01" purity="3.0405405163764954e-01" nType="-99"/>
        </Node>
        <Node pos="r" depth="1" NCoef="0" IVar="1" Cut="5.5136877298355103e-01" cType="1" res="-3.0671909451484680e-02" rms="3.5598888993263245e-02" purity="8.1300811143592000e-04" nType="0">
          <Node pos="l" depth="2" NCoef="0" IVar="-1" Cut="0.0000000000000000e+00" cType="1" res="-4.8559099435806274e-02" rms="6.0946792364120483e-02" purity="2.9850746504962444e-03" nType="-99"/>
          <Node pos="r" depth="2" NCoef="0" IVar="-1" Cut="0.0000000000000000e+00" cType="1" res="-5.1471706479787827e-02" rms="1.0367788374423981e-02" purity="0.0000000000000000e+00" nType="-99"/>
        </Node>
      </Node>
    </BinaryTree>
    <BinaryTree type="DecisionTree" boostWeight="1.0000000000000000e+00" itree="49">
      <Node pos="s" depth="0" NCoef="0" IVar="2" Cut="8.2650901794433594e+01" cType="0" res="7.7356184192467481e-05" rms="2.0087984204292297e-01" purity="4.9625277519226074e-01" nType="0">
        <Node pos="l" depth="1" NCoef="0" IVar="1" Cut="5.6955242156982422e-01" cType="0" res="1.5240815468132496e-02" rms="2.2863079607486725e-01" purity="7.0905393362045288e-01" nType="0">
          <Node pos="l" depth="2" NCoef="0" IVar="-1" Cut="0.0000000000000000e+00" cType="1" res="2.1929901558905840e-03" rms="2.0049628615379333e-01" purity="7.1987950801849365e-01" nType="-99"/>
          <Node pos="r" depth="2" NCoef="0" IVar="-1" Cut="0.0000000000000000e+00" cType="1" res="4.3035186827182770e-02" rms="3.7817800045013428e-01" purity="6.1092150211334229e-01" nType="-99"/>
        </Node>
        <Node pos="r" depth="1" NCoef="0" IVar="1" Cut="9.2556238174438477e-01" cType="0" res="-2.2416125982999802e-02" rms="1.4773128926753998e-01" purity="1.8058350682258606e-01" nType="0">
          <Node pos="l" depth="2" NCoef="0" IVar="-1" Cut="0.0000000000000000e+00" cType="1" res="-8.6687803268432617e-03" rms="1.0784981399774551e-01" purity="3.9416983723640442e-01" nType="-99"/>
          <Node pos="r" depth="2" NCoef="0" IVar="-1" Cut="0.0000000000000000e+00" cType="1" res="-3.5890143364667892e-02" rms="1.6779451072216034e-01" purity="4.0033362805843353e-02" nType="-99"/>
        </Node>
      </Node>
    </BinaryTree>
    <BinaryTree type="DecisionTree" boostWeight="1.0000000000000000e+00" itree="50">
      <Node pos="s" depth="0" NCoef="0" IVar="3" Cut="1.5687896728515625e+02" cType="0" res="7.2129433974623680e-03" rms="2.0100258290767670e-01" purity="5.0196230411529541e-01" nType="0">
        <Node pos="l" depth="1" NCoef="0" IVar="1" Cut="1.0149209499359131e+00" cType="0" res="3.2342746853828430e-02" rms="1.9447802007198334e-01" purity="9.2164176702499390e-01" nType="0">
          <Node pos="l" depth="2" NCoef="0" IVar="-1" Cut="0.0000000000000000e+00" cType="1" res="1.1729580350220203e-02" rms="1.2834371626377106e-01" purity="9.5149970054626465e-01" nType="-99"/>
          <Node pos="r" depth="2" NCoef="0" IVar="-1" Cut="0.0000000000000000e+00" cType="1" res="2.1648950874805450e-02" rms="3.7438225746154785e-01" purity="7.7022653818130493e-01" nType="-99"/>
        </Node>
        <Node pos="r" depth="1" NCoef="0" IVar="1" Cut="5.5033010244369507e-01" cType="0" res="-7.4278991669416428e-03" rms="2.0328082144260406e-01" purity="2.5745341181755066e-01" nType="0">
          <Node pos="l" depth="2" NCoef="0" IVar="-1" Cut="0.0000000000000000e+00" cType="1" res="-2.1667661145329475e-02" rms="1.6413146257400513e-01" purity="2.6465928554534912e-01" nType="-99"/>
          <Node pos="r" depth="2" NCoef="0" IVar="-1" Cut="0.0000000000000000e+00" cType="1" res="1.2832988984882832e-02" rms="3.0325770378112793e-01" purity="2.3132184147834778e-01" nType="-99"/>
        </Node>
      </Node>
    </BinaryTree>
    <BinaryTree type="DecisionTree" boostWeight="1.0000000000000000e+00" itree="51">
      <Node pos="s" depth="0" NCoef="0" IVar="2" Cut="8.1391944885253906e+01" cType="0" res="-1.9904936198145151e-03" rms="1.9927661120891571e-01" purity="5.0542515516281128e-01" nType="0">
        <Node pos="l" depth="1" NCoef="0" IVar="1" Cut="4.6297284960746765e-01" cType="0" res="1.0993352159857750e-02" rms="2.3105373978614807e-01" purity="7.1419394016265869e-01" nType="0">
          <Node pos="l" depth="2" NCoef="0" IVar="-1" Cut="0.0000000000000000e+00" cType="1" res="3.6209141835570335e-03" rms="2.1600292623043060e-01" purity="7.2029620409011841e-01" nType="-99"/>
          <Node pos="r" depth="2" NCoef="0" IVar="-1" Cut="0.0000000000000000e+00" cType="1" res="5.6631390005350113e-02" rms="4.1333517432212830e-01" purity="5.8741259574890137e-01" nType="-99"/>
        </Node>
        <Node pos="r" depth="1" NCoef="0" IVar="3" Cut="3.8131580352783203e+01" cType="1" res="-2.2671667858958244e-02" rms="1.3127604126930237e-01" purity="1.7289002239704132e-01" nType="0">
          <Node pos="l" depth="2" NCoef="0" IVar="-1" Cut="0.0000000000000000e+00" cType="1" res="5.0473175942897797e-02" rms="1.8706233799457550e-01" purity="6.0283690690994263e-01" nType="-99"/>
          <Node pos="r" depth="2" NCoef="0" IVar="-1" Cut="0.0000000000000000e+00" cType="1" res="-3.2981306314468384e-02" rms="1.2484413385391235e-01" purity="1.3947078585624695e-01" nType="-99"/>
        </Node>
      </Node>
    </BinaryTree>
    <BinaryTree type="DecisionTree" boostWeight="1.0000000000000000e+00" itree="52">
      <Node pos="s" depth="0" NCoef="0" IVar="3" Cut="3.5540920257568359e+01" cType="1" res="2.1948327776044607e-03" rms="1.9666688144207001e-01" purity="5.0729852914810181e-01" nType="0">
        <Node pos="l" depth="1" NCoef="0" IVar="-1" Cut="0.0000000000000000e+00" cType="1" res="5.3505346179008484e-02" rms="2.7185511589050293e-01" purity="6.3432836532592773e-01" nType="-99"/>
        <Node pos="r" depth="1" NCoef="0" IVar="2" Cut="7.2703079223632812e+01" cType="0" res="-4.4403446372598410e-04" rms="1.9351507723331451e-01" purity="5.0380110740661621e-01" nType="0">
          <Node pos="l" depth="2" NCoef="0" IVar="-1" Cut="0.0000000000000000e+00" cType="1" res="5.7096304371953011e-03" rms="2.1743920445442200e-01" purity="6.7142432928085327e-01" nType="-99"/>
          <Node pos="r" depth="2" NCoef="0" IVar="-1" Cut="0.0000000000000000e+00" cType="1" res="-3.2412264496088028e-02" rms="1.2081110477447510e-01" purity="1.2898936867713928e-01" nType="-99"/>
        </Node>
      </Node>
    </BinaryTree>
    <BinaryTree type="DecisionTree" boostWeight="1.0000000000000000e+00" itree="53">
      <Node pos="s" depth="0" NCoef="0" IVar="0" Cut="6.7854577636718750e+02" cType="0" res="-4.0869428776204586e-03" rms="1.9286696612834930e-01" purity="4.9524387717247009e-01" nType="0">
        <Node pos="l" depth="1" NCoef="0" IVar="1" Cut="7.5060629844665527e-01" cType="0" res="2.2333614528179169e-02" rms="9.5045574009418488e-02" purity="9.9062132835388184e-01" nType="0">
          <Node pos="l" depth="2" NCoef="0" IVar="-1" Cut="0.0000000000000000e+00" cType="1" res="3.7334736436605453e-02" rms="7.5746305286884308e-02" purity="9.9424183368682861e-01" nType="-99"/>
          <Node pos="r" depth="2" NCoef="0" IVar="-1" Cut="0.0000000000000000e+00" cType="1" res="-1.6288422048091888e-02" rms="2.1088251471519470e-01" purity="9.5104897022247314e-01" nType="-99"/>
        </Node>
        <Node pos="r" depth="1" NCoef="0" IVar="1" Cut="1.4740092754364014e+00" cType="1" res="-1.8020009621977806e-02" rms="2.2690945863723755e-01" purity="2.3400309681892395e-01" nType="0">
          <Node pos="l" depth="2" NCoef="0" IVar="-1" Cut="0.0000000000000000e+00" cType="1" res="-5.1475372165441513e-03" rms="2.2686374187469482e-01" purity="2.4284785985946655e-01" nType="-99"/>
          <Node pos="r" depth="2" NCoef="0" IVar="-1" Cut="0.0000000000000000e+00" cType="1" res="-7.0232614874839783e-02" rms="2.1669375896453857e-01" purity="6.2893085181713104e-02" nType="-99"/>
        </Node>
      </Node>
    </BinaryTree>
    <BinaryTree type="DecisionTree" boostWeight="1.0000000000000000e+00" itree="54">
      <Node pos="s" depth="0" NCoef="0" IVar="0" Cut="1.7057559204101562e+02" cType="0" res="5.5998736061155796e-03" rms="1.9342015683650970e-01" purity="5.0874751806259155e-01" nType="0">
        <Node pos="l" depth="1" NCoef="0" IVar="1" Cut="6.8322497606277466e-01" cType="0" res="1.6102807596325874e-02" rms="2.2256605327129364e-01" purity="6.8505626916885376e-01" nType="0">
          <Node pos="l" depth="2" NCoef="0" IVar="-1" Cut="0.0000000000000000e+00" cType="1" res="-6.8293430376797915e-04" rms="1.8060117959976196e-01" purity="7.1848070621490479e-01" nType="-99"/>
          <Node pos="r" depth="2" NCoef="0" IVar="-1" Cut="0.0000000000000000e+00" cType="1" res="2.4599710479378700e-02" rms="3.6679163575172424e-01" purity="5.1081532239913940e-01" nType="-99"/>
        </Node>
        <Node pos="r" depth="1" NCoef="0" IVar="1" Cut="5.7142066955566406e-01" cType="1" res="-2.4660894647240639e-02" rms="3.5293724387884140e-02" purity="7.7160494402050972e-04" nType="0">
          <Node pos="l" depth="2" NCoef="0" IVar="-1" Cut="0.0000000000000000e+00" cType="1" res="-4.8101227730512619e-02" rms="5.7420697063207626e-02" purity="2.4691359139978886e-03" nType="-99"/>
          <Node pos="r" depth="2" NCoef="0" IVar="-1" Cut="0.0000000000000000e+00" cType="1" res="-5.1106836646795273e-02" rms="9.5938351005315781e-03" purity="0.0000000000000000e+00" nType="-99"/>
        </Node>
      </Node>
    </BinaryTree>
    <BinaryTree type="DecisionTree" boostWeight="1.0000000000000000e+00" itree="55">
      <Node pos="s" depth="0" NCoef="0" IVar="0" Cut="4.2748980712890625e+02" cType="0" res="-1.3420870527625084e-03" rms="1.9246634840965271e-01" purity="4.9115756154060364e-01" nType="0">
        <Node pos="l" depth="1" NCoef="0" IVar="2" Cut="2.4640519714355469e+02" cType="0" res="1.2086615897715092e-02" rms="1.9870547950267792e-01" purity="9.3121695518493652e-01" nType="0">
          <Node pos="l" depth="2" NCoef="0" IVar="-1" Cut="0.0000000000000000e+00" cType="1" res="2.9863342642784119e-02" rms="1.2668852508068085e-01" purity="9.8344063758850098e-01" nType="-99"/>
          <Node pos="r" depth="2" NCoef="0" IVar="-1" Cut="0.0000000000000000e+00" cType="1" res="-6.6073989728465676e-04" rms="2.4064703285694122e-01" purity="8.8978099822998047e-01" nType="-99"/>
        </Node>
        <Node pos="r" depth="1" NCoef="0" IVar="1" Cut="5.7500201463699341e-01" cType="1" res="-1.4440270140767097e-02" rms="1.8524399399757385e-01" purity="6.1929337680339813e-02" nType="0">
          <Node pos="l" depth="2" NCoef="0" IVar="-1" Cut="0.0000000000000000e+00" cType="1" res="1.7559304833412170e-02" rms="2.5050473213195801e-01" purity="1.2992700934410095e-01" nType="-99"/>
          <Node pos="r" depth="2" NCoef="0" IVar="-1" Cut="0.0000000000000000e+00" cType="1" res="-2.1931327879428864e-02" rms="1.5192422270774841e-01" purity="3.6532171070575714e-02" nType="-99"/>
        </Node>
      </Node>
    </BinaryTree>
    <BinaryTree type="DecisionTree" boostWeight="1.0000000000000000e+00" itree="56">
      <Node pos="s" depth="0" NCoef="0" IVar="3" Cut="1.2475733947753906e+02" cType="0" res="4.9560372717678547e-03" rms="1.9521909952163696e-01" purity="4.9907311797142029e-01" nType="0">
        <Node pos="l" depth="1" NCoef="0" IVar="1" Cut="5.9503602981567383e-01" cType="1" res="2.6270270347595215e-02" rms="2.2529937326908112e-01" purity="8.2806861400604248e-01" nType="0">
          <Node pos="l" depth="2" NCoef="0" IVar="-1" Cut="0.0000000000000000e+00" cType="1" res="3.4321140497922897e-02" rms="3.3967646956443787e-01" purity="8.3846151828765869e-01" nType="-99"/>
          <Node pos="r" depth="2" NCoef="0" IVar="-1" Cut="0.0000000000000000e+00" cType="1" res="3.9298548363149166e-03" rms="2.1249432861804962e-01" purity="8.2742089033126831e-01" nType="-99"/>
        </Node>
        <Node pos="r" depth="1" NCoef="0" IVar="3" Cut="3.4120479583740234e+01" cType="1" res="-1.2941779568791389e-02" rms="1.6366706788539886e-01" purity="2.2281166911125183e-01" nType="0">
          <Node pos="l" depth="2" NCoef="0" IVar="-1" Cut="0.0000000000000000e+00" cType="1" res="5.9942979365587234e-02" rms="2.3087656497955322e-01" purity="6.3200002908706665e-01" nType="-99"/>
          <Node pos="r" depth="2" NCoef="0" IVar="-1" Cut="0.0000000000000000e+00" cType="1" res="-1.4407426118850708e-02" rms="1.5894044935703278e-01" purity="2.0246618986129761e-01" nType="-99"/>
        </Node>
      </Node>
    </BinaryTree>
    <BinaryTree type="DecisionTree" boostWeight="1.0000000000000000e+00" itree="57">
      <Node pos="s" depth="0" NCoef="0" IVar="0" Cut="2.1974832153320312e+02" cType="0" res="3.4174292813986540e-03" rms="1.9075167179107666e-01" purity="5.0571376085281372e-01" nType="0">
        <Node pos="l" depth="1" NCoef="0" IVar="1" Cut="7.6812016963958740e-01" cType="0" res="1.4771577902138233e-02" rms="2.2448395192623138e-01" purity="7.4356776475906372e-01" nType="0">
          <Node pos="l" depth="2" NCoef="0" IVar="-1" Cut="0.0000000000000000e+00" cType="1" res="-1.8315614433959126e-03" rms="1.7711220681667328e-01" purity="7.8661972284317017e-01" nType="-99"/>
          <Node pos="r" depth="2" NCoef="0" IVar="-1" Cut="0.0000000000000000e+00" cType="1" res="2.2980369627475739e-02" rms="3.5961794853210449e-01" purity="5.5775076150894165e-01" nType="-99"/>
        </Node>
        <Node pos="r" depth="1" NCoef="0" IVar="3" Cut="1.0668837738037109e+02" cType="0" res="-2.0436512306332588e-02" rms="7.8226260840892792e-02" purity="6.0060061514377594e-03" nType="0">
          <Node pos="l" depth="2" NCoef="0" IVar="-1" Cut="0.0000000000000000e+00" cType="1" res="-5.0293963402509689e-02" rms="1.1796294152736664e-01" purity="1.1494252830743790e-02" nType="-99"/>
          <Node pos="r" depth="2" NCoef="0" IVar="-1" Cut="0.0000000000000000e+00" cType="1" res="-3.5310324281454086e-02" rms="7.0777900516986847e-02" purity="5.3655263036489487e-03" nType="-99"/>
        </Node>
      </Node>
    </BinaryTree>
    <BinaryTree type="DecisionTree" boostWeight="1.0000000000000000e+00" itree="58">
      <Node pos="s" depth="0" NCoef="0" IVar="1" Cut="1.5690655708312988e+00" cType="1" res="-1.5620879130437970e-03" rms="1.9890153408050537e-01" purity="4.9627542495727539e-01" nType="0">
        <Node pos="l" depth="1" NCoef="0" IVar="3" Cut="2.5609701538085938e+02" cType="0" res="1.5045115724205971e-03" rms="1.9645509123802185e-01" purity="5.0729167461395264e-01" nType="0">
          <Node pos="l" depth="2" NCoef="0" IVar="-1" Cut="0.0000000000000000e+00" cType="1" res="3.0938081443309784e-02" rms="1.3034448027610779e-01" purity="9.8436141014099121e-01" nType="-99"/>
          <Node pos="r" depth="2" NCoef="0" IVar="-1" Cut="0.0000000000000000e+00" cType="1" res="-3.4657553769648075e-03" rms="2.1233557164669037e-01" purity="3.5681009292602539e-01" nType="-99"/>
        </Node>
        <Node pos="r" depth="1" NCoef="0" IVar="-1" Cut="0.0000000000000000e+00" cType="1" res="-8.0375127494335175e-02" rms="2.4356263875961304e-01" purity="1.7964072525501251e-01" nType="-99"/>
      </Node>
    </BinaryTree>
    <BinaryTree type="DecisionTree" boostWeight="1.0000000000000000e+00" itree="59">
      <Node pos="s" depth="0" NCoef="0" IVar="0" Cut="1.7029501342773438e+02" cType="0" res="1.5531160170212388e-03" rms="1.9994062185287476e-01" purity="4.9605694413185120e-01" nType="0">
        <Node pos="l" depth="1" NCoef="0" IVar="1" Cut="6.8322497606277466e-01" cType="0" res="9.5717301592230797e-03" rms="2.3016171157360077e-01" purity="6.6281163692474365e-01" nType="0">
          <Node pos="l" depth="2" NCoef="0" IVar="-1" Cut="0.0000000000000000e+00" cType="1" res="-6.9246953353285789e-04" rms="1.9389720261096954e-01" purity="6.9738441705703735e-01" nType="-99"/>
          <Node pos="r" depth="2" NCoef="0" IVar="-1" Cut="0.0000000000000000e+00" cType="1" res="2.0395021885633469e-02" rms="3.6574187874794006e-01" purity="4.7429519891738892e-01" nType="-99"/>
        </Node>
        <Node pos="r" depth="1" NCoef="0" IVar="1" Cut="6.1026853322982788e-01" cType="0" res="-2.2300422191619873e-02" rms="2.3440167307853699e-02" purity="0.0000000000000000e+00" nType="0">
          <Node pos="l" depth="2" NCoef="0" IVar="-1" Cut="0.0000000000000000e+00" cType="1" res="-5.0811830908060074e-02" rms="8.2305977120995522e-03" purity="0.0000000000000000e+00" nType="-99"/>
          <Node pos="r" depth="2" NCoef="0" IVar="-1" Cut="0.0000000000000000e+00" cType="1" res="-4.7161363065242767e-02" rms="2.9985919594764709e-02" purity="0.0000000000000000e+00" nType="-99"/>
        </Node>
      </Node>
    </BinaryTree>
    <BinaryTree type="DecisionTree" boostWeight="1.0000000000000000e+00" itree="60">
      <Node pos="s" depth="0" NCoef="0" IVar="1" Cut="1.5028998851776123e+00" cType="1" res="-2.3246936034411192e-03" rms="1.9961379468441010e-01" purity="4.9787837266921997e-01" nType="0">
        <Node pos="l" depth="1" NCoef="0" IVar="3" Cut="1.6345957946777344e+02" cType="0" res="5.2888551726937294e-04" rms="1.9797521829605103e-01" purity="5.0977504253387451e-01" nType="0">
          <Node pos="l" depth="2" NCoef="0" IVar="-1" Cut="0.0000000000000000e+00" cType="1" res="1.6289949417114258e-02" rms="2.0631359517574310e-01" purity="9.2702859640121460e-01" nType="-99"/>
          <Node pos="r" depth="2" NCoef="0" IVar="-1" Cut="0.0000000000000000e+00" cType="1" res="-6.7005520686507225e-03" rms="1.9221605360507965e-01" purity="2.7496713399887085e-01" nType="-99"/>
        </Node>
        <Node pos="r" depth="1" NCoef="0" IVar="-1" Cut="0.0000000000000000e+00" cType="1" res="-6.6377915441989899e-02" rms="2.2535857558250427e-01" purity="2.0312500000000000e-01" nType="-99"/>
      </Node>
    </BinaryTree>
    <BinaryTree type="DecisionTree" boostWeight="1.0000000000000000e+00" itree="61">
      <Node pos="s" depth="0" NCoef="0" IVar="2" Cut="8.6925064086914062e+01" cType="0" res="2.1988023945596069e-04" rms="1.9468280673027039e-01" purity="4.9980315566062927e-01" nType="0">
        <Node pos="l" depth="1" NCoef="0" IVar="1" Cut="5.4784017801284790e-01" cType="0" res="9.9591016769409180e-03" rms="2.2700437903404236e-01" purity="7.3745304346084595e-01" nType="0">
          <Node pos="l" depth="2" NCoef="0" IVar="-1" Cut="0.0000000000000000e+00" cType="1" res="-1.1738442117348313e-04" rms="2.1332485973834991e-01" purity="7.4307864904403687e-01" nType="-99"/>
          <Node pos="r" depth="2" NCoef="0" IVar="-1" Cut="0.0000000000000000e+00" cType="1" res="3.1280770897865295e-02" rms="3.3612400293350220e-01" purity="6.6818183660507202e-01" nType="-99"/>
        </Node>
        <Node pos="r" depth="1" NCoef="0" IVar="1" Cut="1.0336275100708008e+00" cType="0" res="-1.3041941449046135e-02" rms="1.3797478377819061e-01" purity="1.7619711160659790e-01" nType="0">
          <Node pos="l" depth="2" NCoef="0" IVar="-1" Cut="0.0000000000000000e+00" cType="1" res="4.6322033740580082e-03" rms="1.0687857866287231e-01" purity="4.4629350304603577e-01" nType="-99"/>
          <Node pos="r" depth="2" NCoef="0" IVar="-1" Cut="0.0000000000000000e+00" cType="1" res="-2.2694284096360207e-02" rms="1.4921313524246216e-01" purity="5.6375838816165924e-02" nType="-99"/>
        </Node>
      </Node>
    </BinaryTree>
    <BinaryTree type="DecisionTree" boostWeight="1.0000000000000000e+00" itree="62">
      <Node pos="s" depth="0" NCoef="0" IVar="0" Cut="6.7385968017578125e+02" cType="0" res="-1.1971859494224191e-03" rms="1.9380326569080353e-01" purity="4.9700480699539185e-01" nType="0">
        <Node pos="l" depth="1" NCoef="0" IVar="1" Cut="9.3769103288650513e-01" cType="0" res="1.7968026921153069e-02" rms="1.0159282386302948e-01" purity="9.8918610811233521e-01" nType="0">
          <Node pos="l" depth="2" NCoef="0" IVar="-1" Cut="0.0000000000000000e+00" cType="1" res="3.7841130048036575e-02" rms="7.4528194963932037e-02" purity="9.9430739879608154e-01" nType="-99"/>
          <Node pos="r" depth="2" NCoef="0" IVar="-1" Cut="0.0000000000000000e+00" cType="1" res="-1.5467412769794464e-02" rms="2.2837758064270020e-01" purity="9.4318181276321411e-01" nType="-99"/>
        </Node>
        <Node pos="r" depth="1" NCoef="0" IVar="1" Cut="9.1886854171752930e-01" cType="0" res="-1.1555007658898830e-02" rms="2.2798024117946625e-01" purity="2.3100584745407104e-01" nType="0">
          <Node pos="l" depth="2" NCoef="0" IVar="-1" Cut="0.0000000000000000e+00" cType="1" res="-2.5765240192413330e-02" rms="1.9566147029399872e-01" purity="3.5598227381706238e-01" nType="-99"/>
          <Node pos="r" depth="2" NCoef="0" IVar="-1" Cut="0.0000000000000000e+00" cType="1" res="3.7416056729853153e-03" rms="2.4712112545967102e-01" purity="1.4180284738540649e-01" nType="-99"/>
        </Node>
      </Node>
    </BinaryTree>
    <BinaryTree type="DecisionTree" boostWeight="1.0000000000000000e+00" itree="63">
      <Node pos="s" depth="0" NCoef="0" IVar="1" Cut="1.5084780454635620e+00" cType="1" res="6.1501807067543268e-04" rms="1.9513244926929474e-01" purity="4.9561402201652527e-01" nType="0">
        <Node pos="l" depth="1" NCoef="0" IVar="0" Cut="1.7057559204101562e+02" cType="0" res="3.1274650245904922e-03" rms="1.9326639175415039e-01" purity="5.0672459602355957e-01" nType="0">
          <Node pos="l" depth="2" NCoef="0" IVar="-1" Cut="0.0000000000000000e+00" cType="1" res="6.6553358919918537e-03" rms="2.2220721840858459e-01" purity="6.7502754926681519e-01" nType="-99"/>
          <Node pos="r" depth="2" NCoef="0" IVar="-1" Cut="0.0000000000000000e+00" cType="1" res="-4.7853514552116394e-02" rms="2.1721828728914261e-02" purity="0.0000000000000000e+00" nType="-99"/>
        </Node>
        <Node pos="r" depth="1" NCoef="0" IVar="-1" Cut="0.0000000000000000e+00" cType="1" res="-6.2973499298095703e-02" rms="2.2945238649845123e-01" purity="2.0218579471111298e-01" nType="-99"/>
      </Node>
    </BinaryTree>
    <BinaryTree type="DecisionTree" boostWeight="1.0000000000000000e+00" itree="64">
      <Node pos="s" depth="0" NCoef="0" IVar="0" Cut="6.6178417968750000e+02" cType="0" res="-9.7119314887095243e-05" rms="1.8735314905643463e-01" purity="5.0242227315902710e-01" nType="0">
        <Node pos="l" depth="1" NCoef="0" IVar="1" Cut="8.3854299783706665e-01" cType="0" res="1.8595341593027115e-02" rms="9.2771448194980621e-02" purity="9.9081575870513916e-01" nType="0">
          <Node pos="l" depth="2" NCoef="0" IVar="-1" Cut="0.0000000000000000e+00" cType="1" res="3.5281870514154434e-02" rms="6.8006761372089386e-02" purity="9.9531888961791992e-01" nType="-99"/>
          <Node pos="r" depth="2" NCoef="0" IVar="-1" Cut="0.0000000000000000e+00" cType="1" res="-1.4241346158087254e-02" rms="2.3534291982650757e-01" purity="9.3661969900131226e-01" nType="-99"/>
        </Node>
        <Node pos="r" depth="1" NCoef="0" IVar="1" Cut="8.7198156118392944e-01" cType="0" res="-1.1247536167502403e-02" rms="2.2488448023796082e-01" purity="2.1108604967594147e-01" nType="0">
          <Node pos="l" depth="2" NCoef="0" IVar="-1" Cut="0.0000000000000000e+00" cType="1" res="-2.5773985311388969e-02" rms="2.0368878543376923e-01" purity="2.8344827890396118e-01" nType="-99"/>
